2644380
0.117145066823963
1.09052468018296
0.921431907727765
0.591042349918131
0.261949332700538
1.04965278112675
1.95247507706314
1.69625123633515
0.27834836468207
0.00727907746409628
0.87959975558362
1.61671705174727
0.683863296012991
-0.569638014047069
-0.356256318005394
-0.177472272771934
0.389873901711348
-0.410087998608103
-0.621506322482524
-0.869206178575279
-1.02830495034559
-1.27331335631821
-1.15885296130278
-1.39746059198202
-1.35683128420792
-0.499404460621966
-0.245999592074765
-0.413863452072324
-2.02400417254448
-1.29058362968392
-0.184819713981919
1.0542915492498
0.562160785409694
-1.07900006350261
-0.254541946861616
0.65782782173152
1.17656090467504
1.61155793874979
-0.31227986542475
-0.216696357051872
1.51677703378839
0.678322104929913
0.444535416702366
0.0027815230526798
0.413938731616148
0.634355438457322
-0.707229655100853
-1.04473078061363
-0.988391814273433
-0.315246548338863
0.0305090038594775
1.36091735626642
0.0484533500483411
-0.845073090613721
-1.8588074566429
0.583829327097498
0.309543890545894
0.0411762654887852
-1.23911538632462
-2.20959287244638
0.286037205696651
0.632118452713317
0.781408626954199
-1.10384126938567
-2.13425436438644
0.971161451091045
1.24621689572139
1.23922871789594
-0.574631317394643
-1.58440040742565
1.06644724061706
0.498370474414761
0.628982297744707
-0.372703899414706
-0.481130565988745
-1.06300037914499
-1.1681357235481
-0.904144546124725
-1.18201239899209
-1.6115702533057
-0.290728840119029
-0.73684205068618
-1.21385856919626
-0.586612474621433
-0.547849491946693
0.121721034433262
0.637169557110936
0.642338047097295
-0.0511947663082224
0.075093067475633
1.63147963826869
2.00113190001242
1.09678770462717
0.0736607682420949
0.113702329165082
1.57815933114686
1.35909450279171
0.901870451719081
-0.636946681925967
1.12597934270064
0.153107716583562
-0.16194326272054
0.696333232436171
1.79862502889664
2.71419308337975
1.4757899972352
1.03096694016718
0.837670315505017
0.773986215381119
1.61210440594877
-0.649081635309468
-0.665211415144531
-0.26551204249284
-0.742625104978487
-0.145861498095287
-1.89970836621976
-1.72792210549438
-1.86445219792374
-2.12701767646702
-1.1802062395999
-1.3700032270302
-1.94171292487438
-1.93767539386565
-0.972497213964191
-1.34527436291158
-0.436124800961261
0.906236132459405
1.70507646967853
1.98156135547931
0.669898885855747
-2.87635437777784
-1.82812984180931
-0.447099065768643
0.0842279285188404
-0.670227002000192
-2.03813602952807
-2.25519524093215
-1.88206701914355
-1.15652599151747
-2.38241992832957
0.248713338293685
-0.544647234042448
-1.07757990374233
-1.11639195710877
-1.47234736900695
1.74499728845968
1.08467699531441
0.18634984151242
0.619751425742938
-0.145878687106037
-0.429302076256431
-1.60376579635213
0.59853611546193
0.546714559365062
2.09500848271172
0.105662726761472
-0.811479336187564
1.38797607954532
0.968999889719129
2.40196369520729
0.831154823312017
0.205453440759175
1.05670779855298
1.2005300438024
1.0805006643902
-0.966762312036511
-0.33431354832217
-0.299529884173965
-0.410844592419935
-0.505367268854641
-0.741880686487711
-0.898522088920306
-0.871981919413641
-1.45836153887684
-1.94098567820959
-1.61430135585299
-0.918676811658398
-0.483717406997728
-0.774777607761675
-0.855336157205007
-1.20545929902175
-1.16691868306607
0.17114840959785
1.10223850343907
0.991556986104753
-0.714981112616882
0.173309063008543
1.55739114904613
1.83264108668327
1.97605704987084
0.15075375326401
1.27227507738046
1.32116174472635
1.18524567089726
1.91707476714456
-0.0598445478624103
-0.19713625169257
-0.786320288648664
-0.541908287038561
-0.115104679299909
1.09276953111129
0.424080612468559
-0.611737364876511
-0.665614345570271
-1.19087769610624
-0.573099402500444
-0.489603961471991
-0.780636508308699
0.448506762006991
0.288976262156122
-0.202183704014298
-0.0791523268840817
0.649300088710892
1.21292750207255
1.19802082551902
0.145149397788996
0.0749707025226535
-0.527534613770023
-1.0903591496675
-0.695310804062152
0.366961930657954
-0.190923967958315
-0.667019953172073
-0.0936088463646073
0.0588164906009846
0.252193513846776
-0.358280567268126
-0.780492285284602
-0.454426630312097
-0.10956780129901
0.0496543252178472
0.168860876943485
0.77494812547492
0.771664454375492
1.13505445468562
0.66201743026912
0.286979167490054
0.276267141393752
0.392440035304249
-0.134719273208736
-0.597036558370989
-0.0985217880525504
-0.786154145186368
0.1506412368392
0.360588129998998
0.658588947717442
0.718934540281317
0.293097751314236
0.452128515693764
0.598868980926349
-0.0749103567957392
-0.248575423951904
0.413564552524075
-0.371691843545485
-0.450127540785496
0.423701946784479
-0.0486828402365822
0.534152467752382
0.248549144662282
-0.212574075899275
-0.385333794448312
0.232134025443485
-0.458181811561986
-0.374173128729607
-0.923507932314849
0.158399139771241
-0.104897133491826
-1.24712501659177
-0.991442193070939
-0.352740381201127
-0.318143662344564
-0.302572104000502
-0.139601132524275
-0.541787589611816
-0.18697170172241
-0.312841463555583
-0.634566813869216
0.0472893721885178
0.40037074096045
-0.115411307311962
0.431750716605561
-0.2557224080822
0.157120442872302
0.458768898138016
0.688805260823081
-0.00423442847740718
0.590846433589446
-0.352997781175081
0.594359575780994
-1.27595279303881
-0.983255779021611
-0.126758424678832
-0.376708355507334
-0.552560019212082
-0.136094075597784
0.47640051270772
0.978632446858454
1.59551711062918
1.28820809821541
0.912671726517356
0.774303757228674
-0.0951170776244238
-0.162968002548666
-0.589107385785741
-0.519105371903531
0.272809710951823
0.424845979142604
0.0409100008839478
0.394491002386602
0.544615723968899
1.05525872000073
0.739494589781621
1.8603968072558
2.0952500878387
1.12925945370474
1.20828268932437
1.4045236491093
1.17382777090735
-0.21976025240789
-0.15987173803313
-0.679218441240259
-1.00871107148394
-0.6445931827605
-0.884804745941316
0.0141453680630891
-0.227431351238164
-0.0502411732824566
0.348659650344839
0.0333739017490915
0.166843436336578
0.146157908830626
0.768975438375972
0.941516160276302
1.3281385499733
1.38689274099697
-0.01562439768831
0.319237285519447
1.28324690820076
1.6294770869352
1.70998145436194
0.712885411361692
1.22042187155781
2.10941632718606
1.43680490752036
0.557692308778235
0.622371470525362
0.367217137216916
0.150516073632055
0.0555703081680595
-0.106817164496225
-0.294813985679275
-0.170405468797692
-0.959514796961875
-0.0467579050899177
0.398036661356505
-0.959565378381563
-0.230124340720551
-0.792111168357047
0.277694152701585
0.502414239801381
0.420944762810431
0.614008722467536
0.982516684043622
0.581022271456058
0.174711518719595
-0.0275188972962562
-0.773746503523564
-0.645200204698595
-0.605506591683609
0.16947222339394
-0.119392371726804
-1.50274568819771
-0.24768287962476
0.760387112792067
0.303793402989953
-0.567860033796324
-0.969215975250629
-0.738577405473968
-0.450892343169188
0.884046714799157
-0.67395617686164
-0.723861908653474
0.378376033640292
0.792806632995817
0.495272969937383
-0.47127770245844
-0.631561939084014
-0.18837361685977
-0.159835120667143
0.301234847765598
-0.147931182554043
-1.29702653201731
-1.45521304016957
-0.394360531511299
-0.140558644952462
-0.0319979933848588
0.319375574541919
0.104302390685851
0.842037671504855
-0.040949249266347
0.326790069469239
-0.686576991726391
-0.677522046728586
0.0813996143462537
0.80213251132232
-0.100267958482409
-0.746312204149772
0.138505565145461
0.327745940076347
0.382055654473025
0.231453720351128
0.293625931895373
0.439922209902715
0.235490450641267
0.507370796173046
0.150589793589398
0.143253457649848
0.401246564620293
0.396411494028509
0.805925991784499
-0.437928506921648
-0.459496886344924
0.320525002090124
0.578793469017471
0.452036020315113
0.0859594613376664
-0.445315339998335
-0.157282308078699
-0.148813125362473
0.117640636581341
0.18268855867941
-0.025019454200782
0.113364637358806
0.237541927227946
0.212546551472514
0.605756370323787
0.0278510395613643
0.187002532730008
-0.22001132928226
1.03952074058204
0.113265016710747
0.15233527712605
0.456741033766426
0.304635735951194
0.738788506804759
0.145653878293399
-0.0226991262953383
0.30789099167987
-0.020395565856625
0.763423226596765
0.0510571469978444
-0.316474077211532
0.417435431207656
0.129633129704406
0.620588595717238
0.596331969811996
-0.0217813846816415
-0.0822045583403838
0.281473085487211
0.867424727106895
0.575270250029159
0.0344379071992744
0.231707343139326
0.301598663251344
1.3360978741426
-0.202369929453388
-0.118918882474952
0.172170097590303
0.436144463561554
0.850181192977
-0.055458684124158
0.0322848775652092
-0.0102062992395352
0.921898026532955
0.231797837790102
-0.223353118359592
-0.928711751828718
-0.0584682146947687
0.0594703631256173
0.237055843892032
0.322201863961444
0.0833141556575895
-0.0847113559146403
-0.0525324068053795
0.433191028318982
0.322537686172436
0.0906322921237418
0.14720784111635
-0.0690966007412694
1.42384309893441
-0.451414430207428
-0.021564620384414
-0.116183911847985
0.72324849575558
0.496173848348451
-0.267820718315654
0.0710445662770515
0.220896563836697
0.466586863174107
0.332281682411821
-0.308384384268385
-0.641511872874596
-0.482489468599568
-0.308057317642596
-0.295592604150732
-0.550291953128666
-0.426999988307725
0.305074491065804
-0.079093086160449
-0.164841574628608
0.0884034974885905
0.525603159166548
0.320973178964272
0.0682959256280674
-0.143736299050934
0.237901462303728
0.0951186158198247
0.053211695038787
0.570603591210243
0.468566157579178
-0.392004246387515
-0.654047530466653
-0.123522903317942
0.803683861306058
0.241315798435894
0.0800393197610273
-0.173090683998026
-0.260296350549949
-0.025758682948151
0.0115563548751844
-0.135073096294561
-0.82546345858883
-0.650556102025858
0.0284660010614575
0.297503380934829
-0.233913692720333
0.344413107902758
-0.173470811524094
0.0032600355853073
0.248200610797297
0.0941168878329189
-0.0372390642164401
0.0107358624750675
0.0779986284372968
-0.0639064804404094
-0.0848785192584141
-0.111057242820185
0.0451261596149479
0.137653063846312
-0.00768087374672365
-0.460717452963279
-0.0956133894498504
0.163834966866758
0.227223743709528
-0.0791010257919013
-0.425487907158342
-0.0102051860934915
0.384826357373848
0.34558429868201
-0.597858019482013
0.257686349321822
0.487256076931947
0.862369443886067
0.753129433367054
-0.734944503956633
0.176381522130163
0.411430545941248
0.677705290547502
0.59387358377421
-0.312108615334214
-0.236347729013895
0.40646150099123
0.765409697200975
0.671266394310501
-0.486821520946152
-0.473365791539773
-0.384612917796228
-0.107729488848661
0.217927359489542
0.0223054118203936
0.205573100153893
0.378209378241816
0.545539624412606
0.699171571342054
-0.028921571725123
0.394092366098813
0.144024494427413
0.365689997063374
0.792756771058463
0.56555342104773
-0.0701457901770117
-0.152879472816502
0.507358955723037
0.973487125305631
0.23579047577384
0.00148223792310352
0.0957412108162359
-0.0700948974536537
0.949888012241012
-0.178201859039161
0.56441797699521
0.157509781569023
-0.831152534459188
-0.912994213012062
-0.322139074937654
0.260185895905902
-0.438829222475267
-0.934503836237666
-0.391571565256065
-0.538093849778469
-1.31817167754042
-0.937687558549612
-0.133023087582368
0.633005058229757
0.539228328162502
0.13888410349993
-0.121536516356016
0.851804413549097
0.667685396903564
0.0455886767502983
0.446719446818291
0.688309026296209
1.24742933597693
-0.63077760966426
0.218167402489597
0.171071822407182
0.245632456569042
-0.424685251310077
-0.00790181697517426
-0.281021381123879
-0.414510234244302
0.00648788402976297
-0.0238122588579482
-1.0053243904827
0.0138182389659268
-0.525565951513002
0.318523293703133
0.406705885852577
0.564975790905071
0.55490301149319
0.383598993339853
-0.578491549489022
-0.289526106183543
-0.0917262294166411
0.185559580889185
0.0472613199212025
-0.306042300217784
0.00545825308377421
-0.27449045094259
-0.115658363585139
0.0932355325656161
0.333138810394617
-0.714859238063189
-1.00996706646867
0.409259232022021
-0.234221861871183
-1.14954348441314
-1.04281303909176
-0.125592965650557
0.315444133174252
0.307361954351773
-0.824200629641701
-0.270805469830033
-0.389792362192557
0.0627423296734266
0.376778864511079
-0.513859110218708
-0.398655373275852
-1.29432982942395
-0.477102292486823
0.0670172919710122
0.11350760276789
-0.637808023731648
-1.10215635743389
0.212699265849264
-0.217724617501336
0.0546040166245759
-0.38739330904563
-1.01056454705148
-0.301963201458231
-0.233294442407881
0.0765916665238515
0.407096378077701
0.419221837773567
0.345334021879231
0.20744696838623
0.419527947766405
-0.0889256998416911
0.196610340454855
-0.606575371216421
0.4249437152008
0.264831984941944
0.375579300815503
0.10276621019347
-0.24153981151024
-0.634944720848545
-0.420617978182124
0.0621160748224101
-0.37154366992079
-0.199507266367076
0.390888932637222
-0.183883025095494
0.064760921033321
0.223002293180395
0.563797325278085
0.298487368284184
-0.829467860253534
-0.701287694549471
0.282562231681575
0.793935610614387
-0.345304940730821
-0.388314484285366
0.464641860256892
1.45232494966957
1.96781974826395
-0.157496330273256
0.228639743575413
0.317895623517861
1.64026075534234
2.51339559662987
0.644858397215464
-0.0686415525980817
1.22122772186999
0.0963696717826645
0.520546640301409
-0.0615696098157677
-0.0533322383832116
0.098381993461774
0.354960951931296
-0.0366741922663862
-0.00451133102416703
-0.366103380147855
-0.135133290226075
-0.219221551231723
0.0873171533958446
0.341792158057737
0.00753752910532454
0.0963510864209825
0.596341415258709
1.40616381324011
0.0921189092900668
0.0621753306983981
0.216301576313218
0.685257615237614
1.50962991988681
0.013571086096365
0.0588360467764335
0.684252124267485
0.804751957349599
0.876213990132301
-0.00729666979238623
-0.863967835614051
-0.170595356197135
0.341985380480835
-0.599341216802771
-0.756563457462072
-0.919273454811506
0.124535464908382
0.362250061818963
0.0633519406378685
-0.281427669090551
-0.112865539345402
0.997230270353075
1.23321916492627
0.384950452645305
0.970040335190064
0.919702510978476
0.546605839388793
0.373412795619169
0.247253693711861
0.814651672541549
0.664026955060482
0.0685932561864332
-0.25208602042533
-0.662752637143528
0.107578233948953
-0.862846593938959
-0.628202059210762
0.69810784278147
0.361713663632297
-0.830618843396049
-1.14310839623842
-0.641073434745655
0.131376898320017
0.991180129996851
0.575024644163143
0.628450725027736
1.05693754283117
0.482233307298362
0.633034563263585
1.06384573973707
1.02054472023516
0.0910324104196549
0.0598985308320341
-0.872213723561749
0.754314006757863
0.209703645342717
-0.282292171815549
-0.334690642980555
-1.4514939896685
-1.53045693081534
-0.469979884594999
0.167280634586268
0.13725914320011
-0.136555518203949
0.0628072417230021
0.011768416851413
0.0603684702433073
-0.629426751379596
-0.436836050346368
0.61558681577881
0.449964011559407
-0.189982278559811
-0.393070570468439
-0.144248925706563
0.359162312246864
1.02837180061196
0.27821070124121
-0.255089158726448
0.151480402942748
-0.0215362564825509
0.48442492770398
-0.190153228185041
0.315975805512945
0.672553792224714
0.0251993468952096
-0.0934156747577988
-0.219222003625471
-0.239771059592275
-0.237396201714924
0.641981199168591
0.147172966059673
0.0296288664993302
-0.418446996407956
0.131246643405483
0.572499131637974
0.723899021590892
0.812262202851807
0.0975610544235741
0.186099501322116
1.13907351887543
0.78758293618468
0.951683699578488
0.574152047686532
0.0134780180338501
-0.0538267558660912
0.000703869270710351
0.0527108704076312
-0.211134587499145
-0.120801858815702
-0.0269710778837727
-0.742009705813805
-0.161248106687424
0.0427412386057642
0.10819576158018
1.34568875805678
-0.0336831343354007
-0.170685690487511
-0.263247436087159
0.102451834366623
0.378038488934691
0.60137899815463
0.221537343281233
0.0202426533713594
0.131299598607221
-0.423422312230039
-0.233318907479943
-0.557541138003822
-0.360370905974533
-0.369029539503127
-0.547530253495018
-0.469750185972222
-0.564264775299281
-0.891277692423657
-0.524271004372828
0.494173888673492
-0.40234255573541
-0.870203300666956
-0.427573061271314
0.00558317982133989
1.05322399621579
0.370621030810692
0.149665179331591
-0.12044922146528
0.326188393409177
0.00854108430228867
0.612953718628814
1.54457031553998
0.237799261096691
0.674890719947329
0.552810944051859
0.496443273421978
-0.165631743960468
0.156538583706076
0.282499794384789
-0.408856329978799
-1.26014349716809
-0.514861828527144
-0.0839414456782473
-0.187842241717679
-0.657352032229955
0.375591892939758
0.633332285920019
0.684623553332949
0.181780191353127
-0.867090709838646
-0.47312949471028
-0.241896801212462
-0.218596527158882
-0.547199445485316
-0.397115511855199
-0.762933600565078
-0.923029275939269
-0.642636459116
-0.255696372737415
0.384081600694403
-0.0386854226525817
-0.127013827685077
0.0585331153915868
0.847134010929837
1.15380009642262
0.222541249764068
0.696745582468114
0.600908553810167
1.16975908763324
0.528306963389011
0.295833533549143
0.0358279946206248
0.522143060228067
0.882039160458391
0.428243429691931
1.01308807080499
0.95978247571083
0.519969225718527
0.786886794610619
-0.185707647261951
-0.0477360398651594
0.497622981657182
-0.166537719447276
-0.367881103566528
-0.15529788933701
-0.378404394886566
-0.337529066116131
-0.55386123583834
-0.603971069780735
-0.0208385797942634
0.190076831225805
-0.0141779876975212
-0.2682147318413
-0.679064265890173
-0.40919059321569
0.665954714583191
0.18710853054257
0.111451989995526
-0.166873111955381
-0.53023346922004
-0.112459775936211
-0.561407732899039
-0.68939377472938
-0.0742756201916387
-0.39022474702025
-0.833280900457195
-0.236961554163722
0.0454423944315677
0.639523012816252
0.775929351891815
0.360407920094304
0.377085871864336
0.935260594387859
0.992372095059793
0.681152272666002
0.411571588939995
0.104238057057228
1.16195616025393
0.75358133522401
-0.994296943970452
0.0780029981368485
-0.853090630525829
-0.591194314616918
-0.365867841209222
-0.453778463363052
-0.914839305328046
-0.854278946072713
-0.371941493960277
-0.355645310953291
-0.125734017949413
0.309314605278851
0.280739096669969
0.449284532761167
1.4401635120625
1.17126261251337
1.08593386911224
1.11665184003829
0.989770977686152
1.39203673099444
-0.267213603812548
-0.606064429797183
-0.27510204315672
0.428976845422268
0.780039588852525
1.03902089126347
0.858705002650697
1.03187795718274
0.723147235223199
0.851156979450455
0.816268947312021
0.484277746167631
0.409290944304415
0.355620227892783
-0.196464183613448
0.671425518895233
-0.504011701185756
-0.315282033456933
-0.352460589272695
0.235968041556276
-0.31685988807617
-0.571375455117364
-0.639494198418804
0.288676216286025
-0.210915124369311
-1.17034513411784
-0.685807792314022
-0.425324871613163
0.224007167722289
-0.012692287722943
0.652038544998079
0.268708075458232
0.769076942283013
0.522677071651521
0.171195706594518
-0.276928658986305
0.288732635094908
0.0660447311718621
0.292542672814783
0.165011659525784
-0.996539243436336
-0.41062895824639
0.364016499125774
-0.207682956269037
0.181348823758168
-0.53040942810678
-0.797104625694061
-0.418576900474755
-0.23151652292075
-0.282727368447857
0.185961766463899
0.100816974406762
0.325848787870493
0.223014308300049
0.060262476467448
-0.491633269833052
-0.00313229936467847
-0.304428989927315
-0.458231619487392
0.569259720874075
-1.2651536850143
-1.20750363362531
-0.397230830542728
-0.509498621362452
0.332989697854235
-0.901390980686175
-1.04939478657872
-0.138163293778702
-1.19394116264202
-0.230893712342009
-0.644314339180758
-0.07889640475605
-0.390275179996076
-0.225032466738793
-0.416913005359954
0.0882505198943711
0.614052361109395
0.250703091385228
-0.102227893496329
0.835046081461807
0.631205667129898
0.0740068256341546
0.432143241024335
-0.0184161952672546
-0.219540617174211
-1.14932474656747
-1.13923023297979
-0.353935473077668
-0.29937978758803
-0.0436022495110163
-1.3008262110599
-1.07377959147114
-0.0659462458829566
-0.340350216256516
-0.678816327147834
0.370417271142245
-0.033234073612256
0.712425760986761
-0.112943900439009
0.00683213023474553
1.27634527213429
1.15581438532941
0.535025351349145
-0.145377551391443
0.157352370155544
0.881738535587747
1.4089837848447
0.741042368204548
0.8388840053799
0.412718740327815
2.12159546026802
1.23304080799653
0.583738602094024
-0.104419568334824
-0.638757848123117
0.986070238321834
0.432717003127636
0.204813200224314
-0.18927745047437
-0.613176239054277
0.132285321489938
0.0664231875347569
-0.00163936759735419
0.0556935655749579
0.106854057438703
-0.275863621574421
-0.471555205300202
-0.504506071747085
-0.543057027604651
-0.850540666523752
-0.0417416065961578
0.121997571625151
0.178742341132286
-0.37541887306558
-0.214665736344667
-0.171960727743933
0.245027200636966
0.238988566376489
-0.330743992695797
-0.610135725138053
0.550623126732618
0.0736565899873374
0.150319467716082
-0.19562506684053
-0.84304077132901
0.496276657315548
0.189660936205808
0.56458114743647
0.112349711954121
0.0565562992993104
0.315077899178475
0.694543988495526
0.166121980938652
-0.107797849000818
-0.382866902376085
1.27346244455998
0.997694338951355
0.897100046883451
1.11627704279345
0.770631360167802
0.610533147925323
0.338182113402928
0.315437178078736
-0.168785206001108
-0.183033134086768
-0.201821280140413
-0.254319983975542
-0.379317897669707
-0.322798549614922
0.64907990997976
-0.264537706157444
0.162825990339678
-0.231774073308408
0.179518833808471
-0.234493846123214
-0.756458988152864
-0.324494327673858
-0.11843024934953
-0.027893588244729
-0.743289778263553
1.39420320311636
1.151165197014
0.951101537021702
0.96665892285659
0.511168999455282
-0.0927718787275908
-0.334023020880066
0.0763428172836818
0.104673959071322
0.0438312451750552
-1.49854274106415
-0.906107282798677
-0.637122451969549
-0.266779370328293
0.677055577149568
-0.903978485478785
-0.548244653504814
-0.415748883035232
-0.395963963154083
0.304726479196398
0.454308535623121
0.73249846469342
-0.217631298775344
-0.372196501942664
-1.02014120927284
0.432017414744368
-0.0831678788848394
-0.423868302695967
0.561158915524947
0.484426438893128
-0.356869937942375
-0.400453417280457
-0.769918929696913
-0.030831586278415
-0.222053622185362
0.23319887769841
-0.344502397458576
-0.499356578517717
-0.789186530702254
-1.0554199864558
0.212305660170978
-0.171023174438254
0.268740559155085
0.0640396138728428
-0.622939263147852
-0.182436953977875
-0.213050243441901
0.143457724233876
0.197080412378746
-0.270762128504198
-0.137080482572691
-0.0636203739409079
-0.369195722235511
-0.153275875415201
-0.274104367281646
-0.123912014133011
-0.621456707369453
-0.224439037533026
0.0539464463453271
0.176001052336277
0.450710896455159
-0.33479775894864
-0.676885168928429
-0.016183357394163
0.0268470688670206
-0.105305314235935
0.000668870188732924
-0.0753506315924989
0.544989088307431
0.104265683076994
-0.370573500486213
0.314931061340852
-0.293752673548676
-0.426348670144507
-0.635088362983514
-0.10339230507477
-0.939250565095429
-0.540905884586356
-0.572754161176152
-0.770036746532674
0.302583896924697
-0.315740748034682
-0.739569633557589
-0.290697826700968
-1.30491484829619
0.168308684061296
-0.479439914783988
0.323016707572177
0.674884761918123
-0.74779507652506
-0.306819723982749
0.0489492964895668
0.39361949373284
-0.031923782497185
-0.311750956531803
-0.0817362046164252
0.711303571411896
0.553879125004816
-0.201340794375704
0.458658606088301
-0.574464627050897
-1.02187094357744
-0.297485383062787
0.0855433290249131
-0.375121251791755
-0.747013676645333
-0.875525891570507
-0.214222510526668
-0.254870510690197
-1.67762628570322
0.626383319279421
-0.0885405328570068
-0.389025091969431
0.177401509119954
0.3878450955394
0.142638120498753
0.066372347054572
0.241116608376158
0.488886316108321
-0.281548782374906
0.430476000996672
0.227525034206263
0.288314733390004
-0.13389938755643
-0.0395444678375656
0.157095230561743
0.829055150244172
0.498978863910858
0.0860191609582287
1.20842753780354
0.325360014661977
1.01403820170326
1.00525176282774
1.07674057324166
0.700900282033758
0.797608749085556
1.14171280425558
1.5207091435666
0.392905829344726
-1.40191355344492
0.563127663793603
0.259324126643586
0.4380925653015
-0.353422534081049
-0.285575077785234
-0.646904554289783
-0.539750709716541
0.0776407966131895
0.149851487311864
0.169911333891399
-0.521962749917883
-0.302055984423908
0.389169812993589
0.867259267879689
-0.222438851908661
0.959644596311714
1.07567889433865
0.724247096488314
1.00780142585379
-0.356201219433447
0.882653279257997
1.6319046259664
2.4169156618006
1.02958023788215
-0.0417250508869351
0.996984979193261
0.766463431345983
0.798209870781388
-0.301859778348319
-0.464436805075552
-0.00997450068532457
-0.144947837238801
-0.489863732314339
-0.0969292913899865
0.00225750785195287
-0.147361814500177
0.0147265381005461
-0.198819638918809
0.284562084452935
1.30221687112718
-1.16880364763073
-0.603450667697355
-0.86201016689265
-0.730165791603701
-0.872216541828576
-0.520151117195043
-0.012416637896153
-0.255488886861043
-1.97209341073903
0.0639632019351243
0.250645718577439
-0.59489214837167
-0.664084693337003
-0.778046962637084
0.563906936912106
-0.476852337298432
0.329989476966951
0.275480158018289
-0.652066796794906
1.00600774855399
-0.388445999443605
-0.816834270575747
-0.228976148257349
0.117888351197258
0.430731952165459
-1.3229331807877
-1.46556729669702
-0.597409355659855
-0.888524683628465
-0.924264583670666
-0.111648126024524
0.0956173049135455
-0.486863417542586
-1.78973671427635
0.133178050204133
-0.145046922364194
-0.91409742859862
-0.256050487945291
-0.204201420080707
1.19018771439324
0.40179660511313
0.260764778759765
-0.355866210006123
0.905920925078612
0.428063732136111
0.134214646878276
-0.315248968314304
-0.262346012482596
0.573492853616392
1.12660607232512
-0.868805551263203
0.018137613388895
0.703744607207012
0.948522005209363
0.443038402103975
-1.16861948702829
0.795203422023322
0.694081870656016
0.193294802090966
-0.53922112440913
-0.24258740256346
1.34116207693545
0.575505286213093
-0.74146674855797
-0.365561287412982
-0.235979733199519
-0.0478714680353169
-0.192425660236947
-0.542134001061613
-0.159720619763131
-0.14795425350133
0.253598472477403
0.207373777463244
0.236121869900971
0.458909835528825
0.136317326374008
0.00871344903988935
-0.324421270002465
-0.349029655047177
-0.199983111160515
-0.40909248367364
-0.0448867007363866
-0.187691332299908
-0.629446242669142
-1.10704580576951
-0.0470090833142425
-0.145656800145081
0.258620754930162
0.204383729585177
0.457456077726053
-0.52016276120478
-0.389599893236147
-0.127209836936911
0.304101377382178
0.804014284173375
-0.726430021423323
-0.589422358008109
0.0212851104465147
-0.227438762302815
-0.219820970835507
-0.856334603891781
-0.113111906307291
-0.11198825977601
0.182300143377217
-0.833625393629942
-0.671371682337845
0.481235366136423
0.195164707375724
-0.764160900971284
-0.984486876465321
-0.170079943180601
0.337689181341511
0.201616806628059
-0.701689822191579
-0.372752369666869
0.41941208249713
0.021530083544768
-0.618346853128733
-0.36448321935734
0.139039785050135
-0.497873255333406
0.246643892579262
0.819046457101752
0.754473360664734
0.276333298226847
-0.00605104780885635
0.524937935744657
0.147290995001361
-0.318261770918563
-1.13255891254669
-0.202106881458238
0.511129242434547
-0.533391343453473
-0.850273556647249
-0.574028394398607
-0.584655644897222
-0.186015410055925
-0.100838164931817
0.197715870669492
0.380922429796198
0.0560524521204814
0.107804927739275
0.363843696974589
0.228362113792108
0.434315369712395
0.293240834741037
-0.362258605682869
-0.0976248968705062
-0.279959700362381
0.35194051563677
-1.21783917558302
-0.114115389591039
0.351585192285131
1.62376156356421
1.64629599566925
-0.00822734450097544
0.469543804063091
-0.00777839943796439
-0.243779253336951
0.575179847584913
1.05112971091022
0.54202514493487
0.605930666297166
-1.28522685968448
-0.993737389072245
0.726854981248582
0.818149483231031
0.889424242364362
0.0352594722665563
0.622949912388634
0.160634310640153
-0.0486387371580362
-0.0764034348679414
-0.713241939515518
-0.740716044649566
-0.372150046730259
-0.981853550508194
-0.378291126841819
-0.0988684213328303
0.0693741615514164
-0.0757153566892123
0.115523757504912
-0.301004942893858
0.353159165596435
0.336352794233102
-0.266014747986702
0.248139035948854
0.474155371936546
0.20656655815906
0.147592007669587
1.33614574146834
0.632888402207014
0.93445413823998
0.426853630282496
0.217854916916158
-0.33386266836757
0.172814287120212
-0.315603716991278
0.958778980788562
1.0187448210506
-0.00562705956195866
0.538434233447101
0.108325949349551
0.886151998463551
1.20993428737503
0.302279025974438
1.65813700654491
-0.776160657818018
-1.11079038752797
-0.0444772465252146
0.235019856229266
-0.130252446534037
-0.78594929504575
-1.33514030589038
-0.194612885883258
0.244750010713749
-0.473364879193796
-0.287200363530086
0.754587486627536
0.269898213451622
-0.00410892200114243
0.264853842799303
1.06666524695533
1.12783529794342
1.07800609245091
0.418273734133362
1.39235776017544
-0.0646060227123539
0.042112944134628
-0.140208351616675
0.263048285094837
0.36887746431982
-0.644274536205197
-1.3466167909939
-0.872008126306986
0.122204447118117
0.247849188767072
-0.747093893606358
-0.396276946456997
-0.0127080125523801
-0.447493814059001
-0.347481101148288
-0.0780746654153281
0.214841915042845
0.634151712043912
0.115617860908759
-0.75857361510038
-0.606016490221003
-0.675981809610941
-0.198373179265516
-0.807684991992061
-0.799996990042561
-0.103059480220469
-0.576069684196949
-0.957628061396859
-0.222052629990834
-0.438086736417353
0.219971836661777
-0.596690515423126
-1.03232145562321
0.0020968135768753
0.0467466869751102
-0.374859766693184
-0.249056686523609
0.231640279732699
0.250619550026943
-0.165034520659151
-0.420068265179557
-0.637605649979275
0.350312106025493
-0.482216311219719
-0.401250513173104
-0.240240025660284
-1.2765862915732
-0.874627317083789
-0.158570045676297
-0.4465668531593
0.0163214789861364
0.013083359738173
-0.467890444786218
-0.270232678469044
0.440807663768314
-0.0526347996654252
-0.259475433312523
0.0908661353972735
0.322112947902232
0.0924129999906978
0.0948827850855027
-0.438763469340071
-0.0205011574266457
0.260432417781251
-0.14837029167674
-0.631799620443377
-0.112409311099268
-0.245484933171374
0.142868189394199
-0.538941954658466
0.0667325370146779
-1.04204915542459
-0.950710333316573
-0.0415582041975453
-0.260409452326751
0.244806287962368
-0.274038705860811
0.394463836613558
0.18744431465698
0.258059803893712
0.668009761122521
0.287858847883091
-0.357686339234738
-0.0308910744227991
0.608119545875848
0.0379969865378063
0.155536973863573
-0.197228846830033
0.754427703636956
0.603505896970483
0.539983518498831
0.825225137440329
0.286842454538678
-0.00534813448273291
-0.532162772098888
0.262742902636041
-1.09291520844795
-1.64393588899099
-0.533958266324558
-0.324836867431816
0.30687277836854
-0.0953683266105496
-0.231268351512279
0.69252793670462
0.357575351021829
0.19912662896463
-0.393173858239401
-0.611723908447893
0.726562044518983
-0.323607864767858
-0.732303827284836
-0.0945277821339812
-0.247561343221665
1.18172507081221
0.902767234461128
0.189926822085698
0.261574045380133
-0.202840880105686
0.28971834281059
-0.578517719698581
-0.444700694674728
0.737126296628059
0.502074834674942
-0.657235282691957
-0.130129403887536
-0.527696533190934
-0.502482455607872
-0.26682246421658
-0.30494392455352
-0.0393180825512879
-0.212420050650967
-0.323536772138697
-0.829028428828852
-0.235392865904196
-0.0763351640618723
-0.615722347236632
-0.408392784552127
-0.027550559116639
-1.00894246776742
-1.58735901142748
-1.03331289186492
-0.38025925595971
0.512803015070311
0.338024102947936
0.566169151710873
0.58519603898563
0.408689138553343
-0.146794701985546
-0.0844326415813671
0.535993484731765
0.263484159550059
-0.28066544933153
-0.0201587914311395
-0.375041960451088
0.544246362637026
0.285923515701249
-0.493825740170334
-0.941823399812629
-0.909026304406997
0.167610868425437
0.161332932007423
-0.0800193269564028
-0.501218058039939
-0.345894744926995
-0.308479280853555
-0.34214178290869
-0.204697512282428
-0.0458061130097531
-1.27243979108691
-1.02042842028377
-1.10997338265395
0.321879452194407
0.836952081010867
-1.18422897210732
-0.501147858567065
-1.56688340203207
-0.152643412408488
-0.0203032085835304
-0.824346265592691
-0.378820701280721
-1.5617471275006
0.196293189033697
0.171824733385215
-0.499428687116375
-0.234100198558877
-0.945351692189133
0.317038170636754
-0.636370432977075
-0.200675200275615
-0.713849519609769
-0.540823896152435
0.497748599293651
-0.328817593033328
-0.985848182816366
-1.23218819732281
-1.52894362855665
-0.875735076303385
0.174015857370752
-0.498653847268724
0.229082654782332
-1.41410905472718
-0.417477854522507
-0.206990508017364
-0.482136137677536
-0.150493543426327
-0.675420311233496
-0.51063772467319
0.498805281166886
-0.220826739301039
-0.167974136726429
-0.369423168169498
0.0895180054005679
0.42184665586306
0.210315823762543
-0.426965485997845
-0.262000460770498
-0.203695071160868
0.246740627331056
-0.148909883558715
-0.451600940236187
-0.0506026976364385
-0.159453755130837
1.07463319921721
0.0161959074615838
1.14044151314203
0.69405598972476
-0.0818007562653966
0.374700681547718
1.56612821402301
-0.42167893513506
-0.240687429779775
-0.53660476994722
-0.182059392870267
0.251630414673005
-0.582541505584901
-0.757056555017207
0.763473086836597
1.25466566243881
-0.206093536832062
0.914101746397679
-0.045153151956172
0.32105762708868
0.209736754235124
0.184016605081776
-1.34632343154177
0.0509007522797294
0.573794169837073
-0.387841087758528
0.0368532421241692
-0.674876946911135
-0.226071560899485
1.31634975965056
0.295342171188186
-0.0481723833393524
-0.592986251673623
-0.236189634934994
-0.238461023512459
-0.0271981793462915
-0.844374325605066
-1.5453216297868
0.0281546160986971
-0.100117286325755
-0.00450161161196759
-0.123754500048225
-0.2625672760467
-0.435099023857138
1.08762071956973
-0.786483876979346
0.484191407556407
-0.831839654750477
-0.477981041528997
-0.198837046297026
0.656524341100538
-1.49119847787383
-0.373892011704783
-0.110891702826753
-0.138181916082918
0.611757990726387
-0.12948334101319
-0.700974237369855
0.19273608331106
-0.387469129556594
0.867999531266551
0.27755271922127
1.41463449885266
-0.518805734033072
-0.228518926766495
0.147871203685471
0.196697647414184
-0.728023611863377
0.0181553412914618
-0.787745853786036
-0.310978069114656
-0.221157151077434
-0.316250532971693
-0.193188432275249
-0.0636118882518975
0.107940168838713
0.371546418985871
0.701646829112021
-0.42110931262866
-0.15732765435766
0.115200493761686
-0.0626413091056398
-0.0462682316227781
-0.033807342282974
-0.33640468339749
0.384235510105472
-0.242600826982672
-0.657135562979951
0.467463861315262
0.210010921316872
-0.701097147981194
-0.109875653539214
0.288032797683429
-0.432543905356586
-0.303597917078049
0.297638143492759
-0.438568924664266
-0.498857894173084
-0.208863633910151
0.0996050689452891
0.101201617757818
-0.100564106644477
-0.709300042077439
0.972462576384544
0.529850487411254
-1.19927660832843
0.78093647870957
-1.05989067970491
0.434938602380041
-0.172011105375725
0.511839446388145
-0.830836362818098
-0.472380364150567
-0.151807740923513
-0.559051940867308
0.13821939864578
-0.0711327796874486
-1.4341318733607
-0.960858771805069
-0.725449064270724
0.414733405655384
-0.14782756405976
0.552755229321424
0.783679373879994
-0.196890623728133
1.21407948495346
-0.134418294058558
-0.0226754050861334
-0.102264050689649
-0.0755824881269302
1.02924263418679
-0.105577941802721
-0.705325749087665
-1.67313999753044
-0.604192974167597
0.620549989238722
0.507989589916684
0.261336378858706
0.300894910369531
-0.105280564496426
0.798154748174554
-0.372661506893501
-0.193904216331384
-0.134086223206816
-0.109268801698113
0.686881767968347
0.082686980442905
-0.341856032898285
-0.698031145848253
-0.662219413373287
0.224324440478313
0.586573327761512
0.222286070668765
0.414504581011859
-0.221263497871526
0.741950961572038
0.0840676250203386
-0.157942894994008
-0.0547052985813158
-0.50579835303128
-0.27115444912141
-0.369937673187424
0.291332898103006
1.03281820933735
-0.924397939298181
0.55424867664815
-0.276258241379094
-0.0827342369296111
0.283011092258041
-0.201115076147141
-0.255159221064614
0.455041885861945
-0.189914180402608
-0.22680175470292
-0.931966902455279
0.00651871394530365
0.158689987791957
-0.368695714767876
-1.0170973646921
0.213471158760087
-0.776669387088444
-0.119854755320883
-0.250405797698945
-0.465980603268866
0.140084458518058
1.47090262465899
0.139513359778625
-0.485976891182483
0.0778076362488287
0.399731720331809
1.16198099993292
0.0185686222655922
-0.118668003553264
-0.78266162117126
-0.236224390659468
0.163842092439759
0.314483042953646
0.70656313302978
-0.630687604091323
-0.0907594172537287
0.984347503463222
-0.0812719154157419
0.35055262396756
-0.0439433819042074
0.669552045327407
0.256283413019224
-0.025606774701777
0.718003211015298
-0.62533873864657
-0.399288685049963
-0.0909691874783685
0.852626679704927
0.688348154008297
-0.440494258244223
-0.0323723177135319
0.890944502023002
-0.0523862852199125
0.40735953019553
-0.0936141294563307
0.132922456265659
-0.683928905211057
-0.0487084394812381
0.983812363650264
0.293564726679607
-1.50580937815036
0.148765274078713
0.147960894742153
0.767781807018726
-1.02490938234062
0.0680823714807566
-0.395144152872842
1.18615130675781
0.533246936959971
-0.0465857861418731
0.0866599914576776
-0.516073990433765
-0.0643904991772457
0.246411646114451
0.519801618417709
-0.59705962989187
0.680423690669422
-0.359375317838762
-0.332521072264006
0.748010504431266
0.00178056017795247
-0.410060313092953
1.09884401380268
0.0241954324166688
0.0756645527406361
-0.238189953492812
0.497082489605666
0.251510434017571
-0.311348541973429
0.708067253579159
0.487380674796987
0.420725526216874
0.319478497330546
-0.191397348993025
-0.0378551154533988
0.357864454035826
-0.238194724083266
-0.0472811201561399
-0.562815977018635
0.1635008812916
0.124939245088219
-0.420237209782324
0.0792432414204329
-0.176369633124556
0.49075616385259
0.15063521567207
-0.325183610129253
0.56142925562336
-0.7906144883572
-0.0573348447625584
0.19871288478329
-0.0640084850461121
-0.266306057911835
-0.554628378721395
0.281166433881236
-0.723949008311829
-0.0553354724884858
0.0824321401151387
-0.36183022020732
0.448002320267377
0.270657523016697
-0.530044125036172
0.0759706029421291
-0.727125393197765
-0.0184109204497833
0.0460028139086073
-0.313291776979002
-0.0906143573728368
0.133835470642376
0.0506856134323378
-0.460818805109305
0.396270217564716
0.0813086888484081
0.492776172636791
0.33165577143125
-0.275729438547986
-0.142409239494103
0.516334578924143
-0.705487011508405
-0.600254985319103
0.246424502784529
-1.06318499652138
0.37262110194891
-0.45432628103396
0.0551377118161383
-0.291573654256154
-0.464192843100388
0.293496580752641
-0.703151199670246
0.645944221632781
0.451245822067539
0.313311678052735
0.50553385429235
0.305857354915785
0.132591111519031
0.146608988613051
-0.0807591376049368
-0.249246832222349
-0.493359530215286
0.304310235012133
-0.576507580970453
-0.889197187770934
0.246383726083873
-0.418332962615174
0.436597417920209
-0.285605694055027
0.738686880434739
0.124969687205679
-0.0668725493173528
-0.261771887780958
0.419931731896567
-1.0270609498634
-0.517424996659679
-0.426996703466417
0.381083329720611
-0.327692267614096
-0.209152350934729
-0.0971446024713331
-0.337753359382056
0.698086045238091
-0.331145417278991
-0.227015676787804
-0.332797259567697
0.0305734638191162
0.47418247101055
-0.0680985192528008
0.104102332895496
0.463855316994504
0.167450395993545
0.213448861048508
-0.211367748323271
0.12677755318098
0.25234627069236
-0.794509916218591
0.91670975690003
-0.154616455878662
-0.0808322850533206
0.149829469949063
-0.753595414111295
-0.463303951391
0.185690728980841
-0.0860606048758747
0.0116537210977524
-0.76349837578013
0.262686660117763
-0.765106229135961
0.0153549127418087
0.363178614632505
0.282285850117454
-0.558372612801586
0.132627992126178
0.220747656842957
0.450361360204999
0.234839890174578
-0.339422305164304
0.27424263332145
0.0259294694742834
-0.323523778774986
-0.0742087576031533
0.172887654544712
-0.282607196114488
-0.825711216742084
0.209660447516469
-0.0290662162662219
0.118727248578591
-0.490900579448661
0.384384327651983
0.309146868438717
-0.307439798712244
-0.074667037996729
0.371068005506229
-0.761790956802037
-0.247731244986106
-0.547412746123895
0.152671332460689
-0.231909815573692
-0.404721720058237
0.232556176818788
0.411519320055746
0.4238511848558
-0.759440789506637
0.260349209973114
-0.222618487698323
0.365061451012979
-0.0145780584248718
0.233230326120353
-0.665082299694164
0.498843373234127
0.085898303894056
0.014732627117137
0.129871330820954
-0.836602715815772
0.239107779750394
-0.314232117540159
-0.708947917840943
0.00386916535489526
-0.589639841240045
1.10996126928995
0.0143118425594822
-0.556778002604672
0.0551980925090658
0.897578282500222
-0.184893229139515
-0.842064508051911
0.0832034421295878
-0.834262084194758
0.264655690490934
0.234308468830324
-0.0495344598194789
0.502843939651776
-0.107768199385876
0.172033036775491
0.186311359757636
-0.0615453535005386
0.842851231143269
0.203079019974304
-0.248759823644273
-0.773576193622012
-0.184804921418021
0.0149934906390403
-0.447681220838285
-0.326775924013235
0.140589310842153
0.515921679972934
0.96965716714122
0.401581831520667
-0.353063408507804
1.21520511280297
-0.412988785413326
0.380475381224924
0.210517504868472
-0.0930179862271137
0.233339885776262
-0.434805473298503
0.0840428546980679
-0.516871750079567
-0.0871793983213636
-0.134057604220486
0.490445372328072
0.202522748756527
0.483442609465519
-0.0252618700149991
0.120841873403393
0.747715266109903
-0.784529549898907
-0.0526854526734024
-0.237660653584494
0.88547984662122
-0.270694628604446
-0.0856713069331129
0.122965359967938
0.248207553558206
-0.0370117782395972
0.213375453084595
-0.00685394501422856
0.876147080325801
0.207334303145426
-0.387973936772263
1.07932809436627
-0.573315052249242
-0.0168677985339203
-0.00285435472004921
0.758232321087158
-1.21738861775724
0.101022287036593
-0.102413232261857
-0.57008261206434
-0.079145719252962
0.0171532871481479
0.31355344610477
2.17116442177032
-0.32321751937711
-0.174872855937304
-0.117210861325383
-0.380391781564575
0.0169005764356684
-0.107643264490579
-0.00163867790619971
-1.68699263961376
0.169542488030911
0.670206573462006
-0.071709408327413
-0.25201769367194
-0.504524524641815
0.309359385340836
1.47640141142167
-1.01786252337766
-0.424725885903703
-0.0525116930231987
-0.863635328020832
-0.153852864106098
0.21833642001267
-0.319279240482547
-1.33195716117002
-0.0489930029314605
0.39179293163915
0.16744025818649
-0.200313711478099
-0.933497484955269
1.0711725346207
0.0723312003492158
-1.38500874488264
-0.256819914594868
-0.74036636969123
-0.283130278441952
-0.351676472882419
0.449380987542225
-0.944145538410267
0.381224619802623
-0.160877158264943
0.0173172276576154
1.17015726126635
-0.00367971595869563
0.417782159376435
-0.338244173414381
0.158544217120724
0.149541316572534
0.101619622670168
0.351800319830525
-0.26690122265563
0.246265494754106
0.427998161294989
0.408867734196005
0.218637132487404
0.098775543958643
0.154955987824776
0.390966039195679
0.120927767138782
-0.116113017820503
-0.508379430182354
-0.510667744655466
0.0172901199617453
-0.129579088171577
1.24057349304674
-0.304763079568897
0.163315346511415
0.863215324838179
0.353171428158786
0.316968331462969
0.0692157613441269
0.200300885709957
-0.121209527661446
-0.118649113003258
-0.514480629802799
0.330291643523406
-0.794420759514346
-0.382830904569751
0.0858916597911231
0.652420381280327
-0.0490074517366376
-0.01815407684399
0.397204922805744
-0.647791885852805
0.794462361253294
0.00512310177125918
0.0386661127743558
-0.27274627028471
-0.0378640123318771
-0.680554847220709
0.355783544889278
-1.60484447372033
0.408801871527781
0.564587586179564
0.105576797650976
-0.338900312147929
-0.380454938159437
-0.270531163899929
-0.968804989673119
0.308011799160851
-0.0607545118331048
-0.949030653640474
-0.162835649541624
0.0909241574089357
-0.205556931469857
-0.366112944539392
-0.184243056453272
0.465130359712129
0.122448049768509
-0.0812836196374233
-0.171231108371551
0.0532386107434647
0.594699023885821
0.165322916596089
-0.541844848050224
0.0408464832542201
-0.451410370212412
0.365791901735588
-0.0357368113700723
-0.295677261748962
0.141612481214062
0.644645973560402
0.830156551019794
-0.328995360255424
0.890550180278668
-0.995665736025962
0.153072557886232
-0.0568410562393047
0.0265886917471705
-0.276524626675751
0.169894004510663
-0.792442108598926
0.577282456405771
0.00554258058866138
0.727838698833676
0.0250059212914156
-0.0706508880969245
0.772733964310145
-0.550814895547822
0.742248878535963
0.0246198200499863
0.11952760126732
-0.27197154986142
0.199539997902369
0.593446330990434
0.0585866082304579
-0.442426049689784
0.420515888304236
-0.0569916972053355
1.34405889657884
0.681323137191612
-0.485739518816218
0.339076127848725
0.0966513437882344
0.251992182460218
0.311644587114318
-0.113506983940132
-0.671341115712562
0.643564405317351
0.188771017646813
-0.0898352271486168
0.180454882838393
-0.787646969217323
0.250800742875022
0.349783548691446
-0.225972424498177
0.637822397803423
-0.236186055204959
0.766636640893371
0.509002260744023
-0.183295751141961
0.272620861504941
0.38777004259037
-0.470533579927836
-0.518962436673372
0.1640382133805
-0.298154051854663
-0.295345475246226
0.368077644232491
0.506024733035653
-0.436127376724757
0.0310227388201365
-0.773970211980626
0.0532916416462763
1.0794221565644
-0.681963243090586
0.342620892303693
0.515482572692212
0.0517257808062354
0.516514438695721
0.025809689435046
0.695406280225402
-0.488058763617144
0.073001531010279
0.298293293940668
0.0392765780143707
0.16735861263545
-1.00124154449399
0.716766308522968
0.35254344250785
-0.154606387676016
0.176004745377309
0.209454832404093
1.03393662436889
-0.0119125552186957
0.158273333629103
0.78102610662243
-0.151621646569359
0.00921811264115033
1.14601255558053
0.355264224420048
-0.0163413010356217
-0.328849442408733
0.516554897269615
0.361972640986184
-0.326631363536284
0.0909318839508823
-0.0397979995517
0.543245621179056
0.460752029971527
0.117133592161708
-0.207134611101335
-0.95782949612094
0.152091043195997
-0.205194858675006
0.427077110405017
0.273567001941507
0.0735341778684808
-0.0410465765159263
-0.73654771052941
0.89840919595238
0.17560414200255
-0.429270974834813
-0.390218943707623
-0.350092480729764
0.343485572324185
0.32513016036678
0.856039309374015
0.25462602226705
0.379333378698618
-0.10829844409815
0.0188745328977434
0.614837582923942
0.335040622736426
-0.257026643335558
0.261560977900561
0.287843481162982
-0.196154081135634
-0.209600859686408
0.0197057417730649
0.163310205828623
0.0426903267493615
-0.0202674406543263
0.204615430408508
0.107501559807122
-0.199315393192161
0.454659633414769
0.368781362726143
0.26261983074969
-0.0209309339137817
0.395356993641849
0.0154221204834145
-0.208015883151928
0.363269017743322
-0.120791431381193
0.0993860358651953
-0.487236969680192
0.255164360793681
0.270604543796383
-0.172132815953806
-0.209058187479478
0.800692596590855
0.0179677300603911
0.185067867571914
0.171396164537668
0.39081806268972
0.123460272187055
-0.599224116576076
0.736042331566571
-0.417211932719295
0.357571663824328
-0.27628209766211
0.357464941651494
0.223300480008115
-0.516282292772911
0.0256957354913255
0.225593248565012
-0.115834222001761
-0.0385715103974189
-0.250562765585499
0.395171787188153
0.165082510710623
0.244751689019125
-0.360173278355654
0.384169301995761
0.120423711561362
0.171916785613201
-0.832232328873505
0.189725070220206
-0.118135805866556
0.269252998059792
-0.347891746070802
0.118099763469379
0.470077055674592
0.362333393055261
-0.253154356290156
0.138265959556037
0.0995468497416227
-0.628667150269874
0.054844583604347
0.181884575324958
-0.0730850719786298
-0.682740521831644
0.0637404314125848
-0.525822932702684
-0.0593606400800671
-0.428004829926088
0.132074168512588
0.313819204957669
-0.568928797305641
0.1495062593486
-0.0243213530949846
-0.226731579700407
-0.300783279039118
-0.770523360156334
0.133279008379351
0.0776596767149039
0.230519760263007
-0.103715107329074
-0.309971729498002
0.400308998083163
0.108834189309645
-0.791166752479283
0.159409370053834
-0.362491181235731
-0.90251381984511
-0.0808179488881633
-0.103299094238422
-0.443291916647602
-0.521161493123084
0.026434489174685
-0.0381155690230907
0.273669367174267
0.16524225274032
0.346022518849025
-0.27385447769695
0.410500760125693
0.531548494565243
-0.333509826195948
0.0630757002227744
-0.415396185696948
0.17582975665931
0.0675713933896609
-0.85223389051187
0.103472649838735
0.18935886825279
-0.443582919933291
-0.340638459595352
0.196520930144548
0.0824983137632519
0.357067192406694
0.162966783484209
-0.0482594638580415
0.139353720695923
0.232347061109969
-0.352901817227459
0.14058603581966
0.202784840266519
0.0900060781865253
-0.00867717811856451
0.111526982608872
-0.219444711693032
-0.490336759929272
0.0655379123445118
0.113389699429219
-0.782605382357405
-0.538559656529888
-0.712398983700682
0.194665601599419
0.0667407390279769
-0.612422624298626
0.192577496033587
-0.140812987714778
0.713206012657766
0.172170826589316
-0.144488477177579
0.0581602701814819
0.640205112808175
0.173283298501771
-0.215321927429965
0.579840693796577
-1.18728704355025
-0.091592533803635
1.05707808516187
0.00601257504086717
0.151764204272779
0.191421553256913
0.486641036162173
-0.242338848253442
-0.181027801433993
-0.0390696573993334
-1.30485474008401
-0.151116535557542
0.288723873269957
-0.30976375135024
0.611510734640675
0.0670868577860172
-0.179921204019588
1.05428747017066
0.557705821595482
0.236245268597894
0.261054313567373
0.726391235222811
-0.0799272307025805
-0.546998909904664
0.159766726002034
-0.59419492199976
-0.760518562585027
0.274810317300755
0.0550493055360294
0.733187596316123
-0.0410990662523991
-0.354735916358141
1.02742478436676
-0.262235201424664
-0.331673774143046
0.113205933916091
0.155124016906123
-0.346156927494742
-0.38106827288953
0.134818323790929
-0.363660766948482
-0.412842052781104
0.144102639289047
0.189722487040014
0.966668228088185
0.0250418448574213
-0.307234118558401
1.38551719045342
-0.850990600269937
-0.266637903382066
0.0848479175944689
0.870492688059645
-0.567646207598029
-0.810375258575092
0.209277784380227
-0.718665907198842
-0.879339934192692
0.105770977724801
1.06698167607523
0.942899629061184
0.0993967556964209
0.861666782064288
1.14640184819121
0.584974169928671
-0.0441072180428872
0.223650051659498
0.4110761614559
-0.515150227531733
0.467994484938258
0.0299640995762246
-1.19231522037863
-1.2171296495048
0.0450940515186906
-0.219292445332809
-0.419487158969233
-0.917573334526675
0.327337739101866
-0.297617459704476
0.745349299256868
-0.581777936307512
0.13828938593874
0.137809452132632
0.664906118440692
-0.0430119543298372
0.0391102909156845
-0.393199841879418
-0.0272054020088418
-0.0483726469961217
-0.125281672575205
0.494923921565155
-0.0546746004870198
0.385799835404508
0.140964988774036
0.438007607063632
-0.0898838644774354
-0.0217887900047656
-0.0219120740776617
0.380706555736636
-0.103767238432646
-0.0368285866838411
-0.361442311926919
-0.630036655918769
-0.0258924552554979
-0.241441714077009
0.111702188258548
-0.189734073586221
-0.163335850403061
0.202768208685653
0.0699337456231049
-0.364513597262851
0.128897707870812
-0.406645941218978
0.240658847268125
-0.657756773034115
0.0777016852823219
-0.578468152961547
-0.0242660922207203
-0.208824055162408
0.101802049326242
0.872323710479345
-0.334361705555498
-1.32014562277013
-0.0251761048603523
0.227211215128385
-0.941157788239033
-0.0254645446723529
-0.483314053511853
-0.275905887177122
-0.357135689754676
-0.103180725346556
0.246353525220208
-0.179280366783078
0.230683700600633
-0.953223973826647
0.418569475005907
-0.00778602191561084
0.274377945890474
0.452181068951425
0.21427724125455
0.142859672132549
0.172625068577279
0.104813223913526
0.492685419243236
-0.211878548457198
0.0838137399147196
-0.691511725548558
0.189101815939116
0.0627679577321693
-0.56727232736012
-0.0584068444084357
0.603775125934355
0.566026440211981
0.385764741818106
0.614786243517073
-0.0457663454645101
0.0379526540032009
0.310490678599471
0.355156920078047
-0.905768436551368
-0.0604613609375988
0.0564650508957752
-0.471499840871294
-0.0956655337332234
-0.537171216963748
0.470203704301167
0.884974845189688
0.292135646590426
0.386854393118564
-0.0869188447027389
0.47880015942836
0.05347983322418
0.31920475860035
0.733686518364869
-0.848430898483088
-0.0177756806553652
0.244503197580782
0.00950014617980165
0.0963213150994627
-0.0395332121592113
0.773831710453386
1.0260273620975
-0.476042922814063
0.202710628368783
-0.0806069180463887
-0.205053818830264
0.0855034146228237
0.323411418508554
0.903169255724282
-0.549097613374112
0.0399592670513533
-0.503724059518918
0.0186882270972069
0.235092378699096
-0.576198644523864
0.321777167505052
0.370425140145549
1.36103004206737
0.035410774693987
-0.0828785459360111
0.233534035299214
0.159370486570528
-0.240727857898369
-0.973195465210449
-0.277324350114366
0.263037909937818
-0.200067165231407
-0.0529151473157101
0.285064160359953
-0.486675146403456
0.410166365681985
0.397278848722602
0.283657435699694
0.174835443899151
0.359809712942642
0.435427769639697
0.128310572391507
0.876280116911827
0.0200252116679398
-0.730475323823506
0.138223133927423
-0.901827769269927
-0.26743575168549
0.166454067557395
-0.00858509247207245
-0.132106882795996
0.496148513279574
-0.588883466849608
0.204094389606221
-0.393980525502653
0.395918857701938
0.139345299932907
1.20262696193511
-0.33778485051319
-0.217796854822573
0.121938350502078
0.51753159641078
0.313908637295964
0.110531213216794
-0.536592411691323
0.0356779553970357
0.683088743704898
-0.212312446782699
0.691142578206998
-0.553777668608625
0.248898962214767
0.11857553848886
0.456473557386991
-0.00195912342059505
-0.773692469839868
0.118892003832744
0.0994444025624784
-0.104371761515067
0.21696713955209
0.0330573519467259
0.287545486398541
-1.39129048551494
-0.406047543971763
-1.00689921932604
-0.391775458381666
0.06501777054265
0.254170011786945
-0.21814344479509
0.267746318489316
0.142289718947689
0.162899388645269
0.387966105916304
0.910287997247672
0.0288870347634575
-0.613445834234857
-0.390142251017625
-1.61379229207506
0.373165312928376
-0.0668507469532093
0.418868664228686
-0.315108517549576
0.0224238375620428
-0.696862219048781
0.05136911399824
0.473534985720704
-0.0878485516327192
-0.707518547471108
0.397683249541358
-0.0883345824128216
-0.113896401127544
-1.107928510469
-0.0979220295923404
0.400995565504097
0.194211145354979
0.142297475130624
0.168741809092961
-0.0872629824209119
-0.333826755666065
-0.809440061621584
-0.069080674689122
0.0739203832257179
-0.505972946954025
0.0927045313887605
0.162194944134665
0.338956483984131
-0.156349737337752
-0.494988951740005
-0.376791652176023
-0.674449109108231
-0.29259262529086
0.38292432230742
0.141456966873935
-0.0277776659507174
-0.0175030359301243
0.651950499544766
0.0818822423103374
-0.0796436309548828
0.295598494905439
0.0790750815647417
0.439118348499809
-0.163080170858656
0.0368350168312949
0.956254116688034
0.250102910563563
0.453236174995075
-0.333163966906856
0.293768177615373
-0.362189437058499
0.216917373962747
-0.209563037393111
0.0470114882194871
0.191933856332553
-0.100107728215215
0.252203785399427
0.173886551220432
0.435961165686344
-0.631648391391219
-0.149037279333655
-0.520600420797888
0.825408946278692
0.0274415947932592
0.200071193367925
-0.349615694279177
0.944831503173723
-0.0160470717866767
0.0167170144453252
0.127516835211094
-0.0981317283794098
-0.325607511021905
-0.49273503171923
0.449646759296359
0.196828524085033
-1.0795404355334
-0.128630029146564
0.35614285009555
-0.479105171870192
-0.232804437534355
0.383044511793512
0.346257289898965
-0.281587092368118
-0.181937996569226
-0.797851100437196
0.0140744054377721
-0.0350097516697888
-0.371828117092026
0.508012507352012
0.611168172979208
-0.507884647311258
-0.170843094745192
-0.338301130468369
-1.14436538759383
-0.186781331120397
-0.295589590761499
-0.593582827695955
-0.505644250229665
0.0972844615516033
1.0357132824411
0.2508873647648
-0.0619604418079868
0.600987146343856
0.144338307862723
-0.228645799453679
0.449290626856283
0.66513011434791
1.73952693867255
-0.583382238972548
-0.133900511027748
1.44583384217843
1.81763070228147
-0.525497897259751
-0.0195547412395793
-0.238933381330744
-0.655432762011956
0.00217666038183557
0.873172934906549
0.0972199387232155
0.106926628692003
0.502398430336839
-0.358068908445001
1.26836570804136
-0.738490954312702
0.0466150391847966
-0.106011149183391
0.586934855942178
-0.106293973896001
0.0389217144138501
-0.200502693253127
-0.0958475005510891
-0.183426919695818
0.299564052331733
-0.553709881181298
0.199367050049142
-0.81194548895893
0.102539543535403
-0.879884286919833
-0.269339512632283
-0.071414351693007
0.4435337021627
-0.48618407996428
-0.00744379424827386
-0.0509689960508307
-0.226936049455138
-0.167956601665878
0.0219095074899782
-0.766573895330131
0.566210677101672
0.0124801060476265
-1.298515001025
-0.0702861461320191
-0.532848001408221
-1.7091300865626
-0.00824881643722857
1.51672229916074
-1.65897305010669
0.0403168411043799
-0.0104218961632166
-0.105892672231343
-0.103462426110995
-0.0504195552486211
-0.907097884852873
1.17541567320597
0.467846059567828
0.729555978019389
-0.0495742526606792
1.42820265048465
0.0761988702827963
-0.0140901689368712
0.630486519560328
0.410997554673574
-0.575925318749826
-0.175749742781946
-1.06908902845419
-0.00515670396350716
-0.00226576970751802
-0.129583390664817
-0.574233739865328
-0.0526773377836733
-0.481207233249508
-0.932749026541303
0.569260108396319
-0.113239803304532
-0.114817354881851
0.550087063638188
1.00476154526702
-0.413227273608994
-0.146242946290287
0.661209929621064
1.33337309930026
0.0829679199060995
-0.791619974858165
-0.0967041588487789
0.229522941601117
-0.55968590116747
0.334785734637777
-0.532094606199625
-0.644051261588073
0.0589460952954533
0.532468352579128
0.172743459407234
-0.294546377500558
0.103740124977707
-0.410105142865723
0.688249771065099
0.00473595798784367
-0.413588887818365
0.167179938804068
0.57497065585697
-0.321912258021316
1.14167959545451
0.320807534351719
-0.551057959346915
0.0549375858137923
0.668023395235665
-1.03805531800926
-0.590381580924443
-0.0997297897300279
-0.671611634891042
-0.896935261821316
-0.107634029921626
-1.07426781763707
-0.945866636017975
0.115220740430298
-0.257166546236329
-0.687344711602878
1.32096492923084
0.85773678330362
-0.0934506179411235
1.65954252706644
0.397235681080584
0.366097973765218
-0.0610857937115949
-0.0078562176049433
1.46151988525242
0.016683279950106
-0.442992469707012
-1.68700750594633
0.323097562437553
-0.625337106797495
0.582386247997999
0.333287864927698
0.741525747585149
-0.0217133830593759
1.42662973482158
0.69879128144915
-0.41112404788434
-0.14727228116909
0.331269361237525
0.199131423560668
-0.15865112854721
0.546321338112499
0.316609816672445
0.441617467360455
-0.606690354436861
0.116050131760577
-0.0433582102993733
0.0128061774209262
-0.331849751137558
0.22490670519386
-0.307504341012029
-0.021755267732937
-0.0679380012171245
-0.589018599687268
-0.497945305399569
-0.129669395434002
1.34407749231627
-0.27447555131854
-0.288557292188566
1.18569638113352
-0.572386310811538
0.643319013155061
-0.299583998408376
-0.118774920809603
-0.258305266453191
0.587762445787946
0.314682705380882
0.0520493560004864
-0.499706270912316
0.229545803804792
0.0533024335824565
-0.396137928843432
-0.1937742602612
-0.408349414190306
0.704360528175921
1.00800780370542
0.363794963494045
0.135886721386631
0.133643766282336
0.0362354762291899
-0.233148840186631
0.0544411275877539
-0.0614620819527936
-0.0307363728391576
-0.423681313609996
0.194856777177955
-0.22755453638762
-0.337721470188872
-0.184603863963127
0.254317626667291
0.323126673058366
-0.865394085321017
-0.28142554414603
0.0512943889775823
0.2968915644613
-0.897085806126004
0.0346756811011594
-0.0153207146208958
-0.291105554517852
-0.151789665035084
-0.0451571415632432
0.171092560103307
-0.0324445158918396
-1.660409805311
-0.426476937496502
-0.0428828990195863
-0.0615596222622021
-0.958425280564292
-0.226670841424892
0.613927129799186
-0.613515765036569
0.836026147488219
0.0431414249804953
0.12762782094239
-0.265358386590641
0.0490987795907407
-0.428257642617373
0.285199603768262
-1.61825153283064
-0.242159690063857
-0.316067672551958
-0.260800553851557
0.398106652176981
-0.00690065556531178
0.296119099127745
-0.453829339482842
1.24247335925738
0.166472438746688
-0.995413022494814
0.620260740418432
0.0232265856272312
-0.265883329156682
-0.163079288575806
0.702385891043417
0.895943862925161
-0.0525485401114127
0.501261819630517
0.199809361664437
0.129213677208736
-0.129662163159178
-0.206975100237159
-0.356954494336903
-0.0389858531363482
-0.154541480004368
0.0122939029330028
0.0168683113643527
0.161292028864438
-0.186619807755467
0.0356096356256166
-0.555503264622988
0.797876700342065
-0.464783060125932
-0.0236270677644025
-0.041048627273025
0.560196004594847
1.72041048097679
-0.559842595372331
0.0257771535610019
-0.128770158854273
1.01089830448914
0.121159720358383
-0.294338729457135
-0.575221607648894
0.707518341391676
0.458920653939243
0.383446884132651
-0.071543924035718
0.29545813010125
0.0882838831537721
0.438163722591759
-0.28341210585825
-0.123171614982261
-0.00797414901250663
1.00140017240961
-0.641729859901962
0.0301417212273185
-1.33255067562632
-0.196581107660592
-0.655035012329494
0.720032087776858
0.467903635872322
-0.00585376448188531
0.817770253103632
-0.0592331507673072
0.378586469465865
0.523609273932051
-0.0795146895583253
0.260645188130761
-1.25330533300052
0.726025526965023
-0.135496461389536
-0.615510037389137
-0.816297755143149
-0.112202383200243
-0.157554690701734
0.0910351498560218
0.123420785883239
0.440117059028224
-0.0326205655283516
0.319682242570287
-0.352609309882595
-0.178194386983329
0.0478952171801668
-0.0917940520119257
0.518222564124452
0.0181084243416911
0.274952082157084
-0.691141805274376
0.0915997824863053
-0.478150923490259
0.528376756660804
-0.178961473807879
0.325834710714921
0.0467814257693221
0.3053934526277
1.17593793870662
-0.254961918923156
-0.144425517168744
0.279553616493657
0.523772339576585
0.164551615158984
-0.0279005934915369
-0.464573477216421
0.72807844705044
0.571592614632621
-0.0416608809163766
0.183219521326797
0.177312893594566
0.075012354881792
0.636015003757898
-0.996222989260078
-0.339646466438112
-0.0169748446914388
0.346575056893492
-0.844481804786217
0.016030592620406
0.487452020765605
-0.168697253648761
0.0445172390066447
1.39668270774984
0.438626460457767
-0.274642285997091
-0.00846000175897562
0.187548273491585
-1.34542697389547
0.550500436698719
-0.202602422450046
-0.0223131396007127
0.169094066566491
0.436756655559051
-0.125497801145725
0.00440381831117769
0.30734342495351
-0.0607122505581142
0.302074409255062
0.419042823809358
0.183874531982969
-0.0411297755462274
-0.0183240552412225
0.71801258314167
0.103765754754373
-0.328696975198677
-0.0420270922616935
-0.65113378030503
-0.294662454460946
0.11618966427501
-0.106973841784761
-0.122990570100927
0.138740074883391
0.130406889489036
0.163400988520601
-0.0504055314447758
-1.17601148283742
0.159621838378161
-0.594192165877834
0.464872412945264
-0.155150784080255
-0.10017418438939
-0.551706857438688
0.42012211232852
-0.00893641292168863
-0.141115957459872
-0.422868028070464
-0.166506759893958
-0.134004059629507
-0.758027270116214
0.104909669396645
-0.522616481924896
0.0390326148403831
0.0810744515470066
0.0856562985421975
0.235876160093707
0.151729936563129
-0.117894050044366
0.189223909505838
0.37146259408448
-0.183789661638302
0.45909603523917
-0.708273621455792
-0.125024562491535
-0.508194715947777
-0.18138183515132
0.544101235762288
0.0631210011039618
-0.639159762056856
0.654608573553758
0.210903516609032
0.222785467727641
0.490411202303996
0.00163171740980828
0.370890091315616
0.227911059610245
-0.47213351304892
0.293764927511959
-0.359406852919262
0.0298252634797003
-0.196432068996805
0.202253966383552
0.504483926556815
0.179818387105756
-0.2820363139777
0.0102451669452111
0.145098396908263
0.121549886946989
0.128154144566991
0.0992480441486491
0.103549271156594
0.0379271955858431
-0.946042900453847
-0.170017156581812
0.139484550489258
0.062595141700289
0.608074811855623
0.143529332070834
-0.171349722027837
0.804368249935262
0.283757063042656
0.020321505430913
0.0292979268262397
-0.0868133309015167
0.185536049370713
0.109675048870411
0.0521846747306249
0.369695038766101
0.286122534456803
-0.332421706011331
-0.147224472688002
0.160211082093155
0.336220140673017
-0.367128070224943
-0.473207984601305
0.397597698201646
0.171071098509887
-0.34619840753718
-0.159513954254577
0.405711823252644
-0.0733260852172591
0.722517957198037
0.0873386106207132
-0.336476152392136
-0.257878227449864
-0.335764980802565
-0.0717708691270442
0.424511183006923
-0.53577018473958
-0.429002398292487
-0.32387941897381
0.308994210356418
0.607734872670249
-0.107692146021488
0.334352662955484
0.618722759913267
-0.32900064680289
-0.305672034330561
0.467724659140225
0.433589473358047
0.186622477847002
-0.534564027396987
0.137057847250533
0.163997155143431
1.01266249748978
-0.347281419267982
-0.0100087149942262
0.118584894715921
-0.550340093755013
0.130483556678572
0.369664789157608
0.144986084000159
-0.721196182938694
-0.12623023687657
-0.0840737967144519
0.528439103304807
-0.289701022481305
0.317651504832372
-0.0933925834163954
0.200306206765226
-0.016227680177586
0.319840630037779
-0.092091931875809
-0.0540954888475706
0.0442831245281429
0.812590782809648
0.394233998264805
-0.0494367625321542
-0.00413714274526669
-0.0405178903296984
0.532767817538397
0.0637865980172268
0.203532701655457
0.0473840889887796
0.424219580323626
0.546810759763176
-0.00375451672291157
-0.169433546836049
-0.0558798376749956
0.0389294686516966
0.158700666976693
0.171793034807892
-0.647842425673865
-0.644620062272962
-0.0661351737619156
0.0612062434770605
-1.29942219111622
0.187801479255499
-0.034415397693123
-0.488150773673108
0.432878679964713
0.139780844316763
-0.243432132030095
0.490139534144007
0.125050706711161
0.225001914643726
0.662645866835738
0.306022305215806
0.112857864736104
0.378494433260326
2.41434841906273
-0.415816016801731
0.18568196376805
0.545419477795673
0.768038764295646
-0.835053248804885
0.221637999619795
-0.564007603027619
-0.931088004688169
0.259079345953185
0.940929546952574
0.937655368499354
0.375738822351668
-0.677241506655329
-0.282059621468936
0.0236665634661174
0.283864334682812
0.262307114723427
0.634600843869217
0.989378224233067
-0.0449750305758055
0.101324832218895
0.298640713918629
0.416126810998907
0.0428543841586008
1.03713194085175
0.801797610712762
0.589310452044581
-0.4539661906435
0.00767571824781808
0.0776656346453873
-0.0851431501005958
0.147816349481702
0.128875746253337
-0.197088391602607
0.0482148682134376
0.0931523939637671
0.448434603207358
-0.0599656052011573
0.319860251709905
-0.543041812826368
0.00993253705921166
0.414328230882258
0.429729929756845
0.326259819920467
-0.135176829613212
-0.348204679019472
0.347250395612279
0.958793403900466
0.175164201487946
-0.580000305587574
0.216698114579162
-0.786058350634653
0.277106268426286
0.06087367675494
-2.04985996996882
0.951107215291459
-0.244317581217551
-0.183565468131172
-1.53513196989376
0.685567044989978
0.596862221442491
0.222962864075793
0.531589811040561
-0.388098221374102
-0.00264576832631663
0.189280245772685
0.175752971821048
0.633494942896556
-0.0445701758760969
-0.921522277941014
-0.283618011980359
0.0995418150739883
-0.49032458773849
-1.0106890336232
-0.258349177911819
0.930140269851382
-0.0676379138439092
0.288442098879275
0.471535048137187
0.618711143524136
-0.125648425460845
0.597497149269816
1.3400731619849
-0.0483393667710222
-0.946226206007541
-0.633071294312663
0.326853412412621
-0.252633498407496
-0.322433317491283
-0.428194734169381
0.193234127367045
-0.0709201930176897
0.227192813860393
0.424116568316811
-0.631004543050743
-0.0481168555471639
0.0266785980535408
0.495978673225027
0.288142705426277
0.169379891843301
-0.323585536232108
0.582634029241988
-0.219567482668376
-0.303433452559898
0.0109806400708339
-0.174077387468276
0.208946876482453
-0.107942123390261
-0.0926972240054895
0.278914097569056
0.126417734120959
0.125980822827662
0.493216784013318
-1.48381724965346
-1.03724366471639
-1.12546620418764
-1.08593684493423
-1.13083585363052
-0.863541434632544
-1.15356005859893
-1.54132224276791
-1.95323625461515
-1.69267303347345
1.31335194861518
0.871838792993042
1.26875440859493
-1.76029178498429
0.0345322178376503
-1.35357995857697
1.00010214645668
-0.986367846830317
-0.64847994553018
0.254140744042483
0.33225012798923
0.59325899673239
-0.107040918416131
-0.479911083830766
-0.447689574172399
0.336041202226275
0.394676512302091
1.38262790637857
0.669661562052052
-1.39625138296259
0.910648166614749
0.873967605730966
-0.0522970622918195
-0.0721452126770854
-1.32322951175653
0.307235617127176
-0.728585447585146
0.0178340644980325
0.0974147525453148
1.26366610793346
-0.933908317991071
1.04032477042164
0.698408759227959
0.911745022018692
0.806279054040461
-1.27477665402607
-1.20054050647536
-0.716904990518352
1.35276552546205
0.805371208613857
1.0883700393457
-0.647839968941738
0.722441347818431
0.999141643545752
-0.218833732787353
0.278778905485719
0.261041398155438
-1.64021017976552
0.571438838431578
-0.216694855549206
-1.0734764807272
0.879099296530786
1.26478954826321
0.940213834064053
-1.3417057936217
-0.754069068778883
-0.894995040785701
1.11828174281609
-0.947440308875942
-0.963544031162369
0.712674350628524
0.849034974170678
-0.809096785264804
0.459410452427783
0.66186613695032
-0.498060090576574
-1.02349314012348
0.936624823144184
0.531563047281149
-0.343711315462886
-1.57233666289523
-0.934396911757796
-0.999426625155969
-1.16339794397511
-1.32604517123585
-1.30044801021999
-1.47108441061414
-1.31848397133941
-1.51251443994518
-1.48475331640406
-0.105534158075159
0.887553932339471
-0.936141942575729
1.17079682808663
-0.664910120911714
1.3832884178552
-0.626985590450321
-0.929864532436683
-1.57216177353184
-0.90066472628784
1.25793679252435
-0.94572213023659
0.83088238493106
0.747329580879451
0.564689541444123
-0.869089612278287
-1.27700050619033
0.935333792887633
-0.987224104485258
-0.610304022533095
-0.42304099916942
1.30034353204832
-0.330630252689832
-0.375042560259524
1.17790540824361
-0.261028396529986
0.578447411203789
-0.960735394516631
-1.13731764675617
-1.02719917856699
-1.823097088862
-1.06448391942235
-1.10105191172161
-1.22549759712649
-0.37717715752073
-0.746015113790157
-0.837547041991513
-1.07598888192748
-1.59175343084986
-1.0262564392322
0.93507846991841
0.552517122762348
-0.372461942833897
0.0261508287127222
-0.533406353638295
-0.540609827487491
0.210616910778619
-0.0715209794524652
-0.705780054613797
0.882498363247837
-0.441824590361894
-0.912465900697357
-0.463955268099489
-0.306057348459703
0.787620304855297
0.704079048289762
-0.541359858880715
0.737335639458871
-1.06586118088606
1.20841136800641
0.761534046835807
0.343158323897756
0.730845852085269
0.425191236379508
0.399825156652824
0.475349232981104
0.027976012342885
0.10158966081821
0.749772616611695
-0.464043524204842
-0.131370993301957
-0.505578888527079
0.561034753629734
-0.364364418124198
-0.649013858510551
-1.54412037566956
-1.01594558376128
-1.09044559393527
-1.11392183755096
-1.22247619079377
-0.711806942457796
-1.24584522438804
-1.31020236861603
-1.73683579176047
-1.72074480662165
-0.147970841064991
-0.194726130221444
-0.853586382221732
-0.706496374639161
-2.89624828043656
-1.22613991881792
-1.92747624901896
-2.68917868692806
-2.18134436921345
0.317598324261337
-1.03430261179151
-0.315784236351567
-0.333049463508547
-0.77292667579086
-0.460942349828345
-0.097539839218788
