749529
0.228448821934295
1.1362146013856
1.00638361093476
0.640998223486189
0.381608566454741
0.996276063897908
1.87676861502275
1.7461622330905
0.253720157002093
0.0174295860789893
1.00861845846349
1.60178456609836
0.71492934422233
-0.549217335964471
-0.345551365173045
0.00835831296396035
0.433959815579132
-0.207388097728279
-0.649232871636621
-0.852570678282493
-1.05092896833622
-1.2256584032502
-1.17247980753674
-1.44222317295506
-1.45699026752303
-0.535953629936077
-0.0668459721308976
-0.347419352462129
-1.91434601901607
-1.41140137574323
-0.180485188132405
0.985347553741072
0.465817013179869
-0.992400347084469
-0.278445701032816
0.695433082031554
1.09292315477259
1.56274203720443
-0.345106286099532
-0.159650424842405
1.55038147175239
0.602786727199722
0.515436755408039
-0.0766446518586145
0.421078751759402
0.657015810627349
-0.581213149756616
-0.938695248250205
-1.11097947137671
-0.479285205842155
0.0407975382803887
1.16058512736405
-0.0727021044096683
-0.943047814075641
-1.92897788255144
0.484251956189998
0.366558938771444
0.124326957006739
-1.27433791131769
-2.23501568101451
0.242125729536079
0.664438959995509
0.750142640477808
-1.06794275717252
-2.06990691824989
0.936648529351763
1.33165289418896
1.28403222813296
-0.474782684221948
-1.559405171498
1.04315623605707
0.606285310543744
0.683908389784369
-0.322073410379844
-0.579249892393049
-1.05283749683563
-1.1855644809406
-0.829782717762658
-1.16098634333354
-1.65004018130911
-0.429833565263275
-0.68107722296865
-1.14773949041954
-0.554632522523786
-0.621355889303273
0.0370692535847709
0.618343963636805
0.653788393866735
-0.122823093194032
0.172953929475464
1.56265086762094
2.01429032342097
1.05194964219571
0.0408245991016744
0.290021966344936
1.56234645565177
1.42966230027238
1.03843279196184
-0.524765618520094
1.05821801301842
0.0189006384224661
-0.183944018664906
0.684578218630014
1.8170795544729
2.7986590052792
1.42672408107731
1.04533151864411
0.923828620008005
0.775108971908906
1.66189542217774
-0.642506174069956
-0.669485736203679
-0.200215144684183
-0.813534857063081
-0.049592809858794
-1.90269925463988
-1.83194667870253
-1.71172068088831
-2.20518168189146
-1.12207265686492
-1.53378474361377
-1.89315482376631
-1.86673316012805
-1.00372216186903
-1.32365557870723
-0.634903100777617
0.841534377666974
1.72369622075724
2.01309035230974
0.735091708008389
-2.85387714706108
-1.84180852988523
-0.50191042110803
0.058429673271137
-0.567654267117408
-2.03545258591105
-2.20142171034284
-1.9026861147869
-1.10275034886207
-2.35145051048745
0.133731827538132
-0.603648844429163
-1.10945015620912
-1.13133866982107
-1.57165812559914
1.65443019754091
1.07374936657391
0.253899768794563
0.676917808524103
-0.10347104290263
-0.587866564568999
-1.74495384831589
0.537069722807159
0.674144999345094
2.11596396029261
0.296828476319414
-0.796786654751054
1.39974889570426
1.02678623607841
2.31700270426915
0.796106807786103
0.271742929677086
1.17232821023871
1.22908978940185
0.99806931987199
-0.961636233763044
-0.354367632232583
-0.197939488524431
-0.394822501440636
-0.598428114572695
-0.755880602319433
-0.722309882437248
-0.771434859632519
-1.45018171552774
-1.92475827045371
-1.60154339135476
-0.925873333349102
-0.545343399053718
-0.578498979804634
-0.841982283290422
-1.25722691446707
-1.14666770101635
0.170036167962151
1.20627206543081
1.05607977454083
-0.640858590033182
0.141892329487521
1.55607972263128
1.88344858748258
1.91801627105317
0.0811361027437005
1.14400787838472
1.32814104216794
1.19942693739541
1.83098831327099
-0.148517023448381
-0.0940096596859862
-0.875342735712821
-0.594867907156617
-0.0535945739148896
0.982283989620064
0.431991913954674
-0.601709151519021
-0.536419099834484
-1.08315891091891
-0.561162353548031
-0.595776386528225
-0.755305524542757
0.267901141038193
0.21081417136969
-0.157380900096098
-0.0228035580068855
0.678220553477622
1.20369976439963
1.12695471910089
0.0134203304212855
0.0726334868103704
-0.457784444303279
-1.12121395993551
-0.749306758640071
0.322874700973354
-0.173012559620993
-0.806246681969582
-0.16153511444723
0.147910199827332
0.168924216107956
-0.374938747374912
-0.726163471676334
-0.432542770427092
-0.169111443381758
0.138686247444763
0.161489353474852
0.766718402428489
0.767044080791771
1.04130311511899
0.779746853837206
0.36633415442695
0.345904095889088
0.461012622609066
-0.175078320971422
-0.647773536966801
-0.18653915246117
-0.947027335235283
0.16154785990523
0.431939896776178
0.594809921697815
0.715372828035399
0.271464008093527
0.397329723905865
0.610930434895631
-0.132554918436113
-0.145903918847319
0.284397852576955
-0.401716121166813
-0.593362363713646
0.393540927293474
0.0307299337056269
0.493602202468206
0.16861466914765
-0.390178952639022
-0.558087924620784
0.169248892177453
-0.437975291012375
-0.25882334633176
-0.984160184321874
0.154406604400414
-0.0916265494758591
-1.28647782284279
-1.08892832893394
-0.32305405176297
-0.226836875327806
-0.288987144455898
-0.0666652662817721
-0.620013584824299
-0.168918603944446
-0.275678358861804
-0.641799552236001
0.0122159409033504
0.410426512370978
-0.0663929619941954
0.442493688591183
-0.238450148468173
0.121082213455927
0.414896600385203
0.668520419816553
-0.0187576584589465
0.557649522572178
-0.39361646434132
0.591951089586108
-1.15762108293257
-0.948348878292187
-0.224467820610333
-0.465640262344438
-0.572115125261432
-0.0986112030723325
0.472995110898698
0.947924454661525
1.67039587873982
1.33829176646491
0.944606551890869
0.762345587476334
-0.0643133586711693
-0.181599598877154
-0.561572929608837
-0.490189205430277
0.263859846262213
0.306440490151235
-0.038347781682068
0.379221210626692
0.556776789513009
1.12839344318097
0.768335016630672
1.98038503056711
2.06040484908377
1.19159596720513
1.27945561772584
1.59759959960997
1.19475651037214
-0.303715301816604
0.00683328192633382
-0.724345883806889
-0.997261863932128
-0.533348713756448
-0.865681705463046
0.0678147474287894
-0.17914357625281
0.000164684748979363
0.216378664893308
-0.00202337808919817
0.0633363533418465
0.125331769230812
0.687493845132199
0.884645665244548
1.36451031176993
1.40665232528815
0.0267841738440763
0.256495299943957
1.16534123481132
1.55066875149885
1.62182097275246
0.80436408200666
1.2614817906983
2.10747697701162
1.46324760961579
0.650807175563927
0.551508256942405
0.395849296601974
0.22075243232838
0.0680963640983271
-0.0165854082873505
-0.237537008949313
-0.106209060981072
-0.825754920267131
-0.0964312355033405
0.278679703473918
-0.996189786645238
-0.181590327574648
-0.791106646583296
0.271125794612543
0.417066132089432
0.417024483615151
0.581380465585506
1.00695041282271
0.562047287192622
0.117592463429184
0.0226319499289776
-0.742752270997483
-0.836055286481359
-0.476403413177581
0.195428506722569
-0.267448973737005
-1.47664136117473
-0.261982114996006
0.705894191575802
0.30092936981984
-0.605853049825836
-0.9496336045248
-0.800156058873534
-0.350525844122577
0.900332402987315
-0.711371337400272
-0.620952223939926
0.470873685389615
0.754436727193589
0.379562844731815
-0.426705275877367
-0.641714427924854
-0.115893849440149
-0.192652697355367
0.265545474053248
-0.242552085891598
-1.29396335036673
-1.5596852333474
-0.323309485537953
-0.0512226665531411
-0.137902113458396
0.155651002733015
0.0954529437711174
0.871269419662174
0.197102620635985
0.35439545374041
-0.658206315235667
-0.628726397691579
0.000422429905691365
0.705313287865562
-0.0406432499103553
-0.738122801043611
0.171374907064209
0.348317314587925
0.40802152694618
0.299719485345388
0.344357873222239
0.377284965342153
0.124368784893211
0.515238800006123
0.16196558453911
0.0816511881470253
0.336004383098508
0.346992229313346
0.925327057049513
-0.405183837167272
-0.352644037988324
0.397886069455298
0.779743499349901
0.569762637752833
0.158123448467134
-0.35115990385124
-0.1933868612395
-0.110180804982347
0.0798250369349371
0.199170564914546
-0.00551654768781728
0.129372325627927
0.198193390743493
0.200630071834044
0.534815805268844
0.0313090765920147
0.143490760119011
-0.216062544625271
1.00252758872464
0.117699617457175
0.0726154900088429
0.385291791116402
0.345887865854808
0.742678479020035
0.141514767364252
-0.143011031164152
0.277669816840973
-0.0921777187925466
0.680121938352268
0.0577443209734479
-0.290721207450415
0.341544908883315
0.143258264311499
0.54515663879828
0.612956909537946
-0.0380407064166015
-0.074167343731966
0.155080920039623
0.72056760642472
0.57799081356169
0.0879761787923299
0.149793606473687
0.300795439432633
1.38232884207393
-0.147912760923492
-0.189389042845909
0.163490879804495
0.470579828798805
0.942245928753194
-0.0335962393163097
-0.0127878579368141
-0.0292173645803161
0.812247320740892
0.247030225962896
-0.283264530215865
-0.832602424750612
-0.0394246798868992
0.0825336978651652
0.242597812240648
0.311533976568208
0.0552335851079751
-0.0491279520550377
-0.068171417395808
0.367041912431497
0.395957706776142
0.0595331125706266
0.177494475880853
0.0296631444045377
1.50298641264411
-0.387494531543216
-0.0750316655169997
-0.0659416691535774
0.763579630100917
0.550935912989682
-0.294798223259095
0.0190618914355625
0.303547246177408
0.476398062807903
0.262071397886027
-0.305218668532605
-0.635830539292047
-0.447958228874071
-0.390894128116225
-0.420220559758626
-0.479935481309947
-0.393743726610053
0.316040231936492
-0.0847466691104754
-0.141266741173044
0.0315799609423091
0.494156349219297
0.32609040898501
0.0718716938539234
-0.183055540010087
0.214842577943497
0.0895833985058619
0.0796785630101298
0.504484291159775
0.436501010757096
-0.284947849259507
-0.569421926624502
-0.129425286560373
0.726367620074749
0.167058441015022
0.048764826034827
-0.22502846620427
-0.328243829068676
-0.113739702302146
-0.0561809192684138
-0.161199798176447
-0.813393183350804
-0.66055117078529
-0.0567631804530866
0.288131942471933
-0.311656127911274
0.321973259779422
-0.122301399378817
0.0605145893250305
0.265825052432672
-0.0027944721082702
-0.113733164585013
-0.0551374499393064
0.0411326516168599
0.0262748368669341
-0.17122189031557
-0.140670372982709
0.0618486164303548
0.0980193272253128
-0.0402696664092349
-0.396730158821567
-0.0828284210137924
0.0557308208442446
0.253934307267036
0.00149047918093669
-0.502635880524308
0.0667293385894922
0.444665931042963
0.392681224199286
-0.541342608309781
0.212810076700305
0.428670902308388
0.917371405449883
0.663042216283831
-0.727549885820818
0.133001011857652
0.348034666174492
0.754086295654919
0.680848753710862
-0.351236236723761
-0.147768422361141
0.50321297612123
0.88302003466057
0.673069747116489
-0.482254614197742
-0.480495259923682
-0.350151117608038
-0.070277702517065
0.229951479164899
0.108483844176243
0.207648195314837
0.35417796051704
0.527804519753588
0.695379476106457
0.00503257096054637
0.40171709075961
0.0663214259019954
0.453839280680093
0.808124207361129
0.513876139272064
-0.0857955621588652
-0.11687464877842
0.68547802349831
0.946351113202931
0.170633786133206
0.00990225682269032
0.161057388136109
-0.10472372502862
0.95364546551859
-0.283976962981882
0.585237073371266
0.200204099903552
-0.877400616460957
-0.961991850710729
-0.371485553738041
0.352824893258799
-0.384068325887891
-0.92814721309005
-0.298214392884475
-0.463157050465297
-1.43913278687302
-0.938832242034634
-0.315766392437644
0.585407690581039
0.52702563549918
0.17567110983011
-0.17379925634447
0.85870949091773
0.721759058371384
0.0571333000205479
0.330746919525455
0.773635364846796
1.24722353448787
-0.680548768001605
0.147307395932393
0.174500822052695
0.254454343154863
-0.455797964357916
-0.18978076463735
-0.264601978761062
-0.366795614875581
0.0531617935917147
-0.0342170466544378
-1.03427392949946
-0.119195132673036
-0.385302583883926
0.269315479205238
0.332928613781672
0.634358018908381
0.453653836812468
0.426201327672261
-0.516982890312138
-0.291543808393123
-0.280468481983671
0.19234219235323
-0.0228527763376331
-0.204356985883613
0.00172650140882774
-0.249600726940352
-0.199214324435222
0.105934421784752
0.205007103444166
-0.719339091624552
-1.09389983476736
0.445591553688781
-0.250991385375013
-1.0348221951448
-0.991183067799353
-0.219460740418654
0.293411399772032
0.398585978188556
-0.674643723561824
-0.370986390647388
-0.379795076239199
-0.0424748604433189
0.349471343657854
-0.509140517186949
-0.347932006342072
-1.2785345142828
-0.581299031727425
-0.0145324614566108
0.125416776014812
-0.649085168329659
-1.02390833352239
0.145326028549405
-0.174044809987219
-0.0598420539648513
-0.397728945901749
-0.993467996985393
-0.219211876781081
-0.186080570057429
-0.0210650849088886
0.501753566363118
0.467055553894142
0.233844902976707
0.185274399530907
0.342776573481289
-0.123439758089719
0.237591817712597
-0.574701051730932
0.467532951026258
0.381891418701841
0.357376084385359
0.00637090375924607
-0.332226074926369
-0.661682608106612
-0.300298814428039
0.0949146354562724
-0.335070337292683
-0.124614833612512
0.308492531037082
-0.153597867305595
0.0123659306910336
0.18500517749416
0.667280792589673
0.261294382928828
-0.876966364740763
-0.839283728834793
0.314137824134386
0.773741286372332
-0.324063518252837
-0.273484010497728
0.496530739712354
1.47714532261791
1.93236773860459
-0.183166498846581
0.360261725874039
0.309441050298535
1.68087152441773
2.4936945617867
0.689456305574578
-0.0698196024650276
1.02965892873471
-0.0203603239738143
0.427174103298005
-0.11742369243258
-0.0783550141356017
0.158407915729183
0.256710308708965
-0.0151361308874649
-0.0569836522041705
-0.362137051003271
-0.192732254788634
-0.211371560084763
0.129853774536122
0.283170086213613
0.0363928904770776
0.13226046735623
0.616774019239878
1.42650381304433
0.0401225911521565
0.167536115076279
0.280605970506891
0.671446067781805
1.51048388880177
0.0428261861681334
0.113501362079514
0.660422539021996
0.728429506242073
0.874467636626369
-0.123575187076229
-0.858324114534049
-0.182682315609923
0.473586879259057
-0.476811609220178
-0.756571804646293
-0.890755071797872
0.0459149169776591
0.387588005604389
-0.00638056382579752
-0.369253544912178
-0.0459559532236182
1.10723057240648
1.32722190779016
0.330062329831699
1.02813349717057
1.04466557462821
0.742437426696435
0.278224513363443
0.18669042213977
0.787308225340786
0.522945530635758
0.0773855433451739
-0.212265209182574
-0.659531980969355
0.0831165773127007
-0.86819022638926
-0.558706495038433
0.70293649030507
0.459326296857243
-0.877160622499801
-1.1223571348638
-0.61138718465891
0.276578357390796
0.945576137593077
0.409018134327919
0.738184384581759
1.02493326779195
0.442985570544208
0.646607259375376
1.04450890984415
1.02404857689461
0.0186245453302185
-0.0842096418764231
-0.961177163179405
0.751860431903112
0.261623243619236
-0.172207752410707
-0.292348499704083
-1.45167184004708
-1.43610039064248
-0.676341059243781
0.174827335198267
0.0934306671379994
-0.118335856724957
0.113069897092729
-0.0179998517507409
0.0441676050554071
-0.585274398075648
-0.470813709484297
0.608084716923295
0.470675133540442
-0.134106904084699
-0.348627170277176
-0.202296297295731
0.369535889330208
0.892074499446783
0.177743644542935
-0.28222192546603
0.212991818517542
0.0159385691559519
0.481587824725617
-0.256275221420462
0.385497362044795
0.660878386362045
-0.149569901274885
-0.119400387778076
-0.147334535882754
-0.192017895891055
-0.137309030291838
0.401209732258398
0.135069506486197
0.0464475255019668
-0.509050851253166
0.0518085966475061
0.606703583863207
0.834915988648419
0.748488779377898
0.0944952298563034
0.124990916409108
1.15467026667215
0.818905747783051
0.827430830850356
0.447630924118075
-0.0179308560768132
-0.0961122742088079
0.0541981764136673
0.0814262262205032
-0.264140313947579
-0.091320734562023
0.0171757565651321
-0.763148344451211
-0.145817689849607
0.0190684272598799
0.162564913432922
1.25197205971699
0.069912072028271
0.00451152360589754
-0.204329178599642
0.0516163754702906
0.523685272884174
0.617339391089959
0.18158185147789
0.0556479031098931
0.122095410555386
-0.337563599188697
-0.140840237821995
-0.570899407112909
-0.3367796173359
-0.344643074837959
-0.565660144210939
-0.483068766704433
-0.583965845181591
-0.888582163160265
-0.606505473510212
0.337415462852631
-0.301415796173904
-0.781730321653433
-0.396037633221518
0.0294588444219463
1.11459622331324
0.305645108547491
0.0387884551585989
-0.181845344604951
0.351697047976823
0.0613281357862548
0.631167176030242
1.45763599825027
0.284799598334237
0.654054939459701
0.580131805828788
0.484577752058408
-0.122666240634586
0.0233398161954301
0.231358324189418
-0.628815342701846
-1.26359566754032
-0.557916914410459
-0.197130621577752
-0.194599565313787
-0.659885982898151
0.406695776979645
0.699136033209162
0.68722237204464
0.165890240011222
-0.90915394115454
-0.390080395581534
-0.159018170032551
-0.160181309651336
-0.561292547428169
-0.48444231116535
-0.779969268294895
-0.858628597765761
-0.631912118102609
-0.324622285054119
0.410822603993968
-0.0248453152283637
-0.163515036677228
0.017128024156169
0.823399890589756
1.19936169227355
0.303723295490451
0.671474374116114
0.64030741868056
1.224733601328
0.308216477301144
0.233991889921801
0.107494695514127
0.502631972405615
0.767591842948643
0.404303149601027
1.0407381235149
1.03038440000842
0.51807607256274
0.754917531916551
-0.262089140453571
-0.033185476631856
0.473406971752367
-0.142430092617986
-0.375836418403381
-0.194526215381834
-0.355266069398924
-0.342610238543084
-0.600467249775319
-0.648061773609591
-0.0838347690994945
0.0855698644249982
-0.0468732252401275
-0.278598962380165
-0.604209510136828
-0.547402424080743
0.691551241265048
0.187616862011109
0.112969709495109
-0.107391343197751
-0.436410444503835
-0.194649545302805
-0.646381652013635
-0.595437756765967
0.00593994217539328
-0.321751577843884
-0.817111595481249
-0.209997993633766
0.039650801743788
0.629091379535357
0.671304067966314
0.333432024844106
0.332103737022609
0.987231255212435
1.06136957823398
0.682312443963559
0.360553520295309
0.0617906497716277
1.30002540667428
0.788220165953644
-0.978962974828108
0.026347721772759
-0.790582402049859
-0.587187522329107
-0.409293467810053
-0.496452623909622
-0.944395213632666
-0.75691056235321
-0.414978264773237
-0.281542964619229
-0.0898898894207497
0.334636240472838
0.150332025200435
0.513913321675927
1.51622948812447
1.17139084224577
1.04137586029246
0.999780374653231
1.10806895342356
1.47416262964824
-0.291249881113021
-0.626702696632998
-0.143936476433751
0.5296402470582
0.983804553154978
1.01413452884755
0.871312632966443
1.05999175530822
0.76370971465667
0.937911301125379
0.746589996812945
0.481827456663291
0.446562117332074
0.285946049283159
-0.234334899399638
0.682447190226946
-0.514670531868552
-0.365247797429271
-0.358177287339874
0.32104907563446
-0.381931318061001
-0.652129784656979
-0.482098396831603
0.232031349461428
-0.112432950900592
-1.23740199010596
-0.692115272385069
-0.306822057118822
0.232011816248249
-0.104571025019652
0.664150248886535
0.193970157516988
0.73646898482344
0.371352536585179
0.135540789212837
-0.262914218460424
0.200672509038415
0.0217751233928682
0.200137936631447
0.157217540772749
-0.921250587559855
-0.547550949241869
0.261924312320996
-0.224993593671522
0.215701389959222
-0.571961521986134
-0.745916457504044
-0.451981736512421
-0.239042822341415
-0.324511295056618
0.168533749663637
0.122526586151965
0.288183518182581
0.21909608029217
0.012811599128505
-0.433828991050066
-0.0758311875627624
-0.216259540148816
-0.443704555447097
0.526732049979207
-1.28057987766733
-1.15129765498664
-0.329054483152637
-0.634342734064992
0.292892850043752
-0.963457236596325
-1.1558317531905
-0.283952662868229
-1.20410579489335
-0.286722571380356
-0.667969116085463
-0.0784921802291756
-0.29929501205206
-0.181472734278329
-0.382470517459862
0.0511945048407869
0.520785522543397
0.421486279699808
-0.121531371165623
0.77176202616115
0.605725800662834
0.0246758394887255
0.26070488360029
-0.0821493884719973
-0.23991949988621
-1.16652659470405
-1.23056178361289
-0.324678504339683
-0.232640411170284
0.00473329013617103
-1.39107600324735
-1.12798030736797
-0.138114401472613
-0.163434576671384
-0.51055683055626
0.312362852601518
0.000672687133134324
0.757081874045424
-0.102370523451338
0.0216402542096539
1.3201078288537
0.980705064331633
0.416134590793714
-0.133005958430691
0.217307225752478
0.933174389073954
1.41230060657508
0.905373077642788
0.779681908848879
0.351277271716722
2.01656697283268
1.27467839556654
0.566015163502776
-0.103771532557637
-0.641013244798236
1.08537933197411
0.598895182390798
0.280531054025428
-0.166420555224582
-0.532286558642538
0.172637743379884
0.0815209312298059
-0.0105610908385613
0.0228980239548812
0.107787328683377
-0.360646674734445
-0.511501828334734
-0.471717119654113
-0.532169616628112
-0.874591094454222
-0.168166181154181
0.0984170385798535
0.22769645776822
-0.407382583692689
-0.313810606078976
-0.139828631714959
0.261097444539398
0.260556186458495
-0.339778179896051
-0.626427346620175
0.63021602168679
0.188388630372732
0.115417943558296
-0.16478827513196
-0.738656671962597
0.49236025791449
0.25356552069755
0.561689459619651
0.132185279861273
0.0382383928525727
0.223035850632617
0.645639937868632
0.0855126328151508
-0.0928218387701447
-0.359828685881247
1.3388035612894
1.14628123381576
0.995030405031011
1.21829792092454
0.830301387284217
0.748273318030521
0.344513531155149
0.288058257543868
-0.151160619543334
-0.263880030862551
-0.140788398086131
-0.249218057394377
-0.43445201624027
-0.433281676084076
0.475809093041428
-0.162661519501787
0.224829411697727
-0.183338410128077
0.220952010607183
-0.226692857569633
-0.610805471135902
-0.304879232322922
-0.123708403127327
0.0275756731949512
-0.654171757206364
1.38738183850517
1.12146053862397
0.954839239005947
0.868682582999745
0.465761149015448
-0.0932731532747245
-0.233472176426936
0.122481873576656
0.035451019361749
-0.0075435799505045
-1.48241992233944
-0.813740565368679
-0.687794934387303
-0.241909108356374
0.665762207038697
-0.968357283391746
-0.573358342128279
-0.523196022433782
-0.512357424038597
0.255463114968392
0.371788480447141
0.794036144869256
-0.141829643251147
-0.317196648029877
-0.955576617844578
0.459922337472515
0.0223133054300633
-0.280511527747273
0.540314204734274
0.639212549822777
-0.227091916027509
-0.414429248435325
-0.721620180134597
-0.0472615323104225
-0.14707698550738
0.195246383307238
-0.321513618597644
-0.541761673486342
-0.771661955566241
-1.0962340558943
0.209998472408997
-0.295348554246166
0.263376524352968
0.118387676364088
-0.63595689924016
-0.16498273248241
-0.201357911589173
-0.0527970569172975
0.123770589760084
-0.278186955494004
-0.0808461307400327
-0.223287913287603
-0.374582816633526
-0.245135887769067
-0.254832229938123
-0.134777394483559
-0.724794747810802
-0.239743418119266
-0.0554424149224016
0.18893918884708
0.424926160001132
-0.336198955705353
-0.691989388242137
0.0625927690948602
0.0996874436503537
-0.208776181300323
0.0768154411575274
-0.199541714811449
0.590379928868405
0.0766784804914706
-0.200324686691785
0.299163132743099
-0.407354656229723
-0.409175541879226
-0.546743997169136
-0.160627125433226
-1.06079044574644
-0.492369519947951
-0.494547180017561
-0.874495634835151
0.285292619127907
-0.474336453183841
-0.722317374607261
-0.428748934544464
-1.28855037824819
0.129708689847676
-0.553398279256305
0.271742211644655
0.687238861478714
-0.699869368144418
-0.315398023728165
-0.0494581285416487
0.307106918461885
-0.0807241780475677
-0.451192669083414
0.00722940031008844
0.841664453296859
0.521915685586884
-0.256801891868163
0.482389719083122
-0.611828258517915
-1.23984616637792
-0.378656528498231
-0.00795209209711094
-0.367766424738852
-0.768471745261051
-0.930427123866644
-0.286263797812902
-0.304803573895821
-1.61727876244792
0.579076555209217
-0.114341402005172
-0.419326711435513
0.157153194652926
0.387721282795846
0.183815176610577
0.135918777449614
0.271220235617125
0.509165616557855
-0.365865488225342
0.457107517288921
0.217318581359686
0.243730622058634
-0.136425853725254
-0.0133030517346003
0.328656778130477
0.819793130605913
0.395478713238053
0.00777551941969654
1.12690920299162
0.401304676398926
1.04836517270457
1.10638673502378
1.08012545245306
0.757242818650857
0.717218096942188
1.11175743644378
1.44300084551977
0.373521604625299
-1.36196877212456
0.471904566216652
0.221729447669334
0.531655494070675
-0.462187746705798
-0.22546010484431
-0.532275020761443
-0.420456452344111
0.152420462662035
0.149461228192553
0.044050304268046
-0.448760887292478
-0.298061461434078
0.274332928607065
0.770119374568037
-0.196128822352058
0.925812485724249
1.09942834371303
0.796825382355802
0.979624809877632
-0.312466002699187
0.860534377862261
1.64909362971126
2.48358083533475
1.03038557269523
-0.114645918642655
1.04274709928343
0.811552220274644
0.894805789312566
-0.390560845893365
-0.641692687970124
0.0692736813503277
0.0441224849970941
-0.362101385074649
-0.138893678526027
-0.0398707733690842
0.016968207526897
-0.0208877508159606
-0.197367603327997
0.24148286576835
1.24596108415305
-1.21493718518895
-0.564113920524997
-0.698648473628024
-0.707151598057929
-1.01947433050087
-0.399457407654209
0.0662094938163745
-0.211625066506425
-1.90135268198522
-0.169233373017172
0.293472194495127
-0.559947716129831
-0.727944613244421
-0.799803747560439
0.524354249486256
-0.455951103239557
0.314269507826003
0.256330970958331
-0.609245219824012
0.945978904053012
-0.461832764303748
-0.89303381554907
-0.263361749324907
0.112055557291018
0.382152010230701
-1.28947162202748
-1.40968777542275
-0.509155981804631
-0.921755730636321
-0.940510716220898
-0.089475903732866
0.10426368903734
-0.548298477467632
-1.83509078136004
0.154886067111589
-0.0910491563672976
-0.851348506760353
-0.225142398631854
-0.244342824469833
1.19200937196358
0.371384417725436
0.366577181601437
-0.394683765792145
0.741869783051394
0.355464582896425
0.129124346543018
-0.297321845777472
-0.261518541418542
0.573445449402131
1.04178060908793
-0.894240597806697
-0.100535178336628
0.581523859577401
0.947234664631894
0.527529760021375
-1.1062855309696
0.659164686911363
0.778100421080867
0.209492541796282
-0.763729043345368
-0.301954521208794
1.23703679692418
0.664317381507781
-0.976525849280704
-0.535034181197484
-0.340042768152105
-0.0233216170712923
-0.252398278272328
-0.604942712798873
-0.309028811755999
-0.0660684377861723
0.322330771245233
0.121809103850144
0.249537838790318
0.486219619852581
0.196114052768303
0.0839134373551914
-0.337483931843906
-0.391150690418397
-0.0678089653633204
-0.379667536766774
-0.165397905356764
-0.159384481619297
-0.586764993996062
-1.1096612052576
-0.0940678277173754
-0.0676503126864551
0.126609903545847
0.271307169118337
0.504694932851824
-0.591489571746316
-0.463746933110191
-0.155133232708807
0.203835499498342
0.733359978126904
-0.789551550619483
-0.524131093200507
0.0185681934472709
-0.242181356519617
-0.176439859897682
-0.814024823614185
0.00672193384099089
-0.028217257975252
0.0814165640515003
-0.86590859443961
-0.494004697759293
0.545057468443835
0.328940694093022
-0.770594337172185
-1.02795913130359
-0.157752745911485
0.28412102815145
0.180437367207205
-0.6540035779259
-0.302784695689542
0.408004884532939
-0.0200465207300746
-0.561194550951707
-0.203198470231256
0.187916698802526
-0.361463532552065
0.235839495249525
0.860017719191303
0.76283501060103
0.256691581393994
0.0245386929718669
0.53244577701313
0.0494125047483237
-0.396400651603868
-1.00501654588248
-0.172438085177864
0.398928746587911
-0.577847983056468
-0.959707111969715
-0.541635510614382
-0.523217261504213
-0.236934484504848
-0.00608076119275455
0.226283015766788
0.461029390249872
0.108387430639756
0.110725310623553
0.338518496706366
0.185731575118797
0.357832756725804
0.206206668625641
-0.399236615808607
-0.223593739477976
-0.217864670785099
0.474974388635806
-1.2753563036741
-0.194369243453216
0.295722351843622
1.63007707403979
1.64265895218304
-0.0155539175877961
0.520300337069832
-0.140612589232097
-0.247287154198733
0.383213055238703
1.19185589062394
0.528197652336906
0.70895302177359
-1.27254431727747
-1.04550543637049
0.689374297039038
0.722933442934842
0.821347727155616
0.113792351986098
0.639824311874487
0.118747046124696
-0.19957505985443
-0.153765564561844
-0.639521980742671
-0.571436034678232
-0.356091071581918
-0.926182233195225
-0.344538422582619
-0.0825849866010739
0.129971622838293
-0.108702798870734
0.143149060791673
-0.241049492845238
0.290122376505586
0.237370532115006
-0.241375930108395
0.262525188191225
0.478534147303964
0.225185260677386
0.200052826981471
1.27784668065898
0.716602007215848
1.06923668212722
0.575579796783093
0.328145252615425
-0.385901004509832
0.0845724014288334
-0.264796867599017
0.905238503200697
1.01223760696991
-0.0576098990809243
0.714371593198768
0.198668406831918
0.740161318801366
1.07491441144782
0.293422111341514
1.69050123429185
-0.737208131510302
-1.15018341220565
-0.0925258964737041
0.290283222979048
-0.071035630724567
-0.775177499738541
-1.23278320561331
-0.0648529944738245
0.112913336744813
-0.474718888289986
-0.201779057102414
0.752753819778175
0.475082888241072
0.0663699566765065
0.354021819436524
1.14968851737652
1.12818905352728
1.02288314700763
0.276864208927869
1.44383422249507
-0.102790312982348
-0.0607392704869668
-0.160520017318976
0.266866979187317
0.377138575625668
-0.614410052905281
-1.44404498588894
-0.880611523358049
0.0387716076717599
0.214825598956957
-0.852621134818047
-0.446919382014182
0.17027220364379
-0.484121614359425
-0.306497122488032
-0.172525385976919
0.163479344022367
0.730789421476352
0.101495346929939
-0.852821516447462
-0.542988881807246
-0.641176675548836
-0.293514326627144
-0.796895717169205
-0.860047404456642
-0.0594937447977753
-0.616915509890221
-0.97813057833419
-0.304888570327671
-0.429896247015101
0.183897083626717
-0.640439038848688
-1.04988728533063
0.0106787892438938
0.107888888578406
-0.413595598157354
-0.308755406569963
0.108878620935643
0.223338616036764
-0.258442732857838
-0.340963424812233
-0.644361917113405
0.29847319343927
-0.448404088228865
-0.496870385738579
-0.261904304286335
-1.18419541823491
-0.792186146888923
-0.140507493747838
-0.494822567162825
0.110256000544513
0.00388436464567536
-0.417303713309581
-0.247312231405693
0.5211963862573
-0.0665056796454056
-0.325936766971008
0.020195674181386
0.276037858115127
-0.0155287017181571
0.119849503629834
-0.441420287967584
0.0418456305692073
0.399476174252782
0.0108688580247822
-0.565907469208393
-0.01548449684023
-0.204785279840778
0.189547905647554
-0.541490881826056
0.0500260703995048
-0.969538461938902
-1.03947997902641
0.0513896681586175
-0.19746027570504
0.263045639952727
-0.209459542239464
0.262917003457651
0.161558719724532
0.295698913326303
0.784826007186715
0.356230585038213
-0.375153336027867
-0.0997662100171343
0.607695392341822
0.0216332812644635
0.159983764619471
-0.100751936396772
0.813413501138321
0.726650606525245
0.515526604707582
0.756415575192708
0.308399881322808
-0.0329832031508112
-0.586276266790119
0.27311613395526
-1.15491386143558
-1.64189073893464
-0.566296389053903
-0.39071798329098
0.288568958317814
-0.0507576340804468
-0.235616099996146
0.574548517850092
0.287929494471754
0.207386915757288
-0.448650249517582
-0.67365651831922
0.677000533375434
-0.370327121725637
-0.688917771390349
-0.0510365766097136
-0.176305874794614
1.23601466917139
0.999940749400742
0.226126706663787
0.145401160749377
-0.261406144875657
0.331994616155647
-0.389976194659182
-0.400771084093408
0.534604036096994
0.558641254707728
-0.713728030688663
-0.17054297183091
-0.592314503917427
-0.571270769980944
-0.171334513917173
-0.346247468237235
-0.0932217256019563
-0.26081756929711
-0.439879768793027
-0.77996792655056
-0.406267043747326
-0.140414004308255
-0.573283567601207
-0.455156813797077
-0.0801392507401546
-1.03050762571838
-1.6301184589949
-1.18304310944741
-0.380583451773733
0.560308807883598
0.338750757302147
0.487688396472066
0.562525840970539
0.443446339474854
-0.150909314506823
-0.053769541534844
0.468996956494129
0.20233875931965
-0.301214539989064
-0.0512603003895317
-0.378839199902982
0.443844734138778
0.184204990477188
-0.55541411120386
-0.899063174543327
-0.856950171749577
0.17108969265767
0.149840006313553
-0.0524417407124636
-0.572228913831792
-0.510035215728593
-0.452768224702781
-0.292809180284923
-0.0699408371858641
-0.0427288277916767
-1.25894518050647
-0.861024320013315
-1.21731346005833
0.400095317465926
0.85150804923741
-1.2003138494616
-0.533692737285153
-1.51663047429159
-0.271287913501926
-0.0223151399218558
-0.85480670220236
-0.30458462211816
-1.48759636551481
0.0845107381631085
0.163507903257681
-0.453767714712684
-0.28067082561931
-0.807294684452467
0.300578796673978
-0.673960530390076
-0.169618503006569
-0.721741963293195
-0.647485016638564
0.516988280319991
-0.232986096210919
-1.0475748427554
-1.14933490922438
-1.52699751574922
-0.880023387581398
0.124759048946051
-0.460458133248055
0.254982561503202
-1.27283794653974
-0.467094196358338
-0.0383948938418174
-0.40503834034769
-0.0289591331385481
-0.599127820107607
-0.639668563455873
0.420256999302884
-0.173440713530182
-0.16864007508725
-0.480536393188663
0.074108219452576
0.366908351744563
0.332350572695317
-0.325970255127362
-0.32633974589972
-0.137546975828323
0.260960516810884
-0.156476018458729
-0.4024885809939
-0.0785664157393819
-0.131255147244783
0.951210105256567
0.0799492344546252
1.19245916755988
0.628823179537179
-0.0783430138435905
0.370104492050288
1.6359008499212
-0.399797096081972
-0.242737586903251
-0.470267867820429
-0.0863510727049279
0.251810270985863
-0.600814927563266
-0.776800098753393
0.672046925875572
1.25612677098981
-0.268528511980353
0.939762682145226
-0.042436618802621
0.318680198739223
0.0793645476048044
0.20112900489428
-1.39996046360444
0.0546064691472875
0.539739647067836
-0.471550255034747
0.0334861147991924
-0.594858987023727
-0.312977029476443
1.31254700155437
0.28673237409764
0.0450758017033899
-0.701829076994235
-0.285614276110477
-0.243606789006161
0.0018811116982834
-0.859356845563885
-1.60153488019628
0.0333458213587328
-0.043553037122931
-0.143191718419377
-0.131535998431546
-0.376105148476007
-0.502314852776266
0.977654943778296
-0.940250931772535
0.547696130617944
-0.872758974585311
-0.39368666652256
-0.204277960174004
0.758227585550409
-1.45149117901047
-0.2912287686044
-0.109334359403901
-0.130169499915149
0.693102547087866
-0.122553160977144
-0.75937033499185
0.00574858487985808
-0.326855157141597
0.862420197771368
0.254509257239057
1.42672487603421
-0.539771695311203
-0.222689785312137
0.256596427823097
0.343511350827381
-0.721295590864699
0.0343596779478994
-0.857922008397617
-0.183790470745561
-0.218472628726891
-0.371809539495731
-0.178159970581709
0.00488234004567694
0.234634269127471
0.287619513605433
0.865879260937533
-0.362565661900893
-0.159374530870127
0.0553043350153817
0.0169849750943568
-0.0382224163753827
-0.0289933573840388
-0.3384905306741
0.5015740480617
-0.240119472476496
-0.582464777517286
0.588426937822629
0.260413596031971
-0.7395709115702
-0.159021010299785
0.182105721803511
-0.47477635858912
-0.306957673127248
0.422991391587217
-0.511988203918966
-0.516978621046982
-0.209917170764562
0.0982210008799646
0.149127251821493
-0.108962152151827
-0.73361586920169
0.878706214546637
0.50233672706567
-1.0929847807659
0.791143923915694
-0.971960677420707
0.342027660221463
-0.175654333651545
0.507801224326665
-0.895590653843422
-0.448782516858198
-0.147392751617582
-0.457567941462125
0.107783835500772
-0.0650163408821259
-1.35913979664235
-0.932035634024967
-0.769542919489892
0.395955524593152
-0.192371480628437
0.553231282998024
0.717359326849161
-0.193767870206534
1.20830097355734
-0.0958816758492509
-0.064789423255235
-0.108289170988092
-0.0428212961945613
1.00584352008418
-0.105109845986022
-0.698740739890839
-1.86348752843368
-0.556664274464833
0.711258086254843
0.397537467795246
0.263900343892987
0.33283676023152
-0.107565915332817
0.958483167046767
-0.448877510129888
-0.217566220724167
-0.134048557669078
-0.0581188434380028
0.695123031869978
0.0839148963925046
-0.385481967866669
-0.76585974273182
-0.701120998865628
0.241542512250532
0.648938847598627
0.315353990887433
0.447528657215324
-0.225046975760731
0.640933021959814
0.0137111946515245
-0.1913668126666
-0.0457007818195168
-0.598861533341561
-0.290087618039852
-0.364360635541852
0.2759657061101
0.956109140078631
-0.961786241556845
0.676887240221071
-0.293635597290412
-0.107365766018817
0.264415761745039
-0.200120343421343
-0.306410629922518
0.348424259930524
-0.154569585007721
-0.216739964485908
-0.908828238867309
-0.125944890785492
0.160121949849483
-0.498428563168493
-0.992910454740226
0.189073356670703
-0.659995266660627
-0.163460366364807
-0.211435825108041
-0.398755019088022
0.138097250638445
1.30322922512571
0.140995913982646
-0.447548756076835
0.0787943099453511
0.48191969260288
1.11429849699803
0.0211626822975958
-0.0916844840572565
-0.715318638722843
-0.140164234502167
0.146459810917553
0.39497327524666
0.695124099442414
-0.768012453131115
-0.0915284303901458
1.0410260776255
-0.0156421114165875
0.437676663980811
-0.0448155340475047
0.783433540645598
0.315812940506246
-0.0240698524957511
0.730434756540192
-0.579061905330692
-0.270286064411605
-0.118416662540294
0.789612332240116
0.721496656797782
-0.513090421781028
-0.0329048692608708
0.708915606966245
-0.0386455397392874
0.430437477016908
-0.098158213662744
0.0981111239040483
-0.668154462895993
-0.0527267264877674
1.0571063744057
0.26450875874511
-1.47277854570277
0.202000669097559
0.17489720957272
0.845633309794427
-0.923955375064899
0.0704817830769668
-0.40244495365584
1.08181683551997
0.517606433358252
-0.037080418773685
0.0253059420567228
-0.511651506372385
-0.0646299645814655
0.17131529809719
0.44337125965232
-0.494491903697741
0.598253115783374
-0.207511239931381
-0.361288074240998
0.471615502991904
-0.0013560127080309
-0.380281448077663
0.994630751043901
-0.0986326092778035
0.0694592310501483
-0.301215565826084
0.509644034382039
0.251549483299963
-0.267038616806304
0.709520464377244
0.481327087948248
0.401500488385124
0.319794351944808
-0.162690637577744
-0.0215518668448183
0.354791142837322
-0.230550097850299
-0.134015073211287
-0.564903899042968
0.155698098912527
0.0742634566932567
-0.374428489148716
0.0771734075004788
-0.13979606897226
0.440162139056374
0.159474887430593
-0.220212278656425
0.535201035659509
-0.675484819635425
-0.0391807711854429
0.194804403814756
-0.105465824721302
-0.281818251785044
-0.526356296241172
0.285955323918025
-0.673136174796024
-0.0560374891631127
0.0758461759021624
-0.276506762463852
0.355938737817924
0.120481680296536
-0.44671024804804
0.0685927034285423
-0.640017639973185
-0.060080555461652
0.0456555235181194
-0.328061318263491
0.00386732405067401
0.101416430254094
0.0586952305980906
-0.424432783009597
0.534927002301778
0.0829317761826956
0.403075179297205
0.312091472204676
-0.204820731947691
-0.172880656677226
0.488770275144775
-0.685152543586937
-0.661264166622467
0.241639280707308
-0.985463932807152
0.397948165802177
-0.524536642298603
0.0484533920295815
-0.302723401328498
-0.408441005644539
0.294421625007523
-0.560478521481183
0.607086995386173
0.400184991586726
0.273738955852816
0.484131050778683
0.408746456271037
0.0500412159059061
0.143469019657769
-0.126385992710669
-0.263563270981882
-0.490744876631713
0.298308045464526
-0.623443058966198
-0.923829965006482
0.244631261675494
-0.389135245939884
0.440480422448214
-0.276361025736351
0.678982275508365
0.138207979937317
0.0493073256820307
-0.281066953593423
0.416787338904758
-0.987486359392333
-0.521712675245299
-0.391910494729048
0.38151807650383
-0.337494665555036
-0.197637098216507
-0.0971204470565185
-0.420683172888442
0.684466623581148
-0.558096242621685
-0.198975026541895
-0.231735071580088
-0.00789761163220491
0.577751146974861
-0.0715317826961955
-0.01011707906535
0.517384354029874
-0.0298616327610775
0.213995002461776
-0.0717135415149903
0.108494748422443
0.25292371465839
-0.654502592585727
0.931821433489939
-0.0694006136908322
0.0528181718004454
0.125170087377048
-0.808052583270405
-0.360630193529532
0.179441725502845
-0.12944165061309
0.0271446014442124
-0.867850960834433
0.256700456040545
-0.821600376903036
-0.0192189289567469
0.36567414326773
0.295204729070317
-0.432744943864607
0.123411212165613
0.395046843001767
0.510152550942884
0.141086128409138
-0.361899481497083
0.273072797646644
0.136930710643174
-0.261432574272989
-0.102802541900579
0.173385844931472
-0.33180563056761
-0.801889503355621
0.213198490994515
-0.049561705363027
0.0877221388652893
-0.435505045514592
0.389272355245916
0.264660416683641
-0.284522521832036
-0.0876393030876817
0.370847431083789
-0.743024313211346
-0.238113807261118
-0.560806218005502
0.149834411662874
-0.237257048752229
-0.317718448727289
0.232843540286611
0.474927360641181
0.3856913976243
-0.867344511826198
0.393186671332559
-0.17544565158812
0.465315307870055
-0.0497563990565659
0.229088866345011
-0.670447809669272
0.459138425909713
0.00689857911848081
0.0141231261830457
0.0648048208132802
-0.808602599308526
0.230552168254663
-0.270644497908673
-0.867751744437605
-0.0455645274141084
-0.573754894228471
1.15086118644168
-0.0264452875909622
-0.518306275481672
0.051427371907101
0.893888970326759
-0.18396522650455
-0.957596200422379
0.0875760815878441
-0.784436804734962
0.265226133207074
0.231920458975262
-0.0810916188786387
0.472943907502085
-0.0826965357987952
0.170058093081463
0.0813299487053558
-0.0296233445480257
0.781151460294857
0.205382598138279
-0.222243061094197
-0.709175878983493
-0.236107288863742
0.0151646904030271
-0.401059191750304
-0.288514677021683
0.140094176448303
0.506089385418345
0.904545677232987
0.33231252075
-0.294806776485731
1.33608876878385
-0.469844346442023
0.415882601385656
0.208311439954327
-0.0557702140717102
0.286008221621984
-0.449129297784465
0.0741649528434961
-0.483556698672472
-0.0635842006332878
-0.133117158703774
0.583615512636133
0.218301198785714
0.576645944271719
-0.0752673918018243
0.20062665701891
0.741965020742325
-0.771265832756914
-0.0564217571875052
-0.160992641264506
0.845559119577884
-0.324574294427391
-0.0939301127690283
0.0634516099111209
0.237693188991011
-0.0381812486773435
0.161470636929997
0.0326797069753338
0.743265379572655
0.179254570964456
-0.347576022818164
1.16026814838358
-0.542315158691469
-0.0214551509906142
-0.0671178176431813
0.735534420007155
-1.21509565304178
0.094906331804084
0.0069418199360053
-0.580031302003627
-0.0803356536984395
0.0425928552046705
0.151059908670805
2.17196366626779
-0.358530387821262
-0.0424268420895496
-0.162446368722463
-0.464121442519764
0.0102459842887853
-0.0506341573737909
-0.0162076163840577
-1.63089724449919
0.174939913679291
0.7562482599477
-0.0605208127195112
-0.252811891174132
-0.408860768459838
0.302988868382833
1.58660377309888
-1.14757587976621
-0.405963281097994
-0.0342287401367389
-0.762880258914546
-0.154111305827908
0.291442432771605
-0.26505880484622
-1.27895794487854
-0.0420326154015591
0.356484391328653
0.160708649578669
-0.205899688787609
-0.877573655726386
1.10240806715056
0.101656112427966
-1.57559429524239
-0.194587006984172
-0.786943534831353
-0.24432663609765
-0.352563874214083
0.480650161266615
-0.83656349357513
0.392448679148782
-0.150991131707587
-0.236573633506229
1.10030618611827
0.00351722628217911
0.394352669444896
-0.388741274116807
0.228303864658504
0.134711761880759
0.154250486313185
0.257004821045207
-0.285568512850805
0.249260268549069
0.353639215292369
0.424878100140883
0.192790318331755
0.104201032086286
0.00434050196985154
0.502862975708056
0.118472454514833
-0.186266912574816
-0.63817625553899
-0.453260765103606
-0.148150851699784
-0.0994458526435116
1.20768061558825
-0.420372930358866
0.164342321985981
0.831103108322912
0.423599733535793
0.263448318340081
0.0700368245291395
0.163246006770337
-0.114344426407118
-0.120448251455559
-0.577386366590327
0.417284210838595
-0.774606748264965
-0.291960772682358
0.0810685538793883
0.68758691710945
-0.109690919650862
-0.0186142416740159
0.19668826683078
-0.736361602825379
0.690746876065944
0.00398752345135769
0.0256218259716179
-0.229625348267187
-0.0404189939102988
-0.72753761780487
0.303844210435978
-1.56290156657468
0.42213436147611
0.538850771098555
-0.0140295274765703
-0.361632307753208
-0.380075498609189
-0.434340008135319
-1.05936368749378
0.20902175387679
-0.0564610274165612
-0.834886096088817
-0.270787992049909
0.088966101975234
-0.275085580116786
-0.324917920709991
-0.349981660953905
0.533986353124714
0.14506366619772
0.0309700711544446
-0.146790461458198
0.0511897588547998
0.720427293806024
0.152863457269914
-0.548676515147091
0.0333896531222281
-0.362422513136804
0.334972243338154
-0.0330943618607546
-0.425710950765218
0.0484580160529501
0.676039200988525
0.723784295827192
-0.378308508732219
0.846174926867053
-0.940004080727702
0.152204679105884
0.113050485720242
0.0828540163193436
-0.18556046049638
0.169119867330476
-0.846373893044917
0.553860853762321
0.00775511585537304
0.773246878489875
0.0972599821763879
-0.0555539946801246
0.848007461195937
-0.582946463174842
0.699262056504162
-0.0387447090087446
0.118523008885867
-0.395717947927254
0.289522130213414
0.509297323272483
0.0675117621079715
-0.395451421180143
0.426832219174328
-0.0496034518197067
1.30467572799421
0.578585797686237
-0.47588644887177
0.278726420083711
0.00977352927956712
0.225534345803273
0.399832009669112
-0.110922434547507
-0.565914693443735
0.684151307859494
0.180426274317358
-0.0787037385823061
0.113089592601676
-0.787742720763475
0.241466591558715
0.393453204794215
-0.154774408009604
0.623391057399697
-0.156025942508713
0.813970024435481
0.473228464170253
-0.309776158018512
0.269793726680891
0.413143036969718
-0.490668851877733
-0.517968164393268
0.16032254707138
-0.313015213321797
-0.212319916465276
0.365570762835143
0.602169114518956
-0.511525466023866
-0.10213241992222
-0.754605474218006
0.00688477967109473
0.966159509297146
-0.660579577224934
0.343612166779134
0.541461267449445
-0.0818357022080413
0.547174944975697
0.0224029976168955
0.602695984580799
-0.562938035556616
0.0723091198920334
0.453046395002977
0.0662537739602729
0.132623630862261
-1.18326361833837
0.685322169265605
0.381938173772781
-0.110366801704836
0.177101104192723
0.275190822374758
1.08136772892108
-0.0218875923682556
0.163364040748301
0.680312736843041
-0.130858043942934
0.00848009675863951
1.20941465216936
0.327328261289349
-0.0113378865722915
-0.30358702962574
0.553892369898353
0.38925245823869
-0.271904503547916
0.0926071091541321
0.116329355589659
0.673642271777526
0.474881086384237
0.119888770750877
-0.204052721788298
-0.955514046507444
0.155721327558675
-0.199738361260418
0.41063609395291
0.257468154372899
0.0335843449194253
0.0147164980860542
-0.787285348174032
0.770754705865643
0.176895675555911
-0.328233869278199
-0.454024998915529
-0.257669133567062
0.349530341354139
0.34127747720876
0.884355362978796
0.254594946194085
0.356889279122521
-0.114741483883785
0.0717333336151413
0.577318706990389
0.324795801637943
-0.287774839823447
0.250605747464354
0.284491277222882
-0.144102084042811
-0.219349982218858
0.11516097221121
0.157594806068591
-0.0677666573794754
-0.00977858335229592
0.207405132314883
0.106948289692243
-0.230107895672212
0.542500464875444
0.365108445364957
0.283741977631692
0.0178588857511554
0.415682853781576
0.0166674154664502
-0.173278147559874
0.549261112943163
-0.0537486340879099
0.0985924446739762
-0.411636827778885
0.223631599100178
0.270498973442852
-0.265056251942214
-0.278754412872914
0.777397497048219
-0.0189470149364254
0.144417077230985
0.177786046564731
0.453767605531598
0.123748794910886
-0.490224484409428
0.627014809600033
-0.475025568991636
0.365236321748449
-0.192430163098603
0.437497137723525
0.227128867409447
-0.619995627360295
-0.0228838329455335
0.161141685421372
-0.20028058331702
-0.0263131659260967
-0.375841393512291
0.456757698564394
0.16448155450238
0.394425394066888
-0.35936076722923
0.349591524161715
0.117210888988214
0.180723191525798
-0.777819426649447
0.190562795683483
-0.233321523746088
0.171117698907439
-0.373828575054078
0.157639350584843
0.429462298059285
0.33236869919674
-0.224266230784223
0.136631301913669
-0.0272672496535692
-0.423457889981971
0.0522051646296959
0.186425448987647
-0.103809001311513
-0.674637661689554
0.0601173516288253
-0.410296500148241
-0.116047511416828
-0.554219835183778
-0.0294885139866195
0.3269286031529
-0.604043590082978
0.226854611850585
-0.0240453698638757
-0.254225174066569
-0.390244504463989
-0.71923246039593
0.121207936130614
0.0691306885843439
0.160637748958001
-0.100586789861447
-0.286961978544291
0.4132098593987
0.0534386233742701
-0.968008892724954
0.00353300152158171
-0.464829955996447
-0.822480455302183
-0.0807315810243439
-0.26542697039999
-0.420874273729558
-0.41087984755592
0.0205393712898764
0.050193860851609
0.235397578184709
0.166496298271235
0.275206108688961
-0.394743226031561
0.459498958700922
0.589076729623175
-0.274574816276713
-0.000925649813870464
-0.489620417494254
0.174366771891884
0.115865123158417
-0.747000659458247
0.0119291476353211
0.190473647256861
-0.475071846263099
-0.481420087791234
0.19842814949854
0.0175868329246689
0.333586149081775
0.132101984654016
0.136338232172948
0.0954812973000532
0.370637543868494
-0.403170568867053
0.13994376776242
0.114237023443698
0.00497728746110557
0.0767798589262611
0.112105427381575
-0.185760943333718
-0.398612337979834
0.0668865145298176
0.0562795984186179
-0.814431136264242
-0.485675605118286
-0.697251530867248
0.102135863782948
0.0331923651414037
-0.569432894534827
0.191436115672425
-0.0015234542503266
0.649463668513896
0.14340287015601
-0.145980201657133
-0.0189706542670704
0.622805296935549
0.175263065793923
-0.0338625069930464
0.610360405369409
-1.28138556813837
-0.141196325252248
0.875793029833734
-0.169707984620681
0.15814081595888
0.190481665751103
0.37682378611925
-0.204216105239018
-0.137451720043519
-0.0481342808016189
-1.34282951898458
-0.0669573501362048
0.285654444234436
-0.31442898111427
0.587196238353056
0.140384995025565
-0.262884359427212
1.07386119040345
0.518151500863436
0.15213717950007
0.261565564158798
0.692461337119061
-0.106328452306295
-0.620420443014283
0.16372738231751
-0.516218952835221
-0.844436301977016
0.272422909136896
-0.0193902753430153
0.737182046791561
-0.0139451508920066
-0.410452440698081
1.0776337058701
-0.359595534947868
-0.281917811870185
0.115348086858673
0.162595268322328
-0.270726600351595
-0.44494578032176
0.131973609455814
-0.330616013220652
-0.432061281964917
0.14421519561171
0.132554326867345
0.852359039147289
-0.00144737000749192
-0.294507990390127
1.51519150917758
-0.851211179430189
-0.213994994448874
0.0841875533640867
0.892578372638052
-0.464457532584065
-0.735304857560114
0.19907962300376
-0.59696148797283
-0.926343869797192
0.103030292349148
0.997943215008036
0.891475571199262
0.0430596043090635
0.760909284088531
1.18614452127589
0.608147011243226
-0.0889617331117784
0.224773893045685
0.357686244536721
-0.588282889252614
0.579157075746144
0.02974855441867
-1.03080398991046
-1.1818849346109
0.0430723301321571
-0.248164245975502
-0.523592060163585
-0.882241733177841
0.297192616751992
-0.323517161946364
0.669145142777999
-0.595922526123316
0.143908180822764
0.126683097749852
0.719222792253734
-0.0172444268258537
0.0408035472067045
-0.326314640558655
-0.040333744003897
-0.0506474829528948
-0.199602514068533
0.39154610795369
0.0065646071956366
0.407873414669943
-0.00830024121558612
0.480946596215499
-0.0863003006401775
-0.0204923176921489
0.0858377772045741
0.272761359659907
-0.0470385145374152
-0.0422937149641848
-0.215241980964792
-0.684542345351506
-0.0279460310500647
-0.264709712136432
0.0724427869407356
-0.215704627095862
-0.174348580462647
0.308299196851275
0.220807019602822
-0.462417330408158
0.12761961323264
-0.392389080616506
0.305184462362878
-0.687839881214922
0.0789765811997667
-0.536845215954354
-0.198797159437611
-0.21053087637241
0.0827835438750295
0.888742500756075
-0.307034698887185
-1.36026694994383
0.0216926043410571
0.134909727490348
-1.00521432172659
-0.0224844143538137
-0.440465490218912
-0.308238452402008
-0.354691269567127
-0.108334631157343
0.205417988408567
-0.0826979964295705
0.226590538480658
-0.955262031016807
0.333410804741222
-0.0143177575527821
0.171969780252053
0.328446286663941
0.219120730405821
0.127726452522112
0.173136993786997
0.140883155269302
0.583477906229345
-0.298541341824653
0.080549449157581
-0.755545469272967
0.196130851940233
0.0643205762878595
-0.661404229492796
-0.0658419165378034
0.719218850044761
0.572301263157044
0.402667442223138
0.528111213624725
-0.0492097696905883
0.0394233648398154
0.348827084989962
0.370153165714117
-0.981169833057166
-0.0650186873602164
0.0624909207302367
-0.408780436956527
-0.0935580880575751
-0.476474339551664
0.410256071923053
0.865198023120831
0.357164716697973
0.27825090501192
-0.0337073312088698
0.445336711036937
0.0547925596761257
0.467544167371929
0.674143719626766
-0.875768779482494
-0.00568336485368689
0.171896593886105
0.134564561597149
0.0955626952863766
0.0167461802833731
0.879898405795414
1.06074979762923
-0.537202590317637
0.151860898979709
-0.0716969902671613
-0.203803000548792
0.0848825562820645
0.372008081429852
0.866084686661383
-0.58242846852335
0.0449057223014366
-0.557425496508654
0.0292301655279095
0.244339504105689
-0.400234409370473
0.431448115702304
0.238143214666461
1.24479318896013
0.0881006322094447
-0.0735899576676812
0.27718136013572
0.164639673151149
-0.179489880651404
-0.942593542182512
-0.290830443716531
0.261309020002799
-0.145444820751468
-0.00233426118563981
0.280436065660703
-0.443270480391376
0.436577040374581
0.451092028276924
0.191004364948164
0.17661512030997
0.33452934672403
0.488220257566286
0.128952132717907
0.932913774666141
-0.0502852286769616
-0.713222107692713
0.133475012034514
-0.959711169643242
-0.35523273121737
0.164327053006206
-0.11794451760654
0.0270423415264506
0.475369034025163
-0.494993095498305
0.353613009224366
-0.363878955672361
0.454898051783296
0.140227703510202
1.26357978480393
-0.382658483296207
-0.271964379784295
0.12169806413294
0.524828223464344
0.183211442281568
0.108070897944272
-0.633815115534627
0.105529636514006
0.649852221209556
-0.247343409535031
0.710228328130597
-0.62188571598856
0.186998784206714
0.119537159070073
0.394699926872551
-0.0432547941298509
-0.698197367756544
0.118202353368125
0.070135319876432
-0.0977662470028261
0.22030446377258
-0.0383348559251925
0.338316450812752
-1.3985536119849
-0.46522718377299
-1.01358577942237
-0.285484208452775
0.0903420146078777
0.253140158182433
-0.258735083392561
0.3300211545163
0.0976704123786851
0.159049259642046
0.379573616077968
1.00346031589111
0.032230104352143
-0.635868775916838
-0.427312809840182
-1.65433178729771
0.209836587699643
-0.122799573095861
0.327675488122385
-0.465187393667456
0.021415614125866
-0.699156187078885
0.111732340414252
0.478424368215281
-0.089962213927379
-0.644685344639941
0.35991696022275
-0.0880314260388166
-0.217793555971214
-1.18200274768322
-0.129209445168567
0.377175208898665
0.165407063134876
0.306952124331747
0.109236541079413
-0.0911000429859711
-0.26771240263872
-0.862558944361613
-0.0168218917336487
0.0665887395484753
-0.505378455787896
0.0959059524467083
0.162043166434639
0.243391480393861
-0.110409770628518
-0.367223507089495
-0.339840144648183
-0.636817334193981
-0.234337276375111
0.514941910755179
0.137021492958585
-0.0664641904363275
0.0402871882750868
0.714449297364421
0.0826402623100431
-0.15467482537904
0.217642556161541
0.0850789920485647
0.590594494597295
-0.169445073307097
-0.0488398016236261
1.02393956546563
0.274245644354653
0.542027451962181
-0.334131020731262
0.297069150613847
-0.370834647629268
0.155822626470141
-0.188250773376371
0.0581607267685519
0.256842939625992
-0.179024297671
0.256481455726493
0.194474439580323
0.674857773509269
-0.612785128048647
-0.108461840653673
-0.497264873136111
0.78124793459281
0.000915349380261551
0.202749029742858
-0.338635444963817
0.912791882906034
0.109575129158958
0.0275235191269062
0.0636739105617718
-0.056303443479609
-0.324455886645438
-0.372444698659616
0.51266902971912
0.185801025335414
-1.01847514890581
-0.243474961809747
0.481677081958858
-0.592127422330939
-0.235861839093815
0.256238770679977
0.245260553915036
-0.205423005629395
-0.18492930254949
-0.775039586173961
0.0247683176571096
-0.0335538120963994
-0.378441682394621
0.374723824736234
0.576752242593686
-0.663740160347069
-0.304639307737236
-0.400175659360343
-1.27252657405968
-0.188606283021137
-0.271360292053435
-0.653709732767759
-0.42141141478539
0.0924719568492714
1.16735281079288
0.20951141492279
-0.0647101269956455
0.532497904976642
0.28114832065069
-0.199133865471018
0.361407032772189
0.501726966173135
1.75415858582674
-0.464388902992083
-0.129589640337471
1.49521978959041
1.87616623615792
-0.475000279129791
-0.0233894370203759
-0.313423418035189
-0.779685603356902
0.00470894220073574
0.927108631723508
0.101756676175772
0.071926526216104
0.557213577836513
-0.494136051519954
1.11941015930886
-0.718363681714721
0.0479772255431839
-0.0419197001463875
0.579274525292304
-0.134066151351473
0.046971935967859
-0.247448436014786
-0.110499679700974
-0.182004377972375
0.393456350071306
-0.586410850109256
0.19686347393457
-0.659526360844025
0.151581238693255
-0.915534263897383
-0.389153108028986
-0.0753593537296972
0.550147439015661
-0.619455643628489
0.0269633166574627
-0.0433478806702773
-0.211404639377041
-0.241285080568352
0.0194791897481283
-0.731639145844475
0.478868611133374
-0.0277419418366701
-1.33393128967716
-0.0386211778013884
-0.509677887675833
-1.62022488350857
-0.0107134941386579
1.4399165226209
-1.69910935412532
0.107495210525686
-0.0185133852442391
-0.0659388841307805
-0.199112920615293
-0.0492874289052103
-0.919802571415659
1.1614159083617
0.40235254583047
0.753141664673027
-0.014040189645043
1.44330728729519
0.123901882743165
-0.00862400396991547
0.718458074920644
0.334501713848637
-0.511521030293286
-0.178174826314694
-1.13779555876697
0.00427079304285789
0.00432795633461988
-0.159925839480302
-0.5584014242857
-0.0742853412148706
-0.434800316132318
-0.920891749984968
0.541876657956305
-0.104762374417167
-0.1136628438693
0.561339611493953
1.10004933934082
-0.535388976352062
-0.147170705780584
0.590971006757746
1.32078779558152
0.0864523985888583
-0.619385659692863
-0.132408689937061
0.197375408820598
-0.510067709726847
0.36906816583608
-0.492640956594296
-0.721924942209578
0.0563992689041221
0.593401924566826
0.15655241813434
-0.264662088300122
0.112540802405093
-0.341621485429992
0.675546312352119
-0.00139174346349338
-0.385663662142814
0.04710761639495
0.54821085895009
-0.210460144442385
1.10911879517186
0.285854523782419
-0.463834087857346
0.0506270854899484
0.630699928917827
-0.918182100579964
-0.625497157584485
-0.104167176092733
-0.746861245918275
-1.01118819422061
-0.10462384437693
-1.07039459633413
-1.11270569927062
-0.093883103508361
-0.0980280833022064
-0.541258392109594
1.33950234292938
0.912951071410157
-0.0927083151984595
1.67241644724545
0.328593017438442
0.342597158765869
-0.0640707666367989
-0.0622412841471137
1.36052925720576
0.0175447047388713
-0.381091231619565
-1.73073312156229
0.337023971259772
-0.626882758517524
0.596894801390167
0.303911363855549
0.731158988324996
-0.0250862714730941
1.41393268248034
0.593850651713178
-0.311664468970812
-0.157043931179533
0.304588519529068
0.110955335510084
-0.158171827412042
0.573712547462597
0.193173280929765
0.440508059269604
-0.54453089581256
0.0828976128336583
-0.0578507093183995
0.107846825561571
-0.335865898548041
0.272946689050448
-0.304288264605266
0.0809973611115432
-0.0676264352734197
-0.51567395769708
-0.424255700396421
-0.131690507101598
1.36630890088951
-0.231827246852481
-0.305155084169683
1.11003457088903
-0.633150121159022
0.636944738103491
-0.273861868062529
-0.116094932402492
-0.355301032480569
0.479371405276041
0.374145501164433
0.0501085832015271
-0.602180618833006
0.200857356090252
0.0507849642587068
-0.388520448796638
-0.0712974523092795
-0.526402160814609
0.70971676351424
0.980117008220925
0.353994404769523
0.164273950897723
0.134838959417141
0.07348125822592
-0.27292250665259
0.0156365274639147
-0.0729933068924709
0.13045430533459
-0.374949253449187
0.191840822334851
-0.279724071312403
-0.3018562755653
-0.172165282302693
0.175561763164199
0.343060532581477
-0.720784372318238
-0.298063398490648
0.0525243664132922
0.251884086984807
-0.943201344747633
0.034456663030963
-0.0174218733637747
-0.303324888413544
0.0490971188581569
-0.0478131572144898
0.191587993797745
-0.0310156697863436
-1.74483786391782
-0.390490724624006
0.114478134595624
-0.0702286848050421
-0.840699338692055
-0.22719617108586
0.606369880887182
-0.653897140725388
0.775756245842646
0.0381995595150782
0.153371772311272
-0.248000839700773
0.0467558323251675
-0.446899131865843
0.198672889239957
-1.58731065152834
-0.291030609363152
-0.370066869655596
-0.184260181220184
0.432369934004569
-0.00862378029183762
0.344863050319814
-0.489580039838124
1.30987153286915
0.168413986527364
-1.05179008795003
0.608894518118017
0.0257507643553354
-0.380949477560626
-0.00647873652866362
0.632172525352317
0.896719398874484
-0.00943663054214766
0.620631782094529
0.236303412347557
0.130215062430959
-0.150944108221842
-0.212029740530634
-0.427132024660934
-0.0445775374215976
-0.0913534372126702
-0.0601757744540969
0.0188811175857667
0.231321183389571
-0.152076891020809
0.106503524443647
-0.593624106496147
0.782563650370136
-0.353685750258135
-0.122872672318385
-0.040179876645178
0.600509524060522
1.91718400676452
-0.429968599570414
0.0280305764399212
-0.149426239763011
1.03213491729537
0.118337178851355
-0.32036675357774
-0.509002868468397
0.802429895329491
0.469538406310311
0.38650606329002
-0.0282333441890082
0.287998607986998
0.0873274972570653
0.577779280229575
-0.234862833753527
-0.108772912723762
-0.0124005976413894
0.929861981424124
-0.715615225626338
0.0335710333930422
-1.27238499387643
-0.219877919423717
-0.504462716429822
0.72721067864076
0.577936807081409
0.0596269122125437
0.857001866940842
-0.0590552189026063
0.171336293875119
0.515373907823899
-0.137055812787004
0.267435043989259
-1.40733275973831
0.937938219013857
-0.129801208354859
-0.679183301452798
-0.669887776913308
-0.143028400101628
-0.0558282342343969
0.121801423533128
0.0582325415498613
0.489764662803679
-0.0314716060297577
0.158966094275317
-0.418557300987363
-0.167671313806576
0.05109500981657
-0.01351655570542
0.640284210802722
0.0186686140489186
0.072908463416558
-0.647191785439697
0.0921742550119316
-0.510949831364383
0.507576391033095
-0.197444136846602
0.266500863325706
0.0449141442476688
0.280063042133646
1.19683098175418
-0.280046442556587
-0.152152223145033
0.357169682539526
0.451846480422436
0.164317764742224
-0.0789562565762833
-0.411072891235631
0.634389894966128
0.495674808792019
0.0217134794427656
0.347558694577621
0.18191339901709
0.0749628263236873
0.502712128786665
-0.950557224237201
-0.335892644095724
-0.0151499319322289
0.320404279748566
-0.92530515821019
0.00744930665545603
0.558554751684342
-0.195042579432357
0.00774702098367158
1.3846372191768
0.45589471139185
-0.156845538249868
-0.065627149246756
0.182543319845384
-1.37898857521901
0.674539349823444
-0.290878107671446
-0.0209593743876275
0.142107653473606
0.379534545100931
-0.124635146501414
0.060841328191918
0.334715973709732
-0.119409534065141
0.33087708259002
0.34278730377368
0.214157304006762
-0.079812465689037
-0.0251785414712864
0.697074640010601
0.131194015673507
-0.241006668974043
-0.0444572283536465
-0.661710228927341
-0.150240637076176
0.116072960380894
-0.0734179241808661
-0.171842567436504
0.235566488771633
0.167569396421564
0.0993169355079908
0.03700705906726
-1.15960679988173
0.153093547210516
-0.670393635890029
0.504848078949571
-0.219213560279102
-0.111774666352368
-0.699855806826678
0.356718116851674
-0.00619780479844958
-0.0189683959740979
-0.457634887657699
-0.227742890786212
0.015246570749417
-0.737482046648701
0.0375179031067414
-0.426486064126494
0.0373079743984444
0.050930315280887
0.102994299378977
0.220942336113754
0.155834195059019
-0.0316148248507886
0.137195280048248
0.370858177509132
-0.287322604184638
0.429891027515448
-0.723267672146205
-0.234185969657866
-0.496441706332223
-0.204416226823925
0.601715273038152
0.0681691255017365
-0.616731724153657
0.602428474261763
0.0250793905761515
0.228564983357141
0.522113177747354
-0.0591023927990607
0.371619325125017
0.233709099884697
-0.483287707101051
0.253524918446615
-0.300927323314401
0.0453347766214788
-0.169368517824198
0.217267214146058
0.499008060176516
0.122236557372538
-0.27513078706961
-0.00748558833000902
0.136647593207313
0.0918211824595216
0.108314811956991
0.102242404166707
0.194728791827122
-0.040263343944407
-0.963977631950717
-0.0868367759666282
0.0515014358921303
-0.00778518871659234
0.672125302891954
0.142653528636997
-0.129699153004861
0.668804185955785
0.304712993556052
0.0188572106074471
-0.0184055577089238
-0.0629697902410479
0.188061166145962
0.0977093705397567
0.0232112168883579
0.363528726983694
0.184074377062897
-0.356519833170414
-0.0873206805184188
0.159534856520035
0.337237520689408
-0.31658251992384
-0.444747235503574
0.313341577455825
0.169752527081387
-0.381808013593934
-0.115384901068418
0.405786030071278
-0.0416362524352922
0.725533943854633
0.0430218535465713
-0.237607087481234
-0.304461824291147
-0.298203424174475
-0.085088976139243
0.421024179831395
-0.514327979236653
-0.512670038160515
-0.358857893461607
0.300989147038783
0.588511013685972
-0.0988254013243896
0.331947144098843
0.779396791169226
-0.398402678938343
-0.270875252437552
0.497923834240548
0.481818822825317
0.206302466655058
-0.467411646298824
0.137372612911077
0.159215440728351
0.899921756787069
-0.344382907353313
-0.0161842370672478
0.00390567274377861
-0.438720603460708
0.129513627634832
0.362810700835539
0.0859992967750123
-0.756410251669505
-0.156137789345494
0.0134368250221464
0.383683502669288
-0.267740797729397
0.316392686317465
-0.142561087989983
0.206963609211912
-0.0217031706712844
0.323156428995069
-0.102282163321686
0.015319916382766
0.0452879289709157
0.805744659122702
0.41835386711204
-0.00370495222887587
-0.0448481027067038
-0.0725537241567679
0.411597738460368
0.0341744748836992
0.205305511215502
0.156385208193699
0.477149619939434
0.502030694734893
-0.00812901282925859
-0.0372025837287143
-0.0954235017409714
0.0428064957195817
0.19467257299047
0.210119159791242
-0.672070039143423
-0.587328990511702
-0.139038628384488
0.0500592559293499
-1.23041691149606
0.188270413386812
0.0385619788461857
-0.381905862306003
0.434120948729627
0.130815480562457
-0.254846833730083
0.551708678360051
0.125972950751619
0.229240519256346
0.631970086450924
0.404352596496288
0.00561024083416725
0.428680442732335
2.43094178289753
-0.445365323372609
0.191560956093195
0.508031762958253
0.718573091021474
-0.825085520352219
0.222238605658979
-0.592709178806824
-0.840843517273359
0.266719498511496
0.89599228322099
1.01030115969847
0.381073079099845
-0.612017541622145
-0.372496956192192
-0.066974914214248
0.284969022668966
0.263791304710132
0.631822575174285
0.911251255189195
0.0247396408747111
0.105435629309676
0.31659942474047
0.607926013375039
0.0377605643958342
0.99902401064129
0.701634572950949
0.597905492559456
-0.495379826317475
0.00244324382923719
0.0473364876113759
-0.165708558278189
0.144734470289411
0.0392481505874044
-0.274478673628042
0.0200031478122423
0.0844395999362273
0.377424878027619
-0.0128308816801808
0.319352689859914
-0.479027015327521
0.201601330347112
0.404887054746488
0.490454628739453
0.334319048261936
-0.110294021395286
-0.320102025136
0.348104694460695
0.95854771703485
0.14522568415039
-0.583068775888775
0.213834989950029
-0.726829300864696
0.223867296873041
0.0612446371250856
-2.04282323140477
0.886064899914096
-0.309703057743589
-0.0888505217662031
-1.48611555089628
0.802342315282064
0.688423717496187
0.227718543520599
0.576494904298918
-0.453960901407764
-0.0180005246170397
0.181829067534314
0.168249483446216
0.583374915801233
-0.0455868197477254
-1.00986490705269
-0.255157965356371
0.179447545433766
-0.424986478848992
-0.977874185400081
-0.196495229315451
0.91072493721949
-0.0668505377389601
0.400314145782355
0.499780368233139
0.609757707041117
-0.122331324923257
0.535381812594357
1.20197809866666
-0.0475899225968324
-0.94031244944417
-0.637509279079097
0.305516346814303
-0.249755701966899
-0.339782156602945
-0.495370563103273
0.0180757183891748
-0.0707494524233416
0.343006295021659
0.311857406428094
-0.612336950800449
-0.046497373494626
0.138423257436643
0.426855796311799
0.284729129600728
0.225459786309622
-0.284786504799962
0.548640983676636
-0.201881769338313
-0.320200154763712
0.0532065017624314
-0.299327110039992
0.20759835175036
-0.215604248431489
0.00961596056633534
0.332430846496097
0.12164255029993
0.195635753051825
0.457975269902133
-1.32921884959323
-1.01134948006749
-0.948298584960904
-0.995737431523289
-1.02649580825408
-0.782573156465561
-1.02413475844746
-1.38040811174994
-1.74335930973576
-1.43484717598185
1.16842645746173
0.567751671853539
0.945178933041339
-1.46815599070352
0.0240273873658538
-1.15026276109018
0.890054218630799
-0.826617391292102
-0.56745009889804
0.163242393194141
0.296333213895054
0.539167278958497
-0.124579213022537
-0.409617690065153
-0.333843319520033
0.284661651957967
0.366007695243596
1.09850544600789
0.430214070208451
-1.08393635503107
0.794281788238595
0.906263254243604
-0.120644963243411
-0.0281944802708716
-1.00039082971891
0.209576853726182
-0.605003312473894
0.0140106230374634
0.185246581523605
0.983763613901227
-0.844056702679461
0.852295615450285
0.679945316352721
0.605113587955052
0.692390333626915
-0.884798921377966
-1.04887963950906
-0.500416907368262
1.09289296850983
0.648512343413292
0.997103496036203
-0.559735907283854
0.446792594010556
0.784693312430792
-0.152211491683357
0.437843474204246
0.217963927923899
-1.53095788414571
0.513898974157154
-0.11068590232651
-0.99158934871617
0.786382031679725
0.853195669699999
0.803803442335565
-1.2477187218488
-0.673596114261979
-0.823482503371378
0.830701273423976
-0.691992352679879
-0.81764674456731
0.600912084028132
0.771550368002089
-0.551070947721474
0.263381058537946
0.551790404157006
-0.411164123557325
-0.821027006055762
0.736374926912721
0.39946436256579
-0.281111506369241
-1.41766054083783
-0.908466203685535
-0.822652948793246
-1.07418533845084
-1.22041584455187
-1.21737770052761
-1.34165395034993
-1.15797925934483
-1.30261523513581
-1.22926816434486
-0.0843613864616977
0.627184605135986
-0.726333422963588
0.888214681089474
-0.702678897540195
1.08128437630747
-0.363116045674448
-0.74277755647957
-1.37900261936673
-0.52211209392556
1.13645060189839
-0.898910268946993
0.648417477914691
0.526366127392937
0.370095581203425
-0.75013961396103
-1.10989191267658
0.84861212945892
-0.769591598260283
-0.408556693613289
-0.43150261133481
1.09026449971153
-0.271880305914306
-0.43219540949677
0.891424182039803
-0.258220573510208
0.517694736918129
-0.80569193642597
-0.899492308202833
-0.913422426204696
-1.66866958594822
-1.03613949237278
-0.92492527771763
-1.1371342097591
-0.269203291139734
-0.662210339481462
-0.711076290133383
-0.917463092561279
-1.38249621338561
-0.770453730019478
0.982581514059389
0.372927161131973
-0.233019228025907
-0.107750213775225
-0.449235166089527
-0.435392810261478
0.132822492518522
-0.0525323209565297
-0.733142871550142
0.776139880971447
-0.450914790883715
-1.00897368392533
-0.445974078590527
-0.123736939526494
0.68937784291875
0.494396038744957
-0.488064966764454
0.512569352619376
-0.929210640854963
1.11421154451694
0.761543839593614
0.371649497280569
0.720638737090344
0.395145733015352
0.442557887123873
0.431012695230823
0.0146293320261318
0.0567655191602916
0.746272827766694
-0.436042487375929
-0.104069826663277
-0.545149954457266
0.553314198415573
-0.372409381097546
-0.633546406753764
-1.38944496838549
-0.989981944659313
-0.913668663852608
-1.02339030032025
-1.11667746498108
-0.630657962608853
-1.11547125981996
-1.14935018758921
-1.5269532770164
-1.46469708850033
-0.262565608488424
-0.157947707380388
-0.830296005535539
-0.714129347062413
-2.80750904371457
-1.31394420437265
-1.92823816229265
-2.67524386684262
-2.15441281739252
0.348031346390244
-1.02096485476912
-0.335526698704013
-0.30585150452052
-0.772428704477242
-0.492043202118084
-0.121405098371493
