604315
0.2704675046219
1.17596658095877
0.978364971417474
0.540533612912178
0.342047171080432
1.05947385231234
1.86984171100019
1.70379334562531
0.200859126264834
0.00827401660109343
1.00196121601623
1.5445131763763
0.639029124916309
-0.51494499686422
-0.332002591324324
-0.00304835334096313
0.406980194673975
-0.289671873688924
-0.684376836202986
-0.783423644026325
-1.00640475980039
-1.24703556380578
-1.28504003229271
-1.45097909947271
-1.36286806840074
-0.563973219669502
-0.109502950145772
-0.384265215918986
-1.81263860141792
-1.37520392565286
-0.154758836461367
0.927312998817403
0.403070729292735
-0.872838830380881
-0.228921781306322
0.769259104217945
1.0746505634559
1.51084737612338
-0.3085956306957
-0.074110847783523
1.59527987173356
0.648753274854423
0.483446033192508
-0.0624660042776253
0.521548664966284
0.747064202687307
-0.539292376243055
-0.897309696794958
-1.08127511892649
-0.456498069500962
0.153986461726311
1.18131015087244
-0.0679058654910119
-0.868605355021089
-1.87933475760053
0.509515207193042
0.327222810412608
0.110313385188697
-1.22346330891158
-2.16884801482987
0.320554886928325
0.588379327256636
0.649998279674561
-1.13137274608789
-2.15282104316666
1.00470999268195
1.29967348140284
1.19584782635172
-0.547454789221315
-1.66305821070739
1.01305658717501
0.582804797484664
0.658956046467249
-0.380403382427272
-0.690626281542555
-0.995074369358922
-1.23470821266607
-0.890595343745288
-1.22878034128453
-1.62643726236025
-0.345172698094511
-0.606097999120275
-1.10892473155823
-0.56710923726975
-0.57218456359076
0.108400289197938
0.607357340260146
0.627310539492257
-0.108225345592374
0.205735880399717
1.63320616865443
1.96516158683372
1.03820763243525
0.0770911224070894
0.20919363475093
1.56219413539552
1.35102370180836
0.989207772723591
-0.631234664034532
0.990359261567002
0.0288261532189904
-0.222055680595742
0.679524454665251
1.78089691906058
2.77026194254852
1.41179766383529
1.01624409234383
0.889600672014418
0.825533852549573
1.69194695139389
-0.588399871648416
-0.700822803901092
-0.216540900619713
-0.790574954077244
0.0179502530806425
-1.89089325625416
-1.9035827237474
-1.71108248515344
-2.22628690918099
-1.12130732319277
-1.55529438143073
-1.9430585613559
-1.88856401493761
-1.0690848989271
-1.34778511471872
-0.604226736466373
0.876015294478221
1.75427834505607
2.04848132064772
0.73482129176623
-2.78753162841993
-1.82341350181677
-0.521497277506864
-0.0550602878080193
-0.618454602176801
-1.99872024751564
-2.14965593639346
-1.84007745976261
-1.10038522319773
-2.35464261148123
0.110956433877493
-0.575176729309754
-1.04883409449787
-1.1204508426861
-1.61596757658677
1.78803248137204
1.10096313010466
0.259512021459168
0.628999685446735
-0.164459308338385
-0.635623061193298
-1.63824350973144
0.498928037883457
0.659024126654436
2.17728008303049
0.33625278043777
-0.734801126684115
1.35656090088143
1.00565447860075
2.26878493924165
0.797066667233463
0.27647267831325
1.13239219314717
1.21575478033126
1.02728097887668
-0.999425435619344
-0.398951859661369
-0.245564517234563
-0.379249773439973
-0.552998886605036
-0.797142114444861
-0.742801436828465
-0.73443405954027
-1.4684419210724
-1.91680967893242
-1.65989788930677
-0.944268059476192
-0.568604684919401
-0.646761190838285
-0.867564622045563
-1.32543582213962
-1.08101059530821
0.169808528117434
1.15427460969497
1.07832138382483
-0.579072494655396
0.126281120513622
1.45595154912129
1.85171774978708
1.93021535133792
0.0816240702382465
1.07016233526686
1.29179593112972
1.22300513711069
1.81441007462891
-0.207935143244372
-0.197452111191217
-0.908081749270743
-0.467349332900465
-0.0132776645144276
0.998515123861964
0.450417664908728
-0.592249732932025
-0.539233327299407
-1.18544532399441
-0.591696643283473
-0.612159933746987
-0.730322122856088
0.362560837844014
0.155101519565208
-0.171712401764101
-0.00147627469051866
0.683897487584431
1.20810968685921
1.0790493572852
-0.0139237509329808
0.0593770431473636
-0.487066953679308
-1.1413700749647
-0.726170221075737
0.237407276271874
-0.190251297616516
-0.738646182548309
-0.178209997907246
0.145004827677397
0.206570398870265
-0.376346667112037
-0.710406313619475
-0.380553154481039
-0.152756973595347
0.136752862810129
0.174010147048709
0.80017776799089
0.84353241848383
1.02905575715983
0.759453035941967
0.364823300536498
0.293379821368881
0.442409376440248
-0.209573355581905
-0.622678992107807
-0.122320018292139
-0.935572570809097
0.195721950463741
0.516958306349419
0.539912125659963
0.678455229148914
0.286427979497882
0.44637333760992
0.601675965594402
-0.172117743448874
-0.151657115806949
0.256331267973865
-0.27064193368967
-0.546197793518558
0.374603168902439
0.00120802951769445
0.43751587371263
0.240950384613297
-0.343572108329373
-0.561328568543196
0.144365219701451
-0.474876747254847
-0.257332936006054
-0.891972493796768
0.144778267772967
-0.115883405229388
-1.20102509193388
-1.05783484942431
-0.263965845018157
-0.178499378366576
-0.229896136843168
-0.00971751090288388
-0.576224988372575
-0.144455749493612
-0.307533428989287
-0.677842445409263
0.04075795259181
0.473554778928154
-0.0751038217243761
0.413666072559598
-0.251993556276841
0.127013432386471
0.413879266577075
0.7255699809336
-0.0304997209634575
0.58586524561109
-0.374795505941433
0.517944078726144
-1.1957875492466
-0.902978276324475
-0.170850595316255
-0.478635805843217
-0.520411387058321
-0.0821509309657662
0.512020896749322
0.990705490225613
1.66431040299509
1.30461788711874
0.909505661924627
0.738489169672508
-0.0322687010740372
-0.181734740398179
-0.59678108570432
-0.511306382449422
0.259398592765383
0.37845964452589
0.0296652882126473
0.443623146869523
0.569503254292048
1.12011486400467
0.751648849389037
1.98343557205384
2.19626479712272
1.36743839217128
1.22353438461063
1.48252431432138
1.14524569517538
-0.272683770486227
0.0320339561684338
-0.698409414524347
-1.07327479658378
-0.585598711317588
-0.905535831046545
0.0952590344768873
-0.230750646501131
-0.0371676624344716
0.151090887512864
0.0227634597683905
0.110135409836235
0.1131163003391
0.675190204087807
0.899597026432205
1.41598364492343
1.43812363369882
0.0530099047792902
0.279683366952928
1.19078255918661
1.61347543872185
1.62151799996824
0.750825732992904
1.16628549245762
2.01757538218537
1.52567269850192
0.634469501126874
0.586638020908394
0.315739934136639
0.199811698300759
0.0644636989025095
-0.0498202349009732
-0.171064081934682
-0.056657974885196
-0.825987327901299
-0.207736289818319
0.152192860696995
-1.00196862377897
-0.211967889737978
-0.760412599366039
0.313995196811553
0.412714256779389
0.369890938156763
0.601699574733489
1.03507417073595
0.614719361882258
0.12109488556973
-0.0210947283044268
-0.767757334009162
-0.871146575181646
-0.543489491535836
0.259701972407377
-0.240955307155524
-1.49890137485652
-0.296537247664604
0.689331194281646
0.313643674121085
-0.612604299191983
-0.961469949987635
-0.857590381927676
-0.372791693599169
0.768074109943488
-0.698062889772144
-0.563014444948707
0.480662779965513
0.748614138189446
0.459378312913438
-0.460188709880182
-0.694548512773513
-0.178377443461599
-0.222773437249061
0.309002940777514
-0.149385890224967
-1.250384523794
-1.56506448485719
-0.356679149080582
-0.0832699525030047
-0.0958940731066864
0.16085633633201
0.0665437865969099
0.777780028086575
0.1953467783111
0.278313426610547
-0.758130365402656
-0.641292402251283
-0.0195594837992879
0.706274729933782
-0.139017903292781
-0.671680230046767
0.127770974870957
0.34650314987634
0.425391340664179
0.385868300013076
0.346494700534395
0.407792277179497
0.129602758759154
0.584595481396801
0.214599537320554
0.129313125543188
0.343768411751103
0.311227157874943
0.941837895954508
-0.365274964582506
-0.328619937050255
0.337594441684336
0.783563133884999
0.535167300646419
0.127345265756809
-0.355221482756467
-0.14255408451241
-0.121777962181985
0.0929994056459958
0.141125423077054
0.0238921196222165
0.13759255708437
0.224367272898472
0.207815641828823
0.552150388311384
0.0230452552249926
0.164409866497843
-0.216454090206191
1.00221166380891
0.128887008752046
0.0515208903059286
0.345819722006109
0.291277061135347
0.694257557954478
0.107471180563262
-0.110246719890047
0.283786253090669
-0.114172879419793
0.633692746303011
0.00077303512929069
-0.339694433887224
0.310022191702711
0.128401424528247
0.545417776137469
0.539582019533843
-0.0132472050247612
-0.0696432669091903
0.186615001771398
0.751135723919448
0.558366217208989
0.0538969045223761
0.148909281479695
0.297404347944751
1.39099623550614
-0.131477942974494
-0.188111596257434
0.152262296372181
0.510639730937506
0.973686628066493
-0.0567240818193622
0.0293011616810108
-0.0255635218855183
0.857772920245546
0.258144204020056
-0.259407972489334
-0.810999068471619
-0.0178766940497401
0.0529203315814217
0.237788316890075
0.346451105355681
0.0927150123518569
-0.0207075028416098
-0.077388149826291
0.422388484224098
0.429382276365012
0.0363349728692443
0.119727029577713
0.0307874462396474
1.48570456351806
-0.405405267221083
-0.1222575335149
-0.0714221622095427
0.744563440858943
0.530076143957837
-0.309764142129821
0.0271821771577997
0.24571015559774
0.428038076167887
0.280529378782056
-0.388183154514042
-0.671023084005607
-0.435750059570475
-0.431407418133509
-0.430319133322443
-0.517440284639532
-0.459638620301474
0.337705808429297
-0.0664450074116287
-0.17041396963874
0.0709247973459514
0.520485833593912
0.366042709353686
0.100611310587345
-0.189898455452259
0.263106240218383
0.110214720813261
0.0892256592107579
0.503306642652733
0.487342752735049
-0.288753260204378
-0.567491485627484
-0.159288161804652
0.66342352718783
0.128450755007331
0.0236367954092791
-0.217561397332204
-0.299597968834134
-0.0922147265954368
-0.0692110704742025
-0.177526591127236
-0.80284299137381
-0.64862150350104
-0.0363900327458767
0.307728776275685
-0.321207384866609
0.28019976245714
-0.158542047384018
0.0187514202347635
0.274953065233619
0.00452627524036469
-0.0724322777467836
-0.00950178118153864
0.100029436535329
0.111347325118277
-0.192685658710209
-0.0993379839472728
0.0635191607963875
0.0976908400532924
-0.0032836133443008
-0.499312365953581
-0.139176331556209
0.0775427561825306
0.219820401218143
-0.0458119190019489
-0.482178309465677
-0.00173097245236825
0.455096556834339
0.392357113544783
-0.561996069778886
0.278111564345082
0.397187267207827
0.919258135585958
0.67973942531244
-0.720127238692018
0.147455104014172
0.316904035132172
0.719313516997238
0.674002257878406
-0.378131689132604
-0.200584404986625
0.461893388520844
0.842324325928278
0.648660949893531
-0.544936212939116
-0.490189424313348
-0.339723890916478
-0.0411367730469028
0.190603314722697
0.0647630236829209
0.252005634363458
0.35254173269045
0.530061348139794
0.68131297556664
0.00353472000044418
0.446487077078137
0.0679947188876904
0.411391048223793
0.800148277495102
0.470031381746521
-0.0914067420863321
-0.170325781264019
0.652938486265291
0.888140495113584
0.132532458156363
-0.00698314062236264
0.142881180003766
-0.151180380883038
0.911957865470897
-0.287473401168519
0.53095393377972
0.200905759493083
-0.870236331602482
-0.972229552485066
-0.374184379013089
0.386060087262978
-0.380660345182655
-0.961021044631383
-0.291665517010052
-0.375261327881054
-1.45490210741001
-1.01643129389377
-0.298539463422944
0.618725980963758
0.568687485567627
0.0583574120479146
-0.1309548460953
0.838360177418176
0.724258315276815
0.0347544288102104
0.31125523135485
0.857500716538917
1.20731753407869
-0.660098114647532
0.113035400376144
0.224059496021344
0.234459855030487
-0.42192555361771
-0.183798386018105
-0.241569751155325
-0.32400914343719
0.049363301778717
-0.0178101920371686
-0.987046107655416
-0.0943615668307208
-0.459132867814684
0.208084875185447
0.329481737850959
0.558764535273796
0.472032201559379
0.313025819749685
-0.496179915304924
-0.217459708653936
-0.279395048891892
0.200134656408052
-0.0955057731887061
-0.220908053875907
-0.0931896217980558
-0.263719684101276
-0.224944938679042
0.159497017108776
0.20340893958003
-0.676993160817367
-1.04262145924565
0.538409964534939
-0.229633537539399
-1.00407176228297
-0.947276520099489
-0.108673458455681
0.329238288353086
0.363689956605888
-0.680721367866549
-0.412794143743706
-0.396326988138245
-0.0469582277381576
0.282043140758502
-0.501738402259804
-0.404245690185353
-1.32540605675001
-0.556564557645207
-0.105728908701798
0.0826386048699762
-0.647828557816204
-0.838659275615406
0.192934791393747
-0.121865471842948
-0.110319897979623
-0.417972195795807
-1.01008065702774
-0.186894754472631
-0.184793215505017
-0.0305513565219661
0.446599102919576
0.43573295534161
0.301150925669933
0.145638399698496
0.289096215609968
-0.121261432880782
0.269633908727963
-0.547774933643043
0.522253382757588
0.45928058273197
0.44571219871817
-0.0112653289482136
-0.297558277763043
-0.638082357165876
-0.222313498948289
0.0339171167406367
-0.394491315497743
-0.17592350255236
0.291643456474368
-0.117837738424804
0.028778906449105
0.163274394107858
0.671836056118235
0.317205955748348
-0.778300867953413
-0.766247568497577
0.373146467896456
0.747810819014683
-0.268663639886332
-0.304508213642417
0.517379620856346
1.54444298483
1.98185297286706
-0.209654929038126
0.281249731480995
0.358088138146784
1.78374743202916
2.55823052508016
0.681750731913997
-0.0522279874782863
1.02013454622561
0.0405203138719587
0.511279315147527
-0.101176353204599
-0.0327609639002455
0.222696047725935
0.297148306912638
0.0935051978172275
0.0354022205924096
-0.311893004593844
-0.182702023224123
-0.17477159111022
0.185836764511433
0.30759038211317
0.0779681621260982
0.106367643354449
0.625572517190814
1.42902959583805
0.0501393368134207
0.147293955849474
0.25119773091397
0.677728476788329
1.53711925192416
0.0255822738398731
0.119241933989534
0.650791297305727
0.694950121096737
0.92738684270848
-0.159375293202691
-0.822686131375427
-0.127660966760557
0.477191923497467
-0.436019986833377
-0.754714875034214
-0.825684639843128
0.0553097796342745
0.407081886873657
0.0234446896645372
-0.422130029628131
-0.12191934618521
1.04765948244568
1.23574658620431
0.348672338779721
1.02464287071339
0.972083158763453
0.705111728518809
0.294823388877037
0.205878433907627
0.883484377087681
0.5142808629479
0.0544654760444821
-0.213790021315634
-0.66124477558624
0.0474963702022773
-0.874616004635011
-0.520020509929181
0.693992857391456
0.428369754554692
-0.900609549004563
-1.14694592775787
-0.596573084283963
0.316019475494071
0.876178860310257
0.389672014914745
0.716063459667047
0.960306042782701
0.514676152230884
0.698231683242168
1.11184150955562
0.980864457752854
0.0635688476216343
-0.0838449325560955
-0.974144656033215
0.783761691750932
0.232175495803534
-0.246645579492801
-0.399662540106426
-1.45002422321943
-1.34027952963675
-0.626166892254211
0.146994901165633
0.0754061098393572
-0.18404505779078
0.105755291394283
0.0360752135379878
-0.0630154142995553
-0.598493479018616
-0.561449768130559
0.585396667151866
0.429946998126542
-0.138210212850391
-0.365424827114519
-0.218968339929457
0.339962963875049
0.921033144128846
0.209964283482374
-0.218249864573122
0.213086364637328
0.0292201651601282
0.452483650895201
-0.218136720510337
0.441757389086497
0.644355444843107
-0.108852088007025
-0.186691660089706
-0.129213817971636
-0.192699640752366
-0.187921537616088
0.40234991071265
0.105498825639208
0.0210871338087261
-0.480937514101298
0.0301880553021341
0.546572202819187
0.841781846605309
0.744516978881791
0.130230971772062
0.162388394342942
1.09939748685336
0.796121333133438
0.848540058873562
0.496040302649026
-0.020688617074469
-0.12655987813408
0.0595014875100911
0.0211086295172926
-0.208639523206474
-0.149508735022955
0.00818332951327132
-0.802454880499729
-0.113649469017143
0.00722618532757866
0.0758205184307968
1.19102736383892
0.142979348064101
-0.0305452677726653
-0.144068475488341
0.00983854791195325
0.556761061701346
0.603679807269429
0.197402649691112
0.0806640648828362
0.113521785790467
-0.367620643326418
-0.183774833107139
-0.573828019321192
-0.273156997270667
-0.31689579502606
-0.582009388122165
-0.492620360169568
-0.574980319513258
-0.784383490709728
-0.692760443647121
0.408698064257489
-0.352844577197304
-0.81468925795144
-0.406438226230275
-0.0209412281567078
1.11439388342779
0.299398945535832
0.113691582669955
-0.146053763875763
0.411514473233457
0.054280767258132
0.59104427350052
1.46136321344898
0.354238399740965
0.685535276075938
0.572698337524855
0.509342219264233
-0.0824077415596252
0.0287509083263384
0.211305515211636
-0.658338574630969
-1.20152837774318
-0.631358165255135
-0.204450322871182
-0.318880642644202
-0.633540165158316
0.451631079462233
0.651219917353733
0.693662245520666
0.165020992128332
-0.915459938282336
-0.391897969211939
-0.218827506796415
-0.244964368199156
-0.573385451418642
-0.501369710479979
-0.806619363219282
-0.901202350155263
-0.716706942408621
-0.304796147701654
0.513691922930177
0.0381597454425435
-0.122874209907513
0.059998557461689
0.872015552689486
1.25747988378277
0.348878736385767
0.692741706097669
0.623768629815283
1.25164217496373
0.26905159761278
0.241402317779696
0.150565570086588
0.488216750308528
0.722501728648003
0.358726137135743
1.03697166370675
1.00942698588275
0.477466528462623
0.711871381506703
-0.277207531103966
-0.0459193734997477
0.401180920699868
-0.181850650155009
-0.387464423734221
-0.198434900557709
-0.310933960245233
-0.286263321882133
-0.584166135217774
-0.661310703089281
-0.0557641057856446
0.145607250088735
-0.0310032656118784
-0.243531781590207
-0.60040645567293
-0.56766341063774
0.650240848163933
0.127415745906425
0.100402047364416
-0.120928862212742
-0.463182402691165
-0.203888614097209
-0.71212895126439
-0.721104852570033
-0.0077067818060014
-0.298397183458416
-0.804914881046002
-0.244363661388884
0.0386835183315735
0.614707607839588
0.662772123749455
0.363420526233752
0.412372256411497
1.01935222636861
1.00129268341757
0.679787588509097
0.403108684670007
0.118997409318339
1.27014711234483
0.740282161502455
-0.909707652059023
-0.0791280885373448
-0.784911512385671
-0.67431070240881
-0.440372240727782
-0.519117929912564
-0.978279466656315
-0.826343057521241
-0.468822566747854
-0.300555022347196
-0.0286585817633846
0.330024113242233
0.221374090703005
0.528047507339098
1.47712076462313
1.15134618317328
1.00875687881647
1.06033870409995
1.06810628594073
1.46278546770767
-0.224840656010961
-0.530772857392809
-0.171312741400107
0.513577809772355
0.948994583075221
0.960346051483989
0.802280981335223
0.9871728163897
0.708274569908024
0.94973070719564
0.750556563719044
0.433353281967904
0.437369803054093
0.245013597928697
-0.279021814050582
0.620925982596404
-0.48441487076513
-0.384396919086461
-0.381779724918014
0.305504499297001
-0.487841070270353
-0.734090779598609
-0.533246174756106
0.199491572515175
-0.111204936864951
-1.25166765489962
-0.735424924463681
-0.351105658482322
0.19902535674566
-0.163162606187028
0.701365520499579
0.202798744465365
0.737779418586513
0.332936765831759
0.138881439030906
-0.238129284002672
0.195293123276243
0.0103227098756976
0.155245588501163
0.119801225753429
-0.951211254810627
-0.57925352857688
0.287063813927716
-0.253105712612896
0.246538405478007
-0.572570584332158
-0.712122936517101
-0.449380048344795
-0.260174450625973
-0.351156518212767
0.167197447009255
0.230314023606538
0.248632241575672
0.197763230448518
0.0241300841569403
-0.365666299239336
0.00348789302803705
-0.101513458217217
-0.416287653341556
0.573786255802792
-1.23717398000074
-1.10528260741627
-0.256561688710469
-0.686746076550668
0.259156198396773
-0.992312536225376
-1.10947017900741
-0.217706074235903
-1.17887953859593
-0.312538265084022
-0.602399925298911
-0.0414161978661743
-0.281022692560908
-0.131793391414508
-0.392503605459397
0.114253447813273
0.568288870585178
0.434273292713849
-0.0491515578421095
0.801311059977056
0.606753009731383
0.0303606843466613
0.246640641893132
-0.185269340484805
-0.246149570647187
-1.18084707452339
-1.23841500135825
-0.325517067853498
-0.233891986401419
0.00021443924595468
-1.41460847110743
-1.18165406689764
-0.0968358018837131
-0.224100073535194
-0.572094190159668
0.241257201639582
0.0298493625468792
0.714742905719356
-0.171084172934961
-0.00514249336659411
1.28640238829662
1.0668562394957
0.517461143373108
-0.0951117641603507
0.212285603775574
0.96678952911096
1.36129179409208
0.864981593693951
0.727167242426554
0.285211900107163
1.96149589960064
1.21168569404865
0.573924191428616
-0.10893536610563
-0.634484631870012
1.1378833692763
0.598372021113951
0.259352301396591
-0.159794278391033
-0.471200360768472
0.149687545258988
0.0521366360580982
-0.0753780024405943
-0.0558792739070473
0.143474570022234
-0.401317807593334
-0.53589273285671
-0.480736727603425
-0.564131759955783
-0.842055338841321
-0.18163718630391
0.0665584269696961
0.176121926337978
-0.443382553109961
-0.375113122436506
-0.151254737047939
0.224694716429662
0.278259409889887
-0.303071209994045
-0.593541440931977
0.636174675526798
0.189375054558901
0.136957271421841
-0.121335542622002
-0.680181555094219
0.518424247133508
0.313070176798704
0.580462094810213
0.115649977731984
0.0122192759160354
0.207840078963212
0.651815615430063
0.123597608879945
-0.0533663837844597
-0.400142047427311
1.32433514231261
1.15558033348494
0.953340581068935
1.26357819591344
0.848149764670021
0.757104767222138
0.374734901078955
0.291107946404565
-0.085743815512657
-0.259058951515357
-0.0832832991161686
-0.207634628293945
-0.427536162600185
-0.419297150374608
0.477222077197584
-0.183908055532776
0.163203480480274
-0.164590395646475
0.279099185661563
-0.192550931165735
-0.595678349596404
-0.303384414334557
-0.125686323498128
0.0417065111438166
-0.726779373242534
1.39940266971606
1.1044361207309
0.98767836411205
0.872324797630982
0.456744110079989
-0.0700450114947294
-0.205496951719598
0.090485581472681
0.00938505747337224
-0.00978402785402122
-1.49791775579552
-0.8358973497808
-0.700571989501145
-0.231165463202028
0.660386641531036
-1.00642427454618
-0.634629572440897
-0.580947477702003
-0.543585146119538
0.227953861018047
0.320889462833675
0.747365748051285
-0.173756334889731
-0.306844586800678
-0.949466072437832
0.463212421978878
-0.0560781401873919
-0.34606266250795
0.493498973283722
0.561030811036216
-0.212064980961968
-0.460574492188915
-0.778067603808787
-0.0843822545526021
-0.222027029573441
0.190927911946804
-0.336122730584981
-0.482766631062638
-0.779174384510207
-1.17391228986299
0.224721554313941
-0.293580988955739
0.193980466841714
0.00234632435496665
-0.675874395674458
-0.177482391660334
-0.220780212613852
-0.03792015536028
0.144074033656684
-0.338321804269521
-0.0702776660520228
-0.184337929774864
-0.366680816379454
-0.268891336391722
-0.283349494877361
-0.108072166695381
-0.677330891047757
-0.229285356439244
-0.0606772697490753
0.149586325370336
0.456383387063604
-0.323086136804278
-0.664000635480352
0.0459872151867094
-0.0151628226761903
-0.188278560513264
0.107075709333489
-0.231554478068246
0.603036993561865
0.0484334860642627
-0.145403350054923
0.327600349916906
-0.328821942889639
-0.364279446015257
-0.657905611270193
-0.146423395941445
-1.00813581898187
-0.51095930286276
-0.551579391634581
-0.855557805892535
0.316637215404754
-0.408731163466969
-0.68473368954242
-0.391106515728388
-1.32248048028234
0.178360869199431
-0.492427413459406
0.301341179271538
0.607533865338429
-0.764125151815698
-0.270961598142327
0.0139153257826734
0.333167588254536
0.00584178239249715
-0.518936284925394
0.149786442220446
0.884912992051827
0.613770819799054
-0.226578960117588
0.37504379384701
-0.583513306878503
-1.2374451964774
-0.379006733230075
-0.0514843062669031
-0.325601588941536
-0.678633486977563
-0.945268767679583
-0.28131246289131
-0.291435903070902
-1.6285638715327
0.569863038213118
-0.101386646370987
-0.445069108000465
0.248151518786864
0.366865927274662
0.225743251719455
0.166093765045522
0.241009443862662
0.513910896862561
-0.364680978335169
0.518432836456
0.264358383788246
0.237828730349699
-0.102620666007933
-0.092380501915339
0.273527357390327
0.785964427553896
0.425857285231976
0.0346386369038701
1.09181703542013
0.402332833120592
1.14002974776513
1.09060414231189
1.09816417042264
0.769087024626052
0.694819849184991
1.11412866951045
1.36476796087138
0.348543869054998
-1.32535533298557
0.437984421546541
0.203646805029486
0.508764133235775
-0.455962868032533
-0.294769043476405
-0.586261694452779
-0.464083545302472
0.0924162739166034
0.256119626526802
0.0528785088538787
-0.3831470968127
-0.297622578690131
0.244113715261317
0.805719373918769
-0.151334852304617
0.912273171698277
1.05605038839024
0.813564665023503
1.03966537280556
-0.302977047054862
0.786731519989367
1.72161693975149
2.46650055807203
1.08721777611717
-0.10264615782962
1.0314073364404
0.811155111153704
0.844947693228885
-0.331626208721718
-0.678613465243452
0.0997047723786617
0.00524226530150791
-0.364820913580815
-0.143066570271185
-0.0648573389113013
0.00234108418211778
-0.0626713272338768
-0.232761653892817
0.241352661698056
1.22473474223233
-1.19226660251139
-0.57561283871554
-0.704283065512272
-0.70279871546954
-0.854190819360899
-0.419519975220253
0.0662546437511447
-0.240400144444113
-1.90175250802546
-0.139316636335005
0.248921495410977
-0.624790137662779
-0.810222471455971
-0.788932846614639
0.509503191278959
-0.468476306412328
0.336493939006237
0.310149294569365
-0.531212052059484
0.95735713938513
-0.521785251109438
-0.926538070873511
-0.285961099233458
0.0861354123384315
0.440957791111693
-1.28284307131409
-1.38830177881133
-0.512745520505904
-0.934936128083247
-0.850443209592471
-0.108715266481735
0.0557430830576007
-0.661966929109623
-1.81773281027858
0.192329987531794
-0.13028685104527
-0.86307808477599
-0.178275601508054
-0.230286081062267
1.15731214504506
0.343404778737618
0.376220244420316
-0.394958401515656
0.75696824494704
0.42133203571593
0.196486890635764
-0.313607194413491
-0.337575630710208
0.595164335118931
1.02371861247916
-0.920127314028489
-0.130011180793818
0.634070785315834
0.999721927986934
0.593968766126607
-1.1552252278932
0.683729515131057
0.815774037915702
0.273624627257855
-0.683004591942103
-0.313565160439057
1.20358108248387
0.634997270198974
-0.905745318849812
-0.533638476421452
-0.386607218989404
-0.000568536627957401
-0.157269595090085
-0.593676474022292
-0.359050286348316
-0.117390257421836
0.314155799988146
0.141812658100727
0.33841297699502
0.488583906558958
0.172750238054645
0.176585015772424
-0.269986314381357
-0.336602750724777
-0.0193053955645277
-0.401819051868297
-0.110910611261401
-0.15921175558223
-0.615324415323063
-1.14781284487354
-0.213012826380958
-0.0342755711527243
0.143370311104632
0.249342797612567
0.479909554284342
-0.569125566061152
-0.334688078547587
-0.170210867811369
0.182695750629432
0.734541595167457
-0.815854004076093
-0.503619092829746
0.0476706189316884
-0.188711351701604
-0.134802039929464
-0.9712431111898
-0.0582880179675741
-0.00898752805107044
0.0655803146612462
-0.896491007140347
-0.609873289081372
0.571574511463061
0.309400597268123
-0.749634623364644
-1.10097144968304
-0.257603478407965
0.297550772162806
0.209230575198463
-0.583692481417143
-0.285052396916678
0.376474272940775
0.0386551623797049
-0.596253669088556
-0.244401536198922
0.184825469783715
-0.40539901186581
0.201461308558209
0.80220380663669
0.798028637912913
0.25848463466116
-0.106235095604456
0.489664896809316
-0.0187832958976212
-0.404699322961779
-0.984017280663888
-0.270868425940301
0.43746147187253
-0.537479382133465
-0.993476273010493
-0.580273090082055
-0.552062134231285
-0.149389066678905
0.0258157105132685
0.254111210385424
0.437767475107777
0.145169752277865
0.116991388364338
0.264673068180349
0.191216728964547
0.35106711676909
0.28811416222779
-0.334679071419433
-0.264288591963041
-0.262527668996599
0.439311625702069
-1.20022851381482
-0.164775563664355
0.353014222990583
1.69034364646802
1.60206046900762
-0.054814827721002
0.469166541847212
-0.110892759087615
-0.165853236436907
0.382714238444264
1.07895898158594
0.453709948388436
0.641533528675617
-1.29638848795313
-1.09443032583958
0.695020055985373
0.753937854411486
0.752361965912717
0.00776820621039616
0.577297935514798
0.0923879384879184
-0.112058986823702
-0.0737991239536767
-0.615721899614995
-0.634012599188994
-0.330766052517917
-0.908447893524831
-0.332929695601729
-0.103716546883105
0.0766689692458501
-0.188342587135339
0.131221372685287
-0.159465373951187
0.359981884652917
0.24136881109643
-0.282364624566653
0.229904682484049
0.540749960942212
0.257867300201891
0.188371468748418
1.24515635516127
0.708003262569874
1.02708301408452
0.50133022455963
0.209736742252128
-0.380181387978585
0.0668436665661157
-0.170988938777503
0.875939910791233
1.013406363017
-0.122847226028117
0.68479619094121
0.261938695130151
0.788443548198509
1.15644573275582
0.331803528220075
1.68855760386061
-0.707148580111714
-1.10257918235023
-0.0048176660630134
0.32499422087069
-0.0748359409393838
-0.812095709109006
-1.21666602290336
-0.127492039058844
0.216628514107257
-0.468486259524043
-0.220833397985897
0.649317138366693
0.392115287853372
0.0635293377859094
0.337992324160132
1.17186222786914
1.13508582807905
1.07015275362107
0.258628195855551
1.42205460391952
-0.0631789539617606
-0.0898514383277453
-0.0749458452774615
0.297119881036158
0.394320799266554
-0.724821366376458
-1.46149324527352
-0.918504889804155
0.097118139940367
0.282904500327094
-0.856129273747991
-0.463659547536885
0.143225016503207
-0.326184542858713
-0.320474457824867
-0.148666392867497
0.191566810011742
0.637068055877949
0.134476816566142
-0.855867379240478
-0.51203071854979
-0.649950207428215
-0.399104845025786
-0.74146213873101
-0.829956817236554
-0.0748316167440428
-0.72460739489006
-0.985795243766491
-0.26097381001178
-0.441442546418009
0.125898036561572
-0.633649440166866
-1.04710725285203
0.0279191990664126
0.109652579879023
-0.438851383885661
-0.266896616974217
0.153754472851617
0.273252309364417
-0.270449370778137
-0.326689321548311
-0.615640676395676
0.298993588639167
-0.336283331253986
-0.467643263271836
-0.2776742065243
-1.14664697645351
-0.863011361178486
-0.0441681608630293
-0.423589629263319
0.146855570280831
-0.117751579189317
-0.440547977721078
-0.159468426582842
0.533747446524061
-0.0183040600974742
-0.337288888133746
0.0297784669266081
0.30771295142509
-0.00405982328515308
0.154783708843747
-0.448779049939308
0.0555074349256697
0.411644011839609
-0.0268355064315711
-0.581132542222175
-0.0312447634964551
-0.210522275993215
0.35076636352594
-0.430497326730172
0.0355915549580833
-1.02181263615475
-1.13224940208782
0.205815229669687
-0.151105552833456
0.238697063842374
-0.286437197662462
0.261873545049516
0.217176359339557
0.249830125998622
0.745904234225186
0.315689238269928
-0.356455192901385
-0.0816263138257631
0.545569390282789
0.00803905939042215
0.176567028006019
-0.152710953653269
0.874799613049376
0.696088715642718
0.486076080977747
0.75471794960279
0.322723733549579
-0.00331901435184929
-0.622664008660418
0.243427922712426
-1.15200114321614
-1.61336767822252
-0.49572235593392
-0.399176626506449
0.294251468244689
-0.0749494724802737
-0.26951598869052
0.534108270249188
0.282490801740723
0.24232409471096
-0.417439656239666
-0.559324393741131
0.698552864217783
-0.337978830672253
-0.636467583699789
-0.0910851754960278
-0.210376533461341
1.20608022427241
0.912102685039526
0.198760067725497
0.115975066634786
-0.280563504891656
0.313407132673234
-0.456700172730366
-0.46580240893423
0.52758934582666
0.571542806538152
-0.738513168327874
-0.189359579414504
-0.604073907948919
-0.545469392503719
-0.20517257328575
-0.376199645343477
-0.0249279465235329
-0.204424151942156
-0.474829126147335
-0.792584753832608
-0.430128113371833
-0.198478759243039
-0.564401578457104
-0.397881931226818
-0.00912226369863921
-0.934273651552876
-1.6362272397988
-1.16271459291373
-0.378816295678903
0.644153649969118
0.306901229416768
0.449753688411894
0.505622481978813
0.437005443145728
-0.134973801839937
-0.055556163230924
0.490723566508287
0.192709679567995
-0.280079247967699
-0.0236087122375647
-0.351042214785492
0.479149510724478
0.237808326718348
-0.519937458088031
-0.840655354128134
-0.810390610021536
0.181645651463612
0.107548972386319
-0.0316327034325341
-0.533208837255729
-0.52446767490393
-0.483560844277684
-0.319867650060676
-0.053305382860521
-0.0204255526492212
-1.25851706786034
-0.924528868852968
-1.19516377180089
0.383381362703147
0.947727828276825
-1.20928335261211
-0.576628755343903
-1.55209038657864
-0.263836785434938
0.0232037142128557
-0.875758815061051
-0.369754504897416
-1.44619087137807
0.0715816383917438
0.18596773615394
-0.40607763509545
-0.311952462702802
-0.704256285594985
0.348517193655435
-0.619819498956053
-0.203529608811353
-0.711731786264924
-0.655123438740583
0.5102453539338
-0.204418965425935
-1.0580790414419
-1.20990649169276
-1.60753994587941
-0.877203784646725
0.156046877059809
-0.46206295221947
0.21047170001373
-1.21719170645042
-0.465448453497736
-0.0318980314529053
-0.429247313934295
-0.119767882308597
-0.577547854239426
-0.622465661600069
0.405777196729314
-0.189816610368979
-0.194721892823266
-0.52249947109999
-0.0431137890285859
0.396328799077831
0.379039797451091
-0.321798933692711
-0.31409180217543
-0.122880374600765
0.2802180220299
-0.15680731524469
-0.394327651393415
-0.137054340601967
-0.113521895471238
0.995575660381429
0.165468439459393
1.24867967249468
0.568124875191879
-0.0788178684462847
0.322193636059641
1.69534633239913
-0.424253183862416
-0.239227789193528
-0.487433661431041
-0.0919865932170865
0.254238166389945
-0.581560514234581
-0.823935815223154
0.705870085183002
1.32154681588011
-0.204863978700241
0.927118463933423
-0.0207891344264286
0.319046633897463
0.165682848437068
0.227207106189361
-1.37324281265091
0.0538971719774837
0.486254441657492
-0.534654693336768
0.0331734049107745
-0.627543529175986
-0.258434636674771
1.34782063880304
0.296545047651053
0.00678402307917384
-0.762359886643319
-0.274085281277379
-0.242930077918344
-0.0473262137856808
-0.804305216131775
-1.57818162882241
0.0288505236908695
-0.0143461716504937
-0.154536605334843
-0.135332436385676
-0.443247571267072
-0.492849383686454
0.909286138285764
-0.974932200487799
0.534262965734807
-0.883769122522428
-0.487259065816127
-0.205077144070575
0.852820600058742
-1.4380007739301
-0.267010011138546
-0.115136338556163
-0.214238156403592
0.712410471044518
-0.120509627139587
-0.729600008992431
0.101922110971454
-0.215029322579057
0.868484742243848
0.351096597671192
1.36510816845847
-0.471903789707
-0.221967756041625
0.124239817997597
0.244193893564946
-0.823369584850934
0.0315027721790207
-0.881558480702084
-0.228371568163389
-0.214653804952968
-0.439993781639441
-0.231141652524465
0.0854333241458278
0.147439490114593
0.352664813098061
0.856845718294833
-0.335378775483989
-0.158573114012597
0.0455279827921444
0.0349802361909014
0.0238628456139498
-0.0294431155399468
-0.417707075752539
0.473391556733633
-0.23675044824563
-0.595848518408276
0.644835632519292
0.328754256445129
-0.826183259424519
-0.141071657963079
0.229267796845894
-0.507113855727996
-0.305703988098448
0.577554762353183
-0.483459441445201
-0.504564008244351
-0.211882850493285
0.0743974764319832
0.250405334682448
-0.113124958337398
-0.777956394664063
0.889993591118775
0.495003385865244
-1.10828755202841
0.808578424755429
-0.950160335928589
0.363991836446609
-0.177001492344454
0.562118264117163
-0.93411952126075
-0.457388197457226
-0.152792767627142
-0.48122373849985
0.161147638261052
-0.0610011861665668
-1.39953077860689
-0.983566200638421
-0.703241937720776
0.257069860747254
-0.169078139239824
0.550148868234164
0.79382098791608
-0.192309875305233
1.37147844660487
-0.10319769625808
-0.111566489376225
-0.100182397193427
-0.072163479514205
1.03323885247147
-0.101213166928261
-0.780685723596929
-2.00578153506104
-0.580778979088693
0.731994673739366
0.446714637878424
0.184116681576073
0.467044781470351
-0.106839195137916
1.07967497223696
-0.532051715403192
-0.168401353459126
-0.133251664319952
-0.0712673976636733
0.789126274380987
0.0840242793507254
-0.390409589889507
-0.723163247491438
-0.63537824058036
0.222039427530819
0.628387641506514
0.302414810765247
0.445985321367615
-0.225016772983409
0.645573067098036
-0.0509662297978305
-0.166036565357124
-0.0465858306555895
-0.596768991612273
-0.230657969504637
-0.364535798875544
0.279137293907239
0.922910265285808
-1.00019317337867
0.67572949358935
-0.301341634686483
-0.0304098740010243
0.295227387700071
-0.200848500726213
-0.319622748298769
0.31480063415991
-0.142736081737369
-0.217825670768031
-0.937241052470595
-0.118093802708993
0.159356613360213
-0.38632120115536
-0.961989010177887
0.13409308005386
-0.712156058504935
-0.0281153286632458
-0.278825862231095
-0.405501343697212
0.137237121739755
1.19610172307985
0.0790692161941735
-0.483145557428947
0.0789517101864468
0.431228822651506
1.05234925302439
0.0205603671904554
-0.100206488283348
-0.630841098045293
-0.214844143104889
0.0507300414343115
0.397712647944836
0.642296414845774
-0.805759211869444
-0.0924282238255993
1.02762610106096
0.0470871459558244
0.472143918220372
-0.0407657793438357
0.689167092916971
0.250020720196786
-0.0265807969361256
0.713012371711642
-0.530434117723956
-0.305645055020823
-0.188405308400895
0.85255958541481
0.703336481876475
-0.627898006407557
-0.03383703480482
0.657725032289103
0.0307519666226213
0.434686072935958
-0.0925260962341176
0.103451033561743
-0.644038607114977
-0.0565647688495786
1.00122309455517
0.250560847068028
-1.48667584300707
0.248489214338774
0.255903846347233
0.820649176984952
-0.951983385878828
0.0694759040872891
-0.338467311761077
1.09709504374063
0.496400949657808
-0.0398786024348341
0.0402400770006475
-0.523615058748377
-0.0616640852296172
0.103543397756739
0.426102156658136
-0.498798785921931
0.681627002103863
-0.228348861733147
-0.435164736747412
0.443820336016514
-0.000282102905690422
-0.42341278305898
1.02104002072683
-0.0900396851339966
0.0751409875678602
-0.331277430168078
0.452194830276722
0.254461062704657
-0.250566842438128
0.679547893083448
0.468898406408988
0.445210803276094
0.303129193590756
-0.142067454162127
0.0273428548739079
0.355985572601114
-0.226247153591702
-0.10813611252749
-0.526296274235237
0.162336412654287
0.046977578678503
-0.404141916376687
0.0807803109152017
-0.111326456861356
0.394750659496594
0.154462932264306
-0.168634626152302
0.520533773037518
-0.626488857997419
-0.0371318299659952
0.196133978442917
-0.117862372703902
-0.22626087031202
-0.500537646724526
0.281077510259461
-0.703478831255053
-0.0902507965520704
0.0761527983970624
-0.320410699502138
0.358890557401355
0.116875698285504
-0.394693751704113
0.0422569036355182
-0.629401164979342
-0.0362803599193353
0.0451766592371797
-0.295714912210013
-0.00928315716726637
0.0940926060546787
0.0560854792018806
-0.367220131089221
0.552576394491474
0.0860115740315435
0.390450580223504
0.279280221372678
-0.180799470724652
-0.224906646946143
0.484411857326638
-0.66086004785373
-0.64066053198642
0.242671986397106
-1.02335135035098
0.376660913191063
-0.554525792610467
0.0578637012503544
-0.38487374475519
-0.369221167257143
0.297083395387531
-0.512165914394672
0.557146929606019
0.38189106874211
0.327698960149248
0.518006139354448
0.433556514865784
0.0302832351846453
0.144238004705404
-0.164807977324596
-0.275260679159399
-0.462944660131788
0.303009285398331
-0.64669047033404
-0.94931991016564
0.247897615982743
-0.376928412823756
0.40663011843538
-0.269552711127768
0.689155891827603
0.156851772517059
0.130984066446281
-0.318334868018304
0.417640099794072
-0.995637980918547
-0.51307406930542
-0.392451596305367
0.379779495182023
-0.373152896491437
-0.225308428958239
-0.0937038759284697
-0.355938278636193
0.66126531885426
-0.499109213896358
-0.172076769586918
-0.248638705627348
-0.00908093478812861
0.62245086026967
-0.0704873484686549
-0.023628192246297
0.500304102011591
0.00575749421609678
0.214302367717988
-0.0702455283547168
0.109865751220148
0.253075274507426
-0.63254037754843
0.891985648868973
-0.0971629476497282
0.0599995500070478
0.243511271479443
-0.86674660631736
-0.297901810129171
0.179092227207629
-0.140491358980131
-0.00463806237171482
-0.872038134188997
0.261723119543435
-0.784101616778568
-0.0295739257398742
0.364801322696181
0.272500825659496
-0.368622695262942
0.109658416421415
0.352080091201906
0.504459922073907
0.0840169170642205
-0.331368137363557
0.27261337285199
0.0923181614219551
-0.196113200539118
-0.0974334956709942
0.175938090871025
-0.362308457974091
-0.830282228143757
0.215742784061379
-0.0595462698834339
0.0781525782636648
-0.413821659035609
0.417312473738379
0.221804662312863
-0.248187895307794
-0.0730015168590561
0.371572492144221
-0.720290328410744
-0.262977437832574
-0.479029138405376
0.154360821578378
-0.200388329899376
-0.349697499939124
0.235649301333998
0.515352419076828
0.394845786020912
-0.846888186209928
0.408309591958803
-0.123820801780101
0.446839742766408
-0.0864497721262057
0.229438833262932
-0.627877634495479
0.491258400464541
0.050023163357731
0.0193314226989626
0.0354310770151292
-0.858634602394481
0.227362950589288
-0.204616519347777
-0.813399578449797
-0.0597899625499188
-0.602724253432094
1.17791192920863
0.0679799817923863
-0.56877186211345
0.0503670868977008
0.916580924851429
-0.253865139083371
-0.930776594337569
0.0865298779964489
-0.813973710599435
0.133128407675896
0.229281058656606
-0.0358255055775445
0.502046875178048
-0.160950723669901
0.193227471940215
0.0745904244025201
-0.0261986954160434
0.745923075794749
0.20520063483159
-0.230625497136842
-0.634457511053846
-0.191931511965792
0.0181980242037446
-0.426456127624129
-0.301688139125126
0.1388341212732
0.484286363413501
0.747218522146636
0.326134714545988
-0.228209873693734
1.23847526166779
-0.4760328454128
0.422182070300922
0.208775134626994
-0.0869388528560045
0.240821126345684
-0.38508513453205
0.0780097781204775
-0.459663585286404
-0.078086126002279
-0.129571566877419
0.674473320971756
0.25076085459917
0.56164787021778
-0.0235878615745582
0.255325840699081
0.674259075811198
-0.79903701733314
-0.0558172128123621
-0.197291921026503
0.876797261363882
-0.31764257143672
-0.0865339052001434
0.039180536950048
0.181395405805854
-0.0387742917435725
0.177089034150378
0.092549711578708
0.827703237568081
0.195637228080584
-0.302829857088055
1.11260611945521
-0.641460548097595
-0.021879482659401
-0.0380437802578826
0.686121720795698
-1.22670877434207
0.0997137679314539
-0.0202612635542363
-0.56680019378008
-0.080621631218311
0.0416454625216748
0.157689256854359
2.31713630817692
-0.330254800032328
-0.0216434624066754
-0.217509261536732
-0.473901867406425
0.0104027402971764
-0.0789099067590156
0.0149408215612509
-1.70837991705988
0.171515907725727
0.838761715066261
-0.0638828177707565
-0.250360889722444
-0.450765487302622
0.318992661758703
1.4919206650992
-1.12005532344838
-0.437602636367182
-0.178552105979689
-0.816283880524648
-0.154003507817188
0.216497265935777
-0.276165695376281
-1.29941209647618
-0.0490472667809818
0.389148213028433
0.0807824210079026
-0.206392068883904
-0.885109875943635
1.13071323740113
0.121644977059405
-1.57071945461219
-0.212933427221162
-0.746540047086977
-0.314576137847065
-0.352989764329562
0.462651327789415
-0.805675559904774
0.332283540027664
-0.156121552032259
-0.220704864052302
1.10904179607989
0.00694208695517422
0.276318258020541
-0.451054920930842
0.249209206848319
0.148909048062615
0.0970039255643285
0.354136794569652
-0.314385481083379
0.251150338760849
0.341486222445329
0.379354175206216
0.23379592211518
0.106668159116811
-0.0120474022959209
0.550245550640398
0.118223404252585
-0.111511578437578
-0.762484686503289
-0.486272444832614
-0.190290366332914
-0.023768458022699
1.30196700834144
-0.446214215680927
0.164997926364006
0.737859278979072
0.472610854676952
0.167371404779946
0.0679441375254958
0.198402216068513
-0.0380344348750403
-0.119502684921439
-0.472184444688509
0.375879111586635
-0.788997491700259
-0.280839741072858
0.132081214886493
0.707884635494344
-0.0359532090180387
-0.0179889708188678
0.169521602864856
-0.785422711764272
0.665238655691459
0.00188532340246615
-0.0250909121373543
-0.260213899953372
-0.042603970890025
-0.701115108648891
0.287928006682174
-1.4831190671217
0.451051555812955
0.530999769897442
-0.116117245072088
-0.358201344352956
-0.379969783233681
-0.38827547610731
-1.07290814023039
0.168146456859358
-0.0601061456182654
-0.824827281424683
-0.260710525437268
0.0909834850917717
-0.339283330490794
-0.352040547500553
-0.404414385517282
0.503175337242826
0.243636615962618
0.167277694302143
-0.0474951547396972
0.0515824123520394
0.694187723543681
0.135549107399734
-0.545980145181164
0.0387563429904681
-0.490377515186124
0.273467684118265
-0.0339782801408669
-0.443046992657778
-0.0541130231377766
0.683140647952513
0.650373189880488
-0.180898975514402
0.80753633074865
-0.984344204817487
0.151866258967179
0.104177664973821
0.03080217703388
-0.361242813028712
0.168161806977629
-0.843124855370993
0.458773992451037
0.00710305782007509
0.824562557751865
0.192677199101627
-0.0104659974314395
0.733504026105891
-0.64234728130297
0.673182142324251
0.0529969917780754
0.11790813117248
-0.445564627373738
0.270336495247696
0.532216669157639
0.0638314355724199
-0.404886074468748
0.404495948484249
-0.050781217955512
1.26882847643934
0.531699316023513
-0.530408081805749
0.257287185529032
0.00766377426340004
0.198054890908221
0.366380998783634
-0.111572408139046
-0.503429030812188
0.682253837661519
0.174583043418699
-0.0825189638025829
0.0646788515149876
-0.746481992819528
0.237408280132368
0.425544979104645
-0.0110048207712456
0.619692275443416
-0.185844621633526
0.814732407640323
0.473879122448004
-0.350450407673859
0.268590002937493
0.44010817676662
-0.493786018717449
-0.438735498625095
0.162913882756786
-0.254403592740497
-0.338292510663711
0.362479270098271
0.544827207683975
-0.447986799701771
-0.114769975559141
-0.687027489044682
0.0984838971526381
1.03954795916591
-0.715547551576467
0.342523424507223
0.612904501758071
-0.0803496986996264
0.61396967806322
0.0267922584018344
0.627313790115721
-0.656237150886366
0.0704925956344572
0.478120142167625
0.0572157172704787
0.114196978636901
-1.17543326574617
0.69734699285261
0.422528903292328
-0.179462501037758
0.176739438836006
0.234341320368074
1.1669094347133
-0.0237855403363163
0.163975334209019
0.723050613636699
-0.196693391831134
0.00674141626269857
1.25921784274168
0.331840619885213
-0.0379875246061075
-0.297331349505696
0.593168347763891
0.323155745795806
-0.342937108697506
0.0918559383779789
0.148550814037138
0.615505854666299
0.483421721832184
0.122880790680762
-0.200933637087687
-1.02067342806624
0.158752274461723
-0.19245680898791
0.378959564013109
0.257360115493246
-0.00340841088114268
0.0580133206982788
-0.885539230783228
0.708673880155449
0.178014099410675
-0.355656727843395
-0.450384747478646
-0.306641368365582
0.350620428252029
0.263061458629123
0.877436248257814
0.257376253320601
0.346747201431141
-0.105860397443537
0.0967080365636432
0.585679496902754
0.310999546363734
-0.323912608303955
0.273095720841248
0.285295496912537
-0.210736930209822
-0.206240372137825
0.165134984122552
0.159006722918394
-0.0504511661877134
0.0782277577652005
0.210721824219305
0.024002822446393
-0.196499609109134
0.556239999374022
0.393326208578454
0.284683383124319
0.0367294190500887
0.50027069546589
0.0177332545012129
-0.219416770666087
0.587820597235069
-0.0995834279166284
0.103737752093428
-0.384914202173449
0.219990745565132
0.27277391714258
-0.230935820985563
-0.274582199684735
0.806990631359574
-0.0323084754984615
0.163623199496384
0.0854084676136509
0.511277366501072
0.12381030941005
-0.564858728003316
0.690855335826527
-0.434628678604082
0.362311604972668
-0.131973775615683
0.465895219464768
0.230592515465979
-0.556505376776422
-0.143931812900915
0.157736882414397
-0.15665242458798
-0.0302053454369028
-0.445051766778114
0.543041544399197
0.165291203664089
0.377897042585232
-0.357503122870482
0.359491621202227
0.120889134697854
0.219448714956443
-0.71656562434854
0.193602097559848
-0.212089971845355
0.0231294923064053
-0.380218196738397
0.151069956449836
0.371444232583974
0.287017258971582
-0.213900580919967
0.137988759977456
0.0122397870888952
-0.46883610700048
0.108239597526226
0.184554802895305
-0.10919750710216
-0.615014615359966
0.0606814987967421
-0.391547905574856
-0.202750444022123
-0.515231378105432
0.00443211512934324
0.309105482435913
-0.713270400020807
0.223976608925088
-0.023429121936402
-0.260557632274073
-0.495249355904187
-0.735916540088988
0.124892559433422
-0.00723034134314653
0.151945910065563
-0.0978999734308074
-0.259483232107508
0.482093017361023
0.0123783742442735
-0.928414680164696
0.00316041363220295
-0.495895337798844
-0.871927985316707
-0.0796081807135342
-0.290892375785595
-0.483009563668574
-0.358451055527412
0.0261068476626822
-0.0311848442753002
0.254432975556749
0.165411123848193
0.394969466359538
-0.368869607240431
0.468938294274381
0.494464700308432
-0.228372621526655
-0.0506514460770023
-0.43220314226472
0.173927839192833
0.105281403326135
-0.811901615122633
-0.000449435164963112
0.19034645351202
-0.415155464341702
-0.456617397876414
0.197709438050152
-0.0340224913316364
0.378067389225143
0.162595182964288
0.0956982951515366
0.0797445008630628
0.34772882263421
-0.382716303507855
0.139256857257921
0.0715583051941359
-0.0562408054407911
0.139670937298717
0.111919881734755
-0.179856784293101
-0.358979741882578
0.0687649822261196
0.00489451163506613
-0.668941446446652
-0.464906682384164
-0.750234508376865
0.181381092250287
0.0892671204379489
-0.593205849766561
0.191042020729566
-0.0291572264469315
0.683119549638903
0.135055666217138
-0.141249536693712
-0.0238943358395542
0.617352331036617
0.173846577219509
0.00112817648378007
0.569607668966383
-1.31428121130864
-0.243707570255526
0.948685263269004
-0.0857261547050794
0.0861026174945463
0.189734594484807
0.436853588266471
-0.210133680577026
-0.107691380940558
-0.039631965054778
-1.2804905008062
-0.0366355019530889
0.282350595160656
-0.307057830661986
0.660625837669202
0.109238586353327
-0.348478477798474
1.10512726508859
0.546588484736598
0.0585686892164666
0.260349703644653
0.712980598602309
-0.107638787541229
-0.63774156548613
0.161653955248699
-0.508188489828659
-0.877408064941127
0.270022365413133
-0.00207064605499481
0.74536762799464
-0.0188144545119904
-0.46998946640893
1.01758657693116
-0.347323677384827
-0.183922118094636
0.115522241787637
0.159440460045592
-0.262448358884269
-0.387053003904071
0.129704186321072
-0.332044227725412
-0.43004809144621
0.147479563280578
0.261326100265415
0.834259993264639
-0.00518479835377142
-0.406371977640568
1.51923194092525
-0.789945873118916
-0.248995438570922
0.0847241117060309
0.851316084932521
-0.486528161808856
-0.676984522516355
0.204819142498016
-0.609567688297002
-0.915708735070813
0.100458978518912
1.01224610934956
0.840599469458455
-0.0294715920231663
0.749368163663108
1.1293968942307
0.531193807347748
-0.13977279934418
0.223857400715848
0.370803887157846
-0.611379634869694
0.529645044050888
0.0311755626038659
-1.14224769723298
-1.2813625825476
0.041987600937066
-0.155292439294187
-0.544836116881609
-0.798567863801319
0.290583752655072
-0.269510529727878
0.579418919674636
-0.607443031759322
0.142672643098907
0.128156241080254
0.717516391505138
-0.027505519253634
0.0442215969305269
-0.272358249320383
-0.0469582444511285
-0.0509052407707773
-0.234870202903487
0.276123604498357
0.00567926451037033
0.477254843023101
0.021671853942277
0.607603413582183
-0.0282409129724838
-0.0217144974009205
0.162371417519299
0.282061641557863
-0.00745988538632134
-0.0433947806204313
-0.193340583263762
-0.693570604846498
-0.0282138400874872
-0.244133431359917
-0.0609193631329376
-0.246909043807904
-0.12187865691036
0.276379428596272
0.258237954569107
-0.391724733570305
0.126913679545679
-0.354597771030516
0.315098640737297
-0.627070903106619
0.071105506983078
-0.636646925086167
-0.154322918605049
-0.212926372771847
0.0387077160804214
0.87925959002842
-0.322829057480175
-1.39582558302312
-0.0245213607903968
0.12753220960696
-1.07849152736787
-0.0226886673844982
-0.366092053618005
-0.30856030953569
-0.317667230779257
-0.106688955620109
0.10415855200382
-0.124684075991304
0.224332634349353
-0.899561049740691
0.345351680334422
0.0191585841643311
0.272855446989184
0.328528813255812
0.247437584327474
0.0714129846581559
0.172963916203635
0.115931445156133
0.563680248434572
-0.388261100511102
0.0864641923053822
-0.838916296063113
0.154741412574564
0.0634131391257118
-0.584075825868412
-0.00908970240199012
0.76435121155915
0.659431225636383
0.434240632319379
0.500743258923171
0.0108177432878208
0.0392441024273915
0.287708947147988
0.248564015446435
-1.03284909194685
-0.0603702654960181
0.0196331788628073
-0.353041629509018
-0.0939446137624105
-0.443661994427567
0.433690499557809
0.886542197715335
0.345485635577306
0.272021747806197
-0.0738552204230366
0.500184806538116
0.054260999399919
0.517543306098971
0.633516293053492
-0.89903070587668
-0.0120122838770068
0.213098529483051
0.0492679431938055
0.0946018207753973
-0.0205224016405142
0.944559432095938
1.03846499425209
-0.567656568989977
0.109051451300916
-0.166266853039832
-0.219146584773834
0.0843156943438809
0.334553941097275
0.852135013112634
-0.530308657810719
0.0408438204041056
-0.474162586931914
-0.0286718616435966
0.248068926884546
-0.359514650632739
0.444602971740548
0.25123713133411
1.30970389690126
0.0707680636072495
-0.18941019471976
0.143990506721698
0.165560474501617
-0.0844503936318495
-0.945610551869826
-0.324186789280665
0.265202297445846
-0.0708289870301145
0.0341319124971775
0.279759300267304
-0.535643103049795
0.468139886857416
0.450777118518109
0.100621811660894
0.208487195949066
0.307372362948957
0.449881396634795
0.129332746843365
0.9017746719555
-0.0891274950238021
-0.693227852296867
0.13242303162502
-0.892629156108793
-0.396924837656834
0.164810543394968
-0.0942834199235253
-0.0258649240884665
0.507348732731435
-0.513025617183568
0.420462123745143
-0.347471925289995
0.522034946594546
0.140777904627537
1.31924059435065
-0.316199091691283
-0.28437489535277
0.12306849337483
0.571543045549588
0.18793692543058
0.109288182446766
-0.505707691342036
0.17076141393478
0.649283920449868
-0.210571076270471
0.687609692945296
-0.623885144032481
0.309159417968474
0.120223961462002
0.422239494517557
-0.0714021112850879
-0.647177557417978
0.118003767674224
0.111030068098515
-0.0845700997198275
0.223805418863077
0.0017546983661518
0.404161564971669
-1.35911124905796
-0.500369686259395
-1.04324364761326
-0.372884254082089
0.148806898877884
0.25453020216632
-0.260034821441972
0.371859730813339
0.136779207524968
0.166904732977589
0.358493917749787
0.992005072589141
0.035640889430896
-0.567834469795673
-0.386915842225169
-1.62247510143404
0.162180118924702
-0.141840488606077
0.31768498892736
-0.397992908208741
0.0227036454819323
-0.683889760625838
0.173301731643054
0.457604319948138
-0.0840372585375668
-0.670481887820843
0.308142193063626
-0.084823646626779
-0.122843257194143
-1.22937897678856
-0.184240775815137
0.401283858000021
0.18004889621969
0.278983582910806
0.0184070639514879
-0.0898663147263845
-0.349180055481283
-0.860476123202346
0.00948444941963994
0.0694887366054167
-0.590685253334016
0.112390594956761
0.164686010939833
0.291924264473104
-0.0639778523992789
-0.297446287257186
-0.228142142561149
-0.601413315974188
-0.166034184250795
0.483326751427322
0.137331312716199
-0.0245130494833293
-0.0757499789384089
0.689272975520132
0.0821433541431477
-0.110289108053091
0.267175557244624
0.0861957430672684
0.563603215730937
-0.217368939911173
0.0182101563580416
0.943702843823828
0.20841050780696
0.558580761878992
-0.423660877388924
0.296876088327556
-0.429251699007989
0.133908742841417
-0.127190907552956
0.0569826832050731
0.349497217541576
-0.227258191591222
0.2569854040581
0.160393446248177
0.632708276487116
-0.742113369307042
-0.239975826461645
-0.475440230032996
0.762310274279985
-0.0766467870027601
0.202500156291209
-0.250686344777947
0.840809256719058
0.206274477378734
0.0257616419376731
0.0674269466891251
0.0814160722498771
-0.321505838773711
-0.409597341408087
0.636251905477633
0.176276071868381
-1.07303287813711
-0.213826837639895
0.41452320921395
-0.543646498694719
-0.235337104617383
0.272628947320463
0.250157478237375
-0.139778390550341
-0.182642828223657
-0.708689473047819
0.0658850349748276
-0.0306012702276919
-0.341265236030234
0.426186988752098
0.557715128338942
-0.730087575620309
-0.30738902589596
-0.317828218425154
-1.19053574507947
-0.187557506899439
-0.221009196380783
-0.618598051245306
-0.433732432916833
0.0980902341122291
1.20602794070753
0.196415351881394
-0.0649459345875576
0.500800888720388
0.248080116870621
-0.210657100528461
0.422061820726894
0.551628812689524
1.79666764434472
-0.44316639589003
-0.13042840891053
1.52720873982368
1.79230538515272
-0.501550307133793
-0.0217427302740874
-0.200928590261184
-0.810232761357754
0.00387764368260317
0.885120431369573
0.104933422041968
0.0782847149957013
0.60268964083047
-0.514279542071626
1.10571313632763
-0.686061653953529
0.047545083031739
-0.0466231289306511
0.623466152768812
-0.15953840252081
0.0434009362365164
-0.251685518691711
-0.159555365164502
-0.18243082371964
0.433294142400534
-0.546397176557865
0.203130421944484
-0.662513685881996
0.143917460870736
-1.00670732119102
-0.3315565313672
-0.0756789154246446
0.587307705912773
-0.620278388825159
0.0276071502305937
-0.0470912950128211
-0.242974958948517
-0.24840747056299
0.0169313246197042
-0.772695159194718
0.486159000290822
-0.0199358540455444
-1.31251478760866
-0.0204783782549789
-0.496286098599237
-1.53741190303273
-0.0109925218576695
1.35249553438479
-1.78298678768182
0.112349988488406
-0.0123595956175376
-0.0673835624844921
-0.175360084520159
-0.0480622202704175
-0.993987397580825
1.18665686032846
0.440397482849165
0.799505784380222
-0.074757006233747
1.35297984945886
0.0279747915605761
-0.00788305131806013
0.603031248851515
0.361444608332291
-0.406532488636877
-0.173425480861888
-1.13603199770881
-0.0948592707513248
0.00882704057818362
-0.329217581608402
-0.553326568041088
-0.125831544808009
-0.463365889873435
-0.908678006253583
0.512141564964745
-0.0620766265729625
-0.112157050862591
0.627887064675098
1.07947081318267
-0.449268147982635
-0.147940689849487
0.571119765242377
1.26140912168222
0.0901463333269066
-0.624651952135948
-0.0917965431465325
0.206172465885747
-0.555928165535758
0.391790988114331
-0.491676046384078
-0.640159855449528
0.056755786146735
0.621607773560561
0.140779898194591
-0.332378309617204
0.110072486877264
-0.348784028700892
0.605339718030497
-0.00434391216756396
-0.371183568458519
0.0463128945865187
0.503947423213295
-0.19367109080375
1.11573251109033
0.2214950539381
-0.485903218948463
0.0493804939183917
0.596538525388228
-0.913692172944552
-0.64218881042412
-0.102611309640992
-0.682310379613093
-1.01227903307469
-0.101684459003177
-1.0553080557361
-1.13912076353386
-0.0763438565329852
-0.0301600708948739
-0.682178117016203
1.36410747404774
0.936866540130806
-0.0918997110872231
1.67994729267103
0.291222574340367
0.39953461282218
-0.0606625136296798
-0.0366640151841331
1.36476797841068
0.0205226921602006
-0.307222011202039
-1.7983342571103
0.262392737687806
-0.646712376908444
0.62746060451282
0.25977947515702
0.790773445825256
-0.0242710835206329
1.45686536246174
0.565657805847979
-0.31136643675929
-0.151472305903689
0.214180391291184
0.121910084798637
-0.155608043367035
0.542310063768272
0.195587077454066
0.419862999574287
-0.485499890880091
0.0427262843654606
0.0323172670040841
0.173579641801223
-0.335761857083676
0.29014604001127
-0.26480018015417
0.037065053563821
-0.067132896636323
-0.567886496191173
-0.429971004914617
-0.135235210279563
1.30227287355386
-0.11467145373586
-0.322663208399293
1.04496913222971
-0.592276816722787
0.575955847426938
-0.152103046392568
-0.117015229696064
-0.34684720563641
0.447979608141124
0.382589547362212
0.047170830533664
-0.569210549238625
0.202275408546105
0.0494219137202969
-0.324842697692756
-0.144107349062298
-0.497647932520852
0.721773127742356
0.921462838913364
0.315528324595428
0.180040046370102
0.13385300426534
0.165248623078698
-0.226418422578245
-0.0237961772336533
-0.0716384362851708
0.146899127574284
-0.351576380598173
0.189527574819506
-0.254105976024851
-0.310802918653491
-0.154431777537335
0.248432439189894
0.29032179173948
-0.699558260989343
-0.293541500349401
0.0521608093229427
0.191779922275379
-0.894757090889223
0.124629648226374
-0.0212746563958823
-0.406145961468285
0.0707942736841823
-0.0510304848459867
0.125575823175837
-0.0179865235878865
-1.57803129585051
-0.361405596811711
-0.000519230388185809
-0.198277426583929
-0.833623152551806
-0.228342694017653
0.601454460084678
-0.773269936225221
0.775251122119863
0.0349686618180641
0.0761182387830471
-0.286804137942165
0.0436071890433499
-0.520673714412376
0.181754989949746
-1.67105239439791
-0.284957947883623
-0.309183512426139
-0.206206120262002
0.323581535284066
-0.00959173799597574
0.276974005298061
-0.530674895592975
1.35381138795221
0.160525203459095
-1.00950407951585
0.557480679448091
0.0260569967734704
-0.364769062858913
0.0797407320201611
0.704261894320972
0.918754430588424
0.0801016700938506
0.668116044592434
0.185112357015513
0.130838181758835
-0.0419056682796581
-0.267621077329089
-0.45623091784162
-0.0438307737303902
-0.0307696123686276
-0.0769825684817714
0.0198021151030546
0.172403273892977
-0.20535073845023
0.152896547378243
-0.555095430519326
0.761986680378509
-0.542553820100421
-0.138896306037855
-0.0394751215581353
0.51716138388591
1.92128047802863
-0.39993347245424
0.023633700794389
-0.191124145093982
0.965147437901721
0.11799381904465
-0.39014021325834
-0.53478784462125
0.779416708157349
0.433630689828816
0.363258815077708
-0.0515953076514361
0.227643340519719
0.0871145243399767
0.603590117453302
-0.230912422515801
-0.0336193467799991
-0.0141188515857126
0.944833720877857
-0.735032925928277
0.0363596344782479
-1.32389380152691
-0.263414534101825
-0.525094663580495
0.744736270744438
0.613540163457072
0.0488521316932113
0.818872881702045
-0.0582117588145465
0.0972419037774925
0.453291916089852
-0.17847431404149
0.262820276842107
-1.31399643377958
0.943868210054033
-0.127137952763982
-0.678686817102802
-0.668354611534756
-0.0814962866765635
-0.0168634984983439
0.198953816814124
0.105295249065437
0.557918472587866
-0.0306717648412238
0.198092643451746
-0.37671782079829
-0.120058574231594
0.0525705367591796
-0.0342915553324736
0.709308404259723
0.0203423618330906
0.0224719763596199
-0.768834259338904
0.0515837449897564
-0.483429436001145
0.459708909963626
-0.230531136372023
0.433394146858657
0.0454167481718044
0.322484946565882
1.11298854208138
-0.308496553305793
-0.150739738434794
0.267773253441311
0.488576549672163
0.166208477194015
-0.163956562541563
-0.334899086102041
0.706632552189173
0.507648225763883
-0.0549327271339164
0.313283892996531
0.227773190044264
0.0749338494117822
0.53672281125022
-0.996389741221973
-0.414886438650405
-0.0129982941547062
0.338118706813332
-0.91357111597922
0.00446949303130161
0.578485208410933
-0.180815917075295
0.0643821925334457
1.2706536867688
0.398607497114811
-0.178079652567062
0.0276712407253803
0.182510745265294
-1.38084435093637
0.621347496344644
-0.257135993126632
-0.0261626961350706
0.0785105054064361
0.29580597833394
-0.125340461299011
0.0415993014477844
0.243471225932775
-0.220130804870963
0.306767380992343
0.381828870702144
0.177922206774529
-0.0451164540796518
-0.0251226346359521
0.597734277475998
0.122918889168516
-0.215083658743697
-0.0402369492231507
-0.680089797533311
-0.118246988239808
0.114723552316413
0.0194485850033385
-0.344937542828234
0.18148328089665
0.153415605211908
0.128205814824946
0.11558460528171
-1.18154131916623
0.152687976864694
-0.674816170680546
0.441079450766916
-0.27155821778678
-0.104487429752161
-0.67281036836199
0.296353786769728
-0.00331532825897693
0.0573638878012949
-0.384647283236691
-0.320474868853642
0.0262561936410495
-0.751348407962121
0.0471377391034087
-0.410094936432121
0.0380846347090268
-0.0451685665206108
0.0981949836429696
0.271045191027686
0.156220193515648
0.0348796772948594
0.174837944883662
0.36898635117506
-0.23245167058378
0.452888415038808
-0.711300127696771
-0.222372897714894
-0.477235079868933
-0.211085774623798
0.534820949372572
0.0680421850639093
-0.575195795494749
0.581340040363008
0.0620777675029444
0.226934810918624
0.538009036817405
-0.0828521079917368
0.374856324288394
0.212948124568977
-0.494895677826594
0.252130093017663
-0.268479333135169
0.0832621945705341
-0.153461104694598
0.217391094923523
0.500265244086927
0.143793567490869
-0.326787929164506
0.015084090015709
0.140044863914018
0.0718139487801331
0.0760735421217308
0.10552514397979
0.135273892258406
-0.0132467863677964
-0.947993765596228
-0.0719017368914286
0.02358955034355
-0.0614615133530201
0.755165920377774
0.14382239223661
-0.149679993783465
0.601366553837714
0.293026144341578
0.0249894219631802
-0.074021426579111
-0.072461672042613
0.19127838704952
0.104274317910647
0.000991729135988057
0.366992424373268
0.176304936677504
-0.370354184337447
-0.128000642615248
0.245772960437312
0.338462410091849
-0.316878109469178
-0.467259808718894
0.357406573107936
0.175279939900268
-0.397376435097025
-0.121232178421608
0.408923092001851
-0.0277842476073073
0.710336154755572
0.0447065944639697
-0.2008483575456
-0.320132844457742
-0.300283867756354
-0.0616361714262379
0.422053283503516
-0.552740180892834
-0.561321490484169
-0.330530090121948
0.307179004108593
0.574152140060775
-0.13273697640693
0.331431475788717
0.748505638449149
-0.394654707000934
-0.207560758976349
0.562226878851534
0.451217038648717
0.216377597246779
-0.350946720364714
0.136700163377719
0.102642589511542
0.878578197347348
-0.339764012710572
-0.00991790454043122
0.0668118653653558
-0.447190770640739
0.129943418824689
0.422376779726873
0.0555551743178044
-0.81460980579685
-0.160487229802583
0.0744581819101803
0.290238202603626
-0.250405311831071
0.315750669677061
-0.1135422084999
0.24323154055916
0.0300671336645477
0.316812407879118
-0.111100338537041
0.0435025582279751
0.0432672767334177
0.784901116492939
0.377361708939441
-0.0688237026716934
-0.153176913178739
-0.118171306369375
0.409693174495613
-0.0822719677998974
0.204911694295436
0.18142804914377
0.472901086879324
0.566994054125954
-0.00517027300315868
-0.0881043818951584
0.00469458688702536
0.0457913633021402
0.102799646379656
0.191001432381067
-0.625188478281674
-0.566048066502271
-0.121435845927204
0.0644561156447869
-1.12529688179262
0.188979878205107
0.0453793669258559
-0.453731123231255
0.49952222582211
0.135113164286031
-0.33294369656376
0.54337862043965
0.124232079323421
0.182709749280928
0.573594958296683
0.406736253177248
0.0844124693509336
0.472211573629938
2.41102900287566
-0.471914767757799
0.191590484945534
0.425848560075817
0.759948090179246
-0.843926894171639
0.227744674176802
-0.593786185395686
-0.840933857358307
0.268307723525395
0.90907931430363
1.01017472847625
0.333114766452786
-0.640897359040676
-0.336327882399204
0.151215172262928
0.270825549713577
0.26382619014102
0.690119704409663
1.06964387507231
-0.00335702366781398
0.101880975401117
0.315777470125716
0.550986182999402
0.0385287226084602
0.962778676373961
0.715555688710024
0.517918158797806
-0.571052804555574
-0.0527615017226541
-0.0342044062700125
-0.210255458233304
0.144469173990444
-0.00528638503436994
-0.195735752401767
-0.01474115737978
0.0833068509261306
0.392320080412236
-0.0879569420389999
0.316770703800445
-0.550512198048125
0.179657448213633
0.449124392696188
0.459499867511347
0.288134212228012
-0.112772886247033
-0.271886376801607
0.347698190029168
0.938238791103318
0.156012650372053
-0.598565281369771
0.218960012904697
-0.704219587408424
0.188607931023089
0.0622674872641788
-2.22277001014913
0.862758805886361
-0.286250883641468
-0.0832331525247674
-1.468625541038
0.739084908248225
0.592096955075024
0.228084627590669
0.517874535761619
-0.453830886257706
-0.00259272849535155
0.183460025654167
0.104299689454248
0.561890593388354
-0.0448710431272395
-0.957627875190152
-0.241379699993761
0.279242740651953
-0.345262456864034
-0.953276845913473
-0.0473559419185327
0.843259397572971
-0.0662367287130448
0.3829520508859
0.618059626066297
0.50943923191292
-0.121227901886765
0.547246386249213
1.17520010033792
-0.0460683335069991
-0.997579291670357
-0.481223179746727
0.378213717017385
-0.239844353702608
-0.393376918909743
-0.519746342673119
0.112586109982682
-0.0707575281487253
0.365592124216917
0.22563674278773
-0.591889719652415
-0.0486315190864318
0.0959896512753433
0.408971082200336
0.282400710884282
0.0926354270436358
-0.237387395550692
0.584847018091411
-0.170108999935456
-0.381972642059655
0.0091927526555594
-0.216596395714757
0.207361677397525
-0.251797975575298
-0.0398662119985357
0.33479817188555
0.120105576056993
0.170804053892365
0.48446131187211
-1.34535912955316
-1.02732874834801
-0.982966556006975
-1.00829328354865
-1.0657305495771
-0.798129884956276
-1.01286834621184
-1.41368262090709
-1.75829671915987
-1.4775571333416
1.1837635108151
0.667568249377699
1.0463672321511
-1.4686239656895
0.00824606632342443
-1.2366743668413
0.979024136318956
-0.913095535200225
-0.515181373983644
0.22029232585329
0.296238442174853
0.587224398731364
-0.0680052958769171
-0.474073115994903
-0.396108657163228
0.206131431773717
0.365127186804706
1.23919078455906
0.488568977265012
-1.20938835547404
0.850374329595256
0.836172206022082
-0.107253655260579
-0.0489851847764131
-1.1258649294458
0.220456729116258
-0.764099949684883
0.0429928097485291
0.195284132267028
1.10650910159015
-0.801125662572278
0.825923672315351
0.618959766164724
0.816408192627415
0.743317957044645
-1.08005278932932
-1.08720163551266
-0.551697416092602
1.10831215056553
0.708909872053823
1.03564714552958
-0.598197058374093
0.433649580905976
0.819320449160526
-0.177929177464269
0.436693571068632
0.240677476587129
-1.53288538501545
0.536826380355812
-0.242518141059634
-0.960816210009011
0.828944421291028
1.05014289370991
0.974957335460226
-1.12897778520306
-0.706656593156178
-0.824546950820051
0.876043038960538
-0.786624208600169
-0.795696290474331
0.68140887807867
0.809980337759845
-0.705680507497588
0.428164483050287
0.636243182224533
-0.4136191531168
-0.911827337164696
0.760711916837468
0.529765771659244
-0.403956922332854
-1.43377886877916
-0.924456707822254
-0.857501455812163
-1.08759622754796
-1.25941496730718
-1.23209554084726
-1.33019910515846
-1.19195637896623
-1.31751525177982
-1.2723913782293
-0.0923780787935056
0.559066504488287
-0.779621784950035
1.0315803692276
-0.62829073411184
1.23087625090614
-0.534720390402802
-0.699740031713174
-1.5271292820737
-0.684724773942202
1.17817174493768
-0.947840323214498
0.744029242129851
0.587354582708384
0.361891240582143
-0.773705806473641
-1.11445100059739
0.927625944207978
-0.845439564353144
-0.438888712860454
-0.41783101444517
1.19197745953026
-0.345528825676355
-0.433137074500199
1.01920115145306
-0.275763509170778
0.491492944843456
-0.792311380692906
-0.994474834387793
-0.983215079383655
-1.68477690670879
-1.05280162387984
-0.954247796650769
-1.14856370978426
-0.306263543492957
-0.67768837089449
-0.701277810843409
-0.952388827664097
-1.39798159773324
-0.813884879838058
0.904899298191806
0.523736495452546
-0.353512853736606
0.0240209070735439
-0.477716009532693
-0.505523286289617
0.165794047292235
-0.106709356597236
-0.697680445333263
0.751525861291333
-0.384548545610369
-1.00618724967804
-0.468154940212883
-0.220959635044976
0.818765861669769
0.600902154446356
-0.477155808275537
0.561571361302394
-0.932375088879465
1.03614774331766
0.76468171767816
0.393491385614939
0.70326552383913
0.391624110937175
0.454716950312288
0.416024946561365
0.00826469956586754
0.0586354625664997
0.74730282625788
-0.449005009435923
-0.11476592703482
-0.522323593461119
0.559670600033715
-0.384191908596727
-0.647903512597343
-1.40556571568162
-1.0059261751126
-0.948861261074045
-1.03575549840707
-1.15573926112205
-0.646453942264624
-1.10389449549607
-1.18330076501447
-1.54188273570071
-1.50793091423168
-0.191200570098044
-0.314078796324436
-0.816531080140573
-0.778701429966113
-2.76499175750295
-1.28463911766199
-1.9946446546351
-2.75643234443706
-2.14186063340007
0.341871183683728
-1.0211445629176
-0.345551618648375
-0.307887922168767
-0.828792300160272
-0.414497157064471
-0.139716566394283
